{"learner":{"attributes":{"scikit_learn":"{\"_estimator_type\": \"regressor\"}"},"feature_names":[],"feature_types":[],"gradient_booster":{"model":{"gbtree_model_param":{"num_parallel_tree":"1","num_trees":"200"},"iteration_indptr":[0,1,2,3,4,5,6,7,8,9,10,11,12,13,14,15,16,17,18,19,20,21,22,23,24,25,26,27,28,29,30,31,32,33,34,35,36,37,38,39,40,41,42,43,44,45,46,47,48,49,50,51,52,53,54,55,56,57,58,59,60,61,62,63,64,65,66,67,68,69,70,71,72,73,74,75,76,77,78,79,80,81,82,83,84,85,86,87,88,89,90,91,92,93,94,95,96,97,98,99,100,101,102,103,104,105,106,107,108,109,110,111,112,113,114,115,116,117,118,119,120,121,122,123,124,125,126,127,128,129,130,131,132,133,134,135,136,137,138,139,140,141,142,143,144,145,146,147,148,149,150,151,152,153,154,155,156,157,158,159,160,161,162,163,164,165,166,167,168,169,170,171,172,173,174,175,176,177,178,179,180,181,182,183,184,185,186,187,188,189,190,191,192,193,194,195,196,197,198,199,200],"tree_info":[0,0,0,0,0,0,0,0,0,0,0,0,0,0,0,0,0,0,0,0,0,0,0,0,0,0,0,0,0,0,0,0,0,0,0,0,0,0,0,0,0,0,0,0,0,0,0,0,0,0,0,0,0,0,0,0,0,0,0,0,0,0,0,0,0,0,0,0,0,0,0,0,0,0,0,0,0,0,0,0,0,0,0,0,0,0,0,0,0,0,0,0,0,0,0,0,0,0,0,0,0,0,0,0,0,0,0,0,0,0,0,0,0,0,0,0,0,0,0,0,0,0,0,0,0,0,0,0,0,0,0,0,0,0,0,0,0,0,0,0,0,0,0,0,0,0,0,0,0,0,0,0,0,0,0,0,0,0,0,0,0,0,0,0,0,0,0,0,0,0,0,0,0,0,0,0,0,0,0,0,0,0,0,0,0,0,0,0,0,0,0,0,0,0,0,0,0,0,0,0],"trees":[{"base_weights":[1.4890633E0,-2.8602444E2,2.2305714E2,-3.3820648E2,-1.1819759E2,1.5172707E2,3.1669098E2,-3.820782E1,-3.1202014E2,-1.4353963E2,-5.7103218E1,9.1198135E1,1.9096576E2,2.7784086E1,3.5226852E1,-3.2395348E1,-2.7946676E1,-1.9180227E1,-1.2641011E1,-7.411246E0,-3.575485E1,3.4656685E1,1.0963371E2,1.6974514E1,2.1303537E1,-4.529891E1,3.845923E0,3.690784E1,-8.411702E0,9.1279434E1,1.2406197E1,-1.1983765E0,-4.663212E0,2.1966188E0,-6.1756897E-1,3.8465774E0,-1.3483765E0,-1.6433777E0,3.816223E-1,3.5021648E0,9.259289E0],"categories":[],"categories_nodes":[],"categories_segments":[],"categories_sizes":[],"default_left":[0,0,0,0,0,0,0,0,0,0,0,0,0,0,0,0,0,0,0,0,0,0,0,0,0,0,0,0,0,0,0,0,0,0,0,0,0,0,0,0,0],"id":0,"left_children":[1,3,5,7,9,11,13,-1,15,17,19,21,23,-1,-1,-1,-1,-1,-1,-1,25,27,29,-1,-1,31,33,35,37,39,-1,-1,-1,-1,-1,-1,-1,-1,-1,-1,-1],"loss_changes":[8.606395E7,5.109464E6,5.047952E6,3.9546E5,2.1010738E5,1.015742E6,3.56868E5,0E0,2.0566E4,5.759925E4,1.296425E4,1.7653112E5,8.7009E4,0E0,0E0,0E0,0E0,0E0,0E0,0E0,8.111209E3,4.576414E3,2.3102375E4,0E0,0E0,1.9625E2,1.0436277E3,3.8159531E3,3.56995E2,1.2646562E3,0E0,0E0,0E0,0E0,0E0,0E0,0E0,0E0,0E0,0E0,0E0],"parents":[2147483647,0,0,1,1,2,2,3,3,4,4,5,5,6,6,8,8,9,9,10,10,11,11,12,12,20,20,21,21,22,22,25,25,26,26,27,27,28,28,29,29],"right_children":[2,4,6,8,10,12,14,-1,16,18,20,22,24,-1,-1,-1,-1,-1,-1,-1,26,28,30,-1,-1,32,34,36,38,40,-1,-1,-1,-1,-1,-1,-1,-1,-1,-1,-1],"split_conditions":[2.8972111E-3,-8.0589044E-1,8.740687E-1,-1.2745026E0,-3.5489222E-1,5.368291E-1,1.1584654E0,-3.820782E1,-1.0968922E0,-1.0483499E0,-2.0920743E-1,2.2160737E-1,7.0343065E-1,2.7784086E1,3.5226852E1,-3.2395348E1,-2.7946676E1,-1.9180227E1,-1.2641011E1,-7.411246E0,9.682655E-1,4.30238E0,3.9958468E-1,1.6974514E1,2.1303537E1,5.684362E-1,-6.7229694E-1,1.359506E0,-3.4439778E-1,-5.489293E-1,1.2406197E1,-1.1983765E0,-4.663212E0,2.1966188E0,-6.1756897E-1,3.8465774E0,-1.3483765E0,-1.6433777E0,3.816223E-1,3.5021648E0,9.259289E0],"split_indices":[10,10,10,10,10,10,10,0,10,29,10,10,10,0,0,0,0,0,0,0,8,27,10,0,0,2,0,6,0,13,0,0,0,0,0,0,0,0,0,0,0],"split_type":[0,0,0,0,0,0,0,0,0,0,0,0,0,0,0,0,0,0,0,0,0,0,0,0,0,0,0,0,0,0,0,0,0,0,0,0,0,0,0,0,0],"sum_hessian":[1.349E3,5.87E2,7.62E2,4.47E2,1.4E2,4.34E2,3.28E2,1.62E2,2.85E2,9.8E1,4.2E1,1.72E2,2.62E2,1.61E2,1.67E2,2.02E2,8.3E1,2.3E1,7.5E1,2.2E1,2E1,4.3E1,1.29E2,1.38E2,1.24E2,1.6E1,4E0,4.1E1,2E0,6E1,6.9E1,1E0,1.5E1,1E0,3E0,4E1,1E0,1E0,1E0,2E0,5.8E1],"tree_param":{"num_deleted":"0","num_feature":"30","num_nodes":"41","size_leaf_vector":"1"}},{"base_weights":[3.2380376E0,-2.659569E2,1.9414258E2,-3.0587314E2,-1.1837898E2,1.1837009E2,2.7236298E2,-3.4629883E1,-2.8150632E2,-1.5154453E2,-9.166902E1,5.605353E1,1.5513947E2,2.3101358E2,3.0829684E2,-2.9658606E1,-2.5948893E1,-1.726799E1,-1.2726135E1,-1.004268E1,-5.34459E0,1.0095614E1,8.831825E1,1.3296564E2,1.7017567E1,2.1502522E1,2.5431288E1,2.8447153E1,3.3341846E1,-3.9048784E0,2.6266754E1,1.9636596E0,8.888199E1,1.1482052E1,1.4181399E1,9.951375E-1,3.2692165E0,2.5265138E0,8.932794E0],"categories":[],"categories_nodes":[],"categories_segments":[],"categories_sizes":[],"default_left":[0,0,0,0,0,0,0,0,0,0,0,0,0,0,0,0,0,0,0,0,0,0,0,0,0,0,0,0,0,0,0,0,0,0,0,0,0,0,0],"id":1,"left_children":[1,3,5,7,9,11,13,-1,15,17,19,21,23,25,27,-1,-1,-1,-1,-1,-1,29,31,33,-1,-1,-1,-1,-1,-1,35,-1,37,-1,-1,-1,-1,-1,-1],"loss_changes":[6.886356E7,3.239056E6,4.61449E6,3.32976E5,9.2410125E4,9.078405E5,5.0083E5,0E0,1.5342E4,4.712625E3,1.7730312E4,2.2153128E5,6.1058E4,1.3486E4,2.6656E4,0E0,0E0,0E0,0E0,0E0,0E0,5.10931E4,1.661875E3,7.35625E2,0E0,0E0,0E0,0E0,0E0,0E0,4.7066523E3,0E0,2.113125E2,0E0,0E0,0E0,0E0,0E0,0E0],"parents":[2147483647,0,0,1,1,2,2,3,3,4,4,5,5,6,6,8,8,9,9,10,10,11,11,12,12,13,13,14,14,21,21,22,22,23,23,30,30,32,32],"right_children":[2,4,6,8,10,12,14,-1,16,18,20,22,24,26,28,-1,-1,-1,-1,-1,-1,30,32,34,-1,-1,-1,-1,-1,-1,36,-1,38,-1,-1,-1,-1,-1,-1],"split_conditions":[-2.0920743E-1,-8.0589044E-1,7.988412E-1,-1.2833099E0,-4.9543896E-1,4.4141862E-1,1.1070905E0,-3.4629883E1,-1.1365244E0,1.688715E-2,-3.1525946E-1,2.2160737E-1,6.1499256E-1,9.845246E-1,1.2634169E0,-2.9658606E1,-2.5948893E1,-1.726799E1,-1.2726135E1,-1.004268E1,-5.34459E0,1.2199079E-1,2.6542284E-2,5.181141E-1,1.7017567E1,2.1502522E1,2.5431288E1,2.8447153E1,3.3341846E1,-3.9048784E0,-5.6569856E-2,1.9636596E0,-6.356879E-1,1.1482052E1,1.4181399E1,9.951375E-1,3.2692165E0,2.5265138E0,8.932794E0],"split_indices":[10,10,10,10,10,10,10,0,10,7,13,10,10,10,10,0,0,0,0,0,0,7,3,10,0,0,0,0,0,0,17,0,13,0,0,0,0,0,0],"split_type":[0,0,0,0,0,0,0,0,0,0,0,0,0,0,0,0,0,0,0,0,0,0,0,0,0,0,0,0,0,0,0,0,0,0,0,0,0,0,0],"sum_hessian":[1.338E3,5.55E2,7.83E2,4.36E2,1.19E2,3.99E2,3.84E2,1.59E2,2.77E2,5.1E1,6.8E1,1.49E2,2.5E2,1.82E2,2.02E2,1.57E2,1.2E2,2.4E1,2.7E1,5.4E1,1.4E1,6.2E1,8.7E1,1.05E2,1.45E2,1.14E2,6.8E1,1.1E2,9.2E1,1.5E1,4.7E1,1E0,8.6E1,3.9E1,6.6E1,1.4E1,3.3E1,1E0,8.5E1],"tree_param":{"num_deleted":"0","num_feature":"30","num_nodes":"39","size_leaf_vector":"1"}},{"base_weights":[-1.161264E0,-2.3268965E2,1.8082224E2,-2.7651105E2,-9.9331566E1,1.2526221E2,2.575961E2,-3.1774687E1,-2.5634598E2,-1.388198E2,-7.2481575E1,5.97301E1,1.5136658E2,2.3596927E2,2.9662327E1,-2.7014296E1,-2.3339933E1,-1.591318E1,-1.1734343E1,-8.743448E1,-3.6782948E1,1.8039158E1,8.215433E1,1.3232704E2,1.731135E1,2.0047659E1,2.458325E1,-1.3291931E0,-8.843203E1,1.6792074E1,-4.154995E1,-4.3287964E0,2.189828E1,6.7064415E1,9.06403E0,1.1810052E1,1.3987369E1,-3.524117E0,-8.96378E0,2.03703E0,4.81781E-1,-1.6399659E0,-4.296249E0,1.1003091E0,3.5081513E0,1.5470215E0,6.8193293E0],"categories":[],"categories_nodes":[],"categories_segments":[],"categories_sizes":[],"default_left":[0,0,0,0,0,0,0,0,0,0,0,0,0,0,0,0,0,0,0,0,0,0,0,0,0,0,0,0,0,0,0,0,0,0,0,0,0,0,0,0,0,0,0,0,0,0,0],"id":2,"left_children":[1,3,5,7,9,11,13,-1,15,17,19,21,23,25,-1,-1,-1,-1,-1,27,29,31,33,35,-1,-1,-1,-1,37,39,41,-1,43,45,-1,-1,-1,-1,-1,-1,-1,-1,-1,-1,-1,-1,-1],"loss_changes":[5.591222E7,3.385394E6,3.137042E6,2.83588E5,1.4473588E5,7.316805E5,1.925E5,0E0,3.1926E4,6.62825E3,4.4291938E4,1.1537891E5,1.050345E5,2.2481E4,0E0,0E0,0E0,0E0,0E0,3.410125E3,7.8486914E3,1.1598027E4,4.2935E3,1.625E3,0E0,0E0,0E0,0E0,7.53375E2,3.0399658E1,2.1910156E2,0E0,5.79025E3,8.670625E2,0E0,0E0,0E0,0E0,0E0,0E0,0E0,0E0,0E0,0E0,0E0,0E0,0E0],"parents":[2147483647,0,0,1,1,2,2,3,3,4,4,5,5,6,6,8,8,9,9,10,10,11,11,12,12,13,13,19,19,20,20,21,21,22,22,23,23,28,28,29,29,30,30,32,32,33,33],"right_children":[2,4,6,8,10,12,14,-1,16,18,20,22,24,26,-1,-1,-1,-1,-1,28,30,32,34,36,-1,-1,-1,-1,38,40,42,-1,44,46,-1,-1,-1,-1,-1,-1,-1,-1,-1,-1,-1,-1,-1],"split_conditions":[-1.189345E-1,-9.3488944E-1,8.9975613E-1,-1.3240428E0,-4.9543896E-1,4.6086785E-1,1.2377294E0,-3.1774687E1,-1.1365244E0,-7.1312076E-1,-2.565458E-1,2.2160737E-1,7.0343065E-1,9.9333185E-1,2.9662327E1,-2.7014296E1,-2.3339933E1,-1.591318E1,-1.1734343E1,-6.0058105E-1,3.366629E-1,-2.5120623E0,3.577512E-1,5.867361E-1,1.731135E1,2.0047659E1,2.458325E1,-1.3291931E0,-2.4469925E-2,-6.7229694E-1,-5.341679E-2,-4.3287964E0,1.2913275E-1,-4.2061085E-1,9.06403E0,1.1810052E1,1.3987369E1,-3.524117E0,-8.96378E0,2.03703E0,4.81781E-1,-1.6399659E0,-4.296249E0,1.1003091E0,3.5081513E0,1.5470215E0,6.8193293E0],"split_indices":[10,3,10,10,10,10,10,0,10,3,10,10,10,10,0,0,0,0,0,2,2,22,10,10,0,0,0,0,7,0,12,0,10,15,0,0,0,0,0,0,0,0,0,0,0,0,0],"split_type":[0,0,0,0,0,0,0,0,0,0,0,0,0,0,0,0,0,0,0,0,0,0,0,0,0,0,0,0,0,0,0,0,0,0,0,0,0,0,0,0,0,0,0,0,0,0,0],"sum_hessian":[1.325E3,5.83E2,7.42E2,4.38E2,1.45E2,4.32E2,3.1E2,1.39E2,2.99E2,5.7E1,8.8E1,1.24E2,3.08E2,2.04E2,1.06E2,1.8E2,1.19E2,2.6E1,3.1E1,6.1E1,2.7E1,4.4E1,8E1,1.68E2,1.4E2,4.9E1,1.55E2,1E0,6E1,2E0,2.5E1,2E0,4.2E1,3.2E1,4.8E1,6.4E1,1.04E2,2E0,5.8E1,1E0,1E0,2E0,2.3E1,2.4E1,1.8E1,1E0,3.1E1],"tree_param":{"num_deleted":"0","num_feature":"30","num_nodes":"47","size_leaf_vector":"1"}},{"base_weights":[-2.532441E0,-2.0997638E2,1.6227054E2,-2.4966167E2,-8.844589E1,1.0080505E2,2.1877489E2,-2.8047367E1,-2.292943E2,-1.0313333E2,-3.573447E1,5.7624256E1,1.27343025E2,1.876105E2,2.5193579E2,-2.3871962E1,-2.0705812E1,-1.4348126E1,-8.988302E1,2.2197998E0,-4.004894E1,2.1292917E1,7.57563E1,1.0576091E2,1.4053027E1,1.6795551E1,2.0600426E1,2.3794762E1,2.7757828E1,-1.00222225E1,-7.3097224E0,-6.3136873E0,-3.54834E1,-4.897006E1,3.249644E1,3.83423E1,7.882653E1,6.4294214E0,1.1078449E1,-3.7232907E0,-1.5240754E0,-7.473514E0,-1.0962464E0,1.2862118E0,4.6686263E0,9.2042845E-1,4.0834017E0,1.4696716E0,7.9415026E0],"categories":[],"categories_nodes":[],"categories_segments":[],"categories_sizes":[],"default_left":[0,0,0,0,0,0,0,0,0,0,0,0,0,0,0,0,0,0,0,0,0,0,0,0,0,0,0,0,0,0,0,0,0,0,0,0,0,0,0,0,0,0,0,0,0,0,0,0,0],"id":3,"left_children":[1,3,5,7,9,11,13,-1,15,17,19,21,23,25,27,-1,-1,-1,29,-1,31,33,35,37,-1,-1,-1,-1,-1,-1,-1,-1,39,41,43,45,47,-1,-1,-1,-1,-1,-1,-1,-1,-1,-1,-1,-1],"loss_changes":[4.625541E7,2.866878E6,2.596638E6,2.1872E5,1.1166975E5,4.0863525E5,3.57844E5,0E0,8.625E3,4.9119625E4,9.387227E3,9.06135E4,4.888925E4,3.98755E4,1.026E3,0E0,0E0,0E0,8.2936875E3,0E0,1.1327734E3,3.937661E4,7.6605E3,1.14169375E4,0E0,0E0,0E0,0E0,0E0,0E0,0E0,0E0,4.595703E2,6.0355996E3,1.1101027E4,2.7758496E2,2.04075E3,0E0,0E0,0E0,0E0,0E0,0E0,0E0,0E0,0E0,0E0,0E0,0E0],"parents":[2147483647,0,0,1,1,2,2,3,3,4,4,5,5,6,6,8,8,9,9,10,10,11,11,12,12,13,13,14,14,18,18,20,20,21,21,22,22,23,23,32,32,33,33,34,34,35,35,36,36],"right_children":[2,4,6,8,10,12,14,-1,16,18,20,22,24,26,28,-1,-1,-1,30,-1,32,34,36,38,-1,-1,-1,-1,-1,-1,-1,-1,40,42,44,46,48,-1,-1,-1,-1,-1,-1,-1,-1,-1,-1,-1,-1],"split_conditions":[-1.0501282E-1,-9.3488944E-1,8.068213E-1,-1.2919102E0,-5.9913474E-1,4.653E-1,1.1334609E0,-2.8047367E1,-1.117492E0,-1.0483499E0,-9.447494E-1,2.4559025E-1,-7.378556E-1,-3.5423875E-1,1.3099881E0,-2.3871962E1,-2.0705812E1,-1.4348126E1,4.982609E-2,2.2197998E0,-1.0198685E0,-1.8687075E0,-1.769876E0,-1.4340285E0,1.4053027E1,1.6795551E1,2.0600426E1,2.3794762E1,2.7757828E1,-1.00222225E1,-7.3097224E0,-6.3136873E0,8.510208E-1,-6.167919E-1,4.008171E-1,-1.5641295E0,-4.2061085E-1,6.4294214E0,1.1078449E1,-3.7232907E0,-1.5240754E0,-7.473514E0,-1.0962464E0,1.2862118E0,4.6686263E0,9.2042845E-1,4.0834017E0,1.4696716E0,7.9415026E0],"split_indices":[3,3,3,3,29,3,3,0,3,29,6,3,2,4,3,0,0,0,5,0,19,23,2,2,0,0,0,0,0,0,0,0,8,0,23,6,15,0,0,0,0,0,0,0,0,0,0,0,0],"split_type":[0,0,0,0,0,0,0,0,0,0,0,0,0,0,0,0,0,0,0,0,0,0,0,0,0,0,0,0,0,0,0,0,0,0,0,0,0,0,0,0,0,0,0,0,0,0,0,0,0],"sum_hessian":[1.351E3,5.98E2,7.53E2,4.5E2,1.48E2,3.62E2,3.91E2,1.74E2,2.76E2,1.15E2,3.3E1,1.39E2,2.23E2,2.05E2,1.86E2,1.87E2,8.9E1,2.6E1,8.9E1,2E0,3.1E1,4.7E1,9.2E1,8.8E1,1.35E2,1.04E2,1.01E2,1.27E2,5.9E1,5.2E1,3.7E1,3E0,2.8E1,6E0,4.1E1,8E0,8.4E1,1.1E1,7.7E1,2.5E1,3E0,3E0,3E0,1.8E1,2.3E1,1E0,7E0,1E0,8.3E1],"tree_param":{"num_deleted":"0","num_feature":"30","num_nodes":"49","size_leaf_vector":"1"}},{"base_weights":[-8.8020164E-1,-1.9754877E2,1.4320973E2,-2.2404124E2,-9.0782555E1,8.6394394E1,2.0098125E2,-2.6152967E1,-2.092518E2,-1.2237742E1,-7.092829E1,2.5387344E1,1.0623377E2,1.6965582E2,2.2881319E2,-2.2094145E1,-1.9100056E1,-7.817114E1,-4.4454503E0,-3.9964252E0,4.659315E1,7.8762276E1,1.1837145E2,1.5200192E1,1.8223465E1,2.157453E1,2.5957983E1,-1.1865295E0,-7.916097E0,-2.972286E1,9.928323E0,2.5685425E1,5.0495106E1,7.920344E0,1.8867371E0,1.0804093E2,1.2803479E1,-3.107272E0,-5.4124147E-1,1.377057E0,-2.6680582E0,2.9692993E0,5.100912E-1,5.344232E0,2.6019287E0,1.0852413E1,2.8893983E0],"categories":[],"categories_nodes":[],"categories_segments":[],"categories_sizes":[],"default_left":[0,0,0,0,0,0,0,0,0,0,0,0,0,0,0,0,0,0,0,0,0,0,0,0,0,0,0,0,0,0,0,0,0,0,0,0,0,0,0,0,0,0,0,0,0,0,0],"id":4,"left_children":[1,3,5,7,9,11,13,-1,15,-1,17,19,21,23,25,-1,-1,27,-1,29,31,33,35,-1,-1,-1,-1,-1,-1,37,39,41,43,-1,-1,45,-1,-1,-1,-1,-1,-1,-1,-1,-1,-1,-1],"loss_changes":[3.8199524E7,1.591908E6,2.536274E6,1.98094E5,6.3458625E4,4.74178E5,2.96841E5,0E0,2.8633E4,0E0,1.0522375E4,6.125065E4,8.97085E4,1.3382E4,2.481E4,0E0,0E0,2.7360938E3,0E0,1.5340931E4,3.353125E3,9.89375E2,6.53175E3,0E0,0E0,0E0,0E0,0E0,0E0,3.2405762E2,4.3058984E3,7.559712E2,1.9998281E3,0E0,0E0,8.79875E2,0E0,0E0,0E0,0E0,0E0,0E0,0E0,0E0,0E0,0E0,0E0],"parents":[2147483647,0,0,1,1,2,2,3,3,4,4,5,5,6,6,8,8,10,10,11,11,12,12,13,13,14,14,17,17,19,19,20,20,21,21,22,22,29,29,30,30,31,31,32,32,35,35],"right_children":[2,4,6,8,10,12,14,-1,16,-1,18,20,22,24,26,-1,-1,28,-1,30,32,34,36,-1,-1,-1,-1,-1,-1,38,40,42,44,-1,-1,46,-1,-1,-1,-1,-1,-1,-1,-1,-1,-1,-1],"split_conditions":[-2.0920743E-1,-9.552444E-1,7.988412E-1,-1.3460606E0,-5.471812E-1,3.577512E-1,1.1103933E0,-2.6152967E1,-1.1570743E0,-1.2237742E1,-3.7542832E-1,1.2913275E-1,5.368291E-1,9.2030597E-1,1.3463506E0,-2.2094145E1,-1.9100056E1,-7.400681E-1,-4.4454503E0,1.435006E-1,1.8197559E-1,1.9513874E0,6.682022E-1,1.5200192E1,1.8223465E1,2.157453E1,2.5957983E1,-1.1865295E0,-7.916097E0,1.2199079E-1,1.1805513E0,1.2270265E0,1.5299382E0,7.920344E0,1.8867371E0,1.0697551E0,1.2803479E1,-3.107272E0,-5.4124147E-1,1.377057E0,-2.6680582E0,2.9692993E0,5.100912E-1,5.344232E0,2.6019287E0,1.0852413E1,2.8893983E0],"split_indices":[10,10,10,10,10,10,10,0,10,0,13,10,10,10,10,0,0,6,0,7,10,20,10,0,0,0,0,0,0,7,6,2,4,0,0,29,0,0,0,0,0,0,0,0,0,0,0],"split_type":[0,0,0,0,0,0,0,0,0,0,0,0,0,0,0,0,0,0,0,0,0,0,0,0,0,0,0,0,0,0,0,0,0,0,0,0,0,0,0,0,0,0,0,0,0,0,0],"sum_hessian":[1.346E3,5.69E2,7.77E2,4.55E2,1.14E2,3.93E2,3.84E2,1.24E2,3.31E2,4.2E1,7.2E1,9.7E1,2.96E2,1.84E2,2E2,1.95E2,1.36E2,5.5E1,1.7E1,4.1E1,5.6E1,9.3E1,2.03E2,8.2E1,1.02E2,1.46E2,5.4E1,1E0,5.4E1,1.4E1,2.7E1,1E1,4.6E1,9.2E1,1E0,1.04E2,9.9E1,1.3E1,1E0,2.5E1,2E0,8E0,2E0,4E1,6E0,1.03E2,1E0],"tree_param":{"num_deleted":"0","num_feature":"30","num_nodes":"47","size_leaf_vector":"1"}},{"base_weights":[-1.6494788E0,-1.7655087E2,1.2747296E2,-2.0207364E2,-7.681696E1,7.808327E1,1.7989851E2,-2.240808E2,-1.8114119E2,-9.965764E1,-6.074615E1,3.5685574E1,1.0166325E2,1.5147095E2,2.0513644E2,-2.4357754E1,-2.077322E1,-1.8771957E1,-1.6075464E1,-1.0057291E1,-2.832007E0,-6.46146E1,-3.3068104E0,-6.8726544E0,5.2211613E1,8.948318E0,1.11870985E1,1.3848322E1,1.657792E1,1.9301304E1,2.3489124E1,-1.1272033E0,-6.529316E0,-2.6532349E1,1.0521543E1,2.9201069E1,5.690126E1,-2.0019515E0,-3.5767682E0,-7.953232E-1,1.9101334E0,3.819989E0,1.8365679E0,1.5463704E0,5.7694335E0],"categories":[],"categories_nodes":[],"categories_segments":[],"categories_sizes":[],"default_left":[0,0,0,0,0,0,0,0,0,0,0,0,0,0,0,0,0,0,0,0,0,0,0,0,0,0,0,0,0,0,0,0,0,0,0,0,0,0,0,0,0,0,0,0,0],"id":5,"left_children":[1,3,5,7,9,11,13,15,17,19,21,23,25,27,29,-1,-1,-1,-1,-1,-1,31,-1,33,35,-1,-1,-1,-1,-1,-1,-1,-1,37,39,41,43,-1,-1,-1,-1,-1,-1,-1,-1],"loss_changes":[3.0894416E7,1.463406E6,2.023718E6,1.72236E5,3.7994312E4,4.03265E5,2.42278E5,1.9843E4,2.2785E3,2.858125E2,5.6795E3,1.0374672E5,2.244E4,1.1049E4,2.64485E4,0E0,0E0,0E0,0E0,0E0,0E0,1.544375E3,0E0,1.4641675E4,9.7770625E3,0E0,0E0,0E0,0E0,0E0,0E0,0E0,0E0,4.869121E2,3.7976404E3,1.2485488E3,1.9669062E3,0E0,0E0,0E0,0E0,0E0,0E0,0E0,0E0],"parents":[2147483647,0,0,1,1,2,2,3,3,4,4,5,5,6,6,7,7,8,8,9,9,10,10,11,11,12,12,13,13,14,14,21,21,23,23,24,24,33,33,34,34,35,35,36,36],"right_children":[2,4,6,8,10,12,14,16,18,20,22,24,26,28,30,-1,-1,-1,-1,-1,-1,32,-1,34,36,-1,-1,-1,-1,-1,-1,-1,-1,38,40,42,44,-1,-1,-1,-1,-1,-1,-1,-1],"split_conditions":[-2.0920743E-1,-8.0589044E-1,7.988412E-1,-1.2451456E0,-4.9543896E-1,4.4141862E-1,1.1070905E0,-1.4033068E0,-1.0785441E0,1.692402E0,-2.7833748E-1,1.2913275E-1,6.2820315E-1,9.43058E-1,1.3463506E0,-2.4357754E1,-2.077322E1,-1.8771957E1,-1.6075464E1,-1.0057291E1,-2.832007E0,-6.0058105E-1,-3.3068104E0,1.435006E-1,2.2160737E-1,8.948318E0,1.11870985E1,1.3848322E1,1.657792E1,1.9301304E1,2.3489124E1,-1.1272033E0,-6.529316E0,1.0265039E0,-1.3656361E-1,-9.528549E-2,-5.489293E-1,-2.0019515E0,-3.5767682E0,-7.953232E-1,1.9101334E0,3.819989E0,1.8365679E0,1.5463704E0,5.7694335E0],"split_indices":[10,10,10,10,10,10,10,10,10,2,13,10,10,10,10,0,0,0,0,0,0,2,0,7,10,0,0,0,0,0,0,0,0,20,21,1,13,0,0,0,0,0,0,0,0],"split_type":[0,0,0,0,0,0,0,0,0,0,0,0,0,0,0,0,0,0,0,0,0,0,0,0,0,0,0,0,0,0,0,0,0,0,0,0,0,0,0,0,0,0,0,0,0],"sum_hessian":[1.366E3,5.8E2,7.86E2,4.61E2,1.19E2,4.06E2,3.8E2,2.2E2,2.41E2,4.7E1,7.2E1,1.46E2,2.6E2,1.82E2,1.98E2,9.4E1,1.26E2,1.76E2,6.5E1,4.6E1,1E0,6.2E1,1E1,4.1E1,1.05E2,1.23E2,1.37E2,1.01E2,8.1E1,1.46E2,5.2E1,1E0,6.1E1,1.9E1,2.2E1,1.9E1,8.6E1,1.3E1,6E0,7E0,1.5E1,9E0,1E1,2E0,8.4E1],"tree_param":{"num_deleted":"0","num_feature":"30","num_nodes":"45","size_leaf_vector":"1"}},{"base_weights":[-3.447983E-1,-1.583248E2,1.1590124E2,-1.8086946E2,-7.47404E1,6.741374E1,1.6015173E2,-2.005805E2,-1.6286867E2,-1.0976727E1,-6.46849E1,1.9757275E1,8.462338E1,1.346609E2,1.8436395E2,-2.1744831E1,-1.8637653E1,-1.6801983E1,-1.424872E1,-7.300544E1,-4.8994144E1,-6.4143414E0,3.8053047E1,6.408897E1,9.453845E0,1.1951141E1,1.4409574E1,1.6925882E1,2.032971E1,-1.8900574E0,-7.358256E0,-3.047344E0,-5.385889E1,-2.3348583E1,8.589972E0,2.3146183E1,4.403298E1,5.7052074E1,7.218904E1,-5.4721613E0,-1.5282716E0,-2.4965935E0,-5.861613E-1,-1.286792E0,1.5265381E0,2.6543014E0,1.1362549E0,4.46186E0,1.0304078E0,5.756101E0,1.5039307E0,2.0393798E0,7.30154E0],"categories":[],"categories_nodes":[],"categories_segments":[],"categories_sizes":[],"default_left":[0,0,0,0,0,0,0,0,0,0,0,0,0,0,0,0,0,0,0,0,0,0,0,0,0,0,0,0,0,0,0,0,0,0,0,0,0,0,0,0,0,0,0,0,0,0,0,0,0,0,0,0,0],"id":6,"left_children":[1,3,5,7,9,11,13,15,17,-1,19,21,23,25,27,-1,-1,-1,-1,29,31,33,35,37,-1,-1,-1,-1,-1,-1,-1,-1,39,41,43,45,47,49,51,-1,-1,-1,-1,-1,-1,-1,-1,-1,-1,-1,-1,-1,-1],"loss_changes":[2.4737032E7,1.062465E6,1.654186E6,1.26643E5,3.6221875E4,3.0342412E5,2.25135E5,9.786E3,1.2565E3,0E0,9.217594E3,4.8127074E4,4.9524125E4,1.15085E4,2.42175E4,0E0,0E0,0E0,0E0,5.4521875E2,1.6923828E3,1.0872203E4,4.2401953E3,1.1254062E3,0E0,0E0,0E0,0E0,0E0,0E0,0E0,0E0,9.555469E1,4.1931152E2,3.4909585E3,4.58917E2,3.5010156E2,2.8892188E2,1.801875E2,0E0,0E0,0E0,0E0,0E0,0E0,0E0,0E0,0E0,0E0,0E0,0E0,0E0,0E0],"parents":[2147483647,0,0,1,1,2,2,3,3,4,4,5,5,6,6,7,7,8,8,10,10,11,11,12,12,13,13,14,14,19,19,20,20,21,21,22,22,23,23,32,32,33,33,34,34,35,35,36,36,37,37,38,38],"right_children":[2,4,6,8,10,12,14,16,18,-1,20,22,24,26,28,-1,-1,-1,-1,30,32,34,36,38,-1,-1,-1,-1,-1,-1,-1,-1,40,42,44,46,48,50,52,-1,-1,-1,-1,-1,-1,-1,-1,-1,-1,-1,-1,-1,-1],"split_conditions":[-2.0920743E-1,-9.8705924E-1,7.7865815E-1,-1.2451456E0,-7.1312076E-1,3.577512E-1,1.1070905E0,-1.4033068E0,-1.0634986E0,-1.0976727E1,-4.213125E-1,1.2913275E-1,5.368291E-1,8.9975613E-1,1.2788296E0,-2.1744831E1,-1.8637653E1,-1.6801983E1,-1.424872E1,-1.3533973E0,-7.72669E-1,1.6139263E-1,2.2160737E-1,4.6086785E-1,9.453845E0,1.1951141E1,1.4409574E1,1.6925882E1,2.032971E1,-1.8900574E0,-7.358256E0,-3.047344E0,1.949361E0,1.2199079E-1,-1.6497767E0,7.0982283E-1,1.4623944E0,2.3522327E0,-2.3014822E0,-5.4721613E0,-1.5282716E0,-2.4965935E0,-5.861613E-1,-1.286792E0,1.5265381E0,2.6543014E0,1.1362549E0,4.46186E0,1.0304078E0,5.756101E0,1.5039307E0,2.0393798E0,7.30154E0],"split_indices":[10,14,10,10,3,10,10,10,10,0,10,10,10,10,10,0,0,0,0,0,15,7,10,10,0,0,0,0,0,0,0,0,1,7,24,22,2,5,11,0,0,0,0,0,0,0,0,0,0,0,0,0,0],"split_type":[0,0,0,0,0,0,0,0,0,0,0,0,0,0,0,0,0,0,0,0,0,0,0,0,0,0,0,0,0,0,0,0,0,0,0,0,0,0,0,0,0,0,0,0,0,0,0,0,0,0,0,0,0],"sum_hessian":[1.345E3,5.7E2,7.75E2,4.48E2,1.22E2,3.71E2,4.04E2,2.09E2,2.39E2,2.5E1,9.7E1,9.9E1,2.72E2,2E2,2.04E2,8.9E1,1.2E2,1.85E2,5.4E1,6.1E1,3.6E1,4.1E1,5.8E1,9.1E1,1.81E2,8.2E1,1.18E2,1.19E2,8.5E1,1E0,6E1,9E0,2.7E1,1.9E1,2.2E1,1.8E1,4E1,5.3E1,3.8E1,2.6E1,1E0,1.7E1,2E0,5E0,1.7E1,1.3E1,5E0,3.9E1,1E0,5.2E1,1E0,1E0,3.7E1],"tree_param":{"num_deleted":"0","num_feature":"30","num_nodes":"53","size_leaf_vector":"1"}},{"base_weights":[3.4326145E-1,-1.401924E2,1.0629069E2,-1.6269115E2,-5.9121155E1,6.986833E1,1.5000601E2,-1.9317963E1,-1.5229172E2,-7.902612E1,-3.8612858E1,3.5374043E1,8.754505E1,1.2732986E2,1.661822E2,-1.59752035E1,-1.3828669E1,-9.811022E0,-6.669374E0,-4.7227745E0,-2.4739023E1,1.2289448E1,4.7767925E1,7.423565E1,9.916091E1,1.1174814E2,1.3620429E1,1.5471659E1,1.8680428E1,-2.5686104E1,-8.6003417E-1,-4.8099704E0,1.6968369E1,3.843978E1,5.6665998E0,5.389322E0,7.6537224E1,6.926669E1,1.0205516E1,3.1308167E0,1.1258088E2,-7.3918456E-1,-2.6140373E0,5.892682E-1,2.923251E0,2.4184358E0,4.192992E0,7.753059E0,3.8581128E0,2.7911417E0,7.318092E0,3.2604005E0,1.1339766E1],"categories":[],"categories_nodes":[],"categories_segments":[],"categories_sizes":[],"default_left":[0,0,0,0,0,0,0,0,0,0,0,0,0,0,0,0,0,0,0,0,0,0,0,0,0,0,0,0,0,0,0,0,0,0,0,0,0,0,0,0,0,0,0,0,0,0,0,0,0,0,0,0,0],"id":7,"left_children":[1,3,5,7,9,11,13,-1,15,17,19,21,23,25,27,-1,-1,-1,-1,-1,29,31,33,35,37,39,-1,-1,-1,41,-1,-1,43,45,-1,-1,47,49,-1,-1,51,-1,-1,-1,-1,-1,-1,-1,-1,-1,-1,-1,-1],"loss_changes":[2.0160248E7,1.051951E6,1.218709E6,1.14843E5,4.9200375E4,2.548255E5,1.07225E5,0E0,1.385E4,8.5191875E3,6.6005312E3,4.0898594E4,3.5772E4,5.52125E3,1.8624E4,0E0,0E0,0E0,0E0,0E0,1.9177734E2,1.5509089E4,5.6240156E3,2.149E3,5.563E3,4.944375E2,0E0,0E0,0E0,1.4535156E1,0E0,0E0,6.4835957E3,1.4238672E3,0E0,0E0,1.457875E3,5.473906E2,0E0,0E0,1.568125E2,0E0,0E0,0E0,0E0,0E0,0E0,0E0,0E0,0E0,0E0,0E0,0E0],"parents":[2147483647,0,0,1,1,2,2,3,3,4,4,5,5,6,6,8,8,9,9,10,10,11,11,12,12,13,13,14,14,20,20,21,21,22,22,23,23,24,24,25,25,29,29,32,32,33,33,36,36,37,37,40,40],"right_children":[2,4,6,8,10,12,14,-1,16,18,20,22,24,26,28,-1,-1,-1,-1,-1,30,32,34,36,38,40,-1,-1,-1,42,-1,-1,44,46,-1,-1,48,50,-1,-1,52,-1,-1,-1,-1,-1,-1,-1,-1,-1,-1,-1,-1],"split_conditions":[-1.567995E-1,-9.3488944E-1,8.480899E-1,-6.869376E-1,-4.9271357E-1,4.689255E-1,1.1094811E0,-1.9317963E1,-1.1484852E0,-7.1312076E-1,-2.7833748E-1,2.3054259E-1,6.6486377E-1,-5.066783E-1,1.3093593E0,-1.59752035E1,-1.3828669E1,-9.811022E0,-6.669374E0,-4.7227745E0,6.5135753E-1,-2.720475E0,4.1813675E-2,-7.15099E-2,-1.2336447E0,-2.6239E0,1.3620429E1,1.5471659E1,1.8680428E1,-1.8914891E0,-8.6003417E-1,-4.8099704E0,5.735188E-1,-1.7368928E0,5.6665998E0,5.389322E0,1.0717747E0,7.0851654E-1,1.0205516E1,3.1308167E0,8.332697E-1,-7.3918456E-1,-2.6140373E0,5.892682E-1,2.923251E0,2.4184358E0,4.192992E0,7.753059E0,3.8581128E0,2.7911417E0,7.318092E0,3.2604005E0,1.1339766E1],"split_indices":[21,3,14,2,13,14,14,0,14,3,13,14,14,11,14,0,0,0,0,0,9,23,23,13,23,16,0,0,0,19,0,0,23,2,0,0,29,14,0,0,3,0,0,0,0,0,0,0,0,0,0,0,0],"split_type":[0,0,0,0,0,0,0,0,0,0,0,0,0,0,0,0,0,0,0,0,0,0,0,0,0,0,0,0,0,0,0,0,0,0,0,0,0,0,0,0,0,0,0,0,0,0,0,0,0,0,0,0,0],"sum_hessian":[1.352E3,5.81E2,7.71E2,4.54E2,1.27E2,4.22E2,3.49E2,1.11E2,3.43E2,6.3E1,6.4E1,1.44E2,2.78E2,1.49E2,2E2,2.17E2,1.26E2,2.2E1,4.1E1,3.8E1,2.6E1,5.1E1,9.3E1,1.33E2,1.45E2,5.9E1,9E1,1.34E2,6.6E1,2.4E1,2E0,3E0,4.8E1,4.8E1,4.5E1,1.6E1,1.17E2,1.5E1,1.3E2,1E0,5.8E1,1E0,2.3E1,2.6E1,2.2E1,1.1E1,3.7E1,1.13E2,4E0,2E0,1.3E1,1E0,5.7E1],"tree_param":{"num_deleted":"0","num_feature":"30","num_nodes":"53","size_leaf_vector":"1"}},{"base_weights":[-5.1854205E-1,-1.2927899E2,9.43147E1,-1.4794061E2,-5.907961E1,5.7648396E1,1.3296251E2,-1.7443853E1,-1.380568E2,-7.598655E1,-4.3583015E1,2.003687E1,7.126879E1,1.1575608E2,1.5470895E2,-1.4754107E1,-1.2615209E1,-8.853575E0,-6.2605424E0,-4.8362267E1,-2.6962683E1,-1.734323E0,3.6217663E1,5.266034E1,7.8218E1,1.0324885E1,1.271915E2,1.4222247E2,1.7246946E1,-7.3239136E-1,-4.905032E1,-1.4894751E0,-2.9530142E1,-2.1322952E1,8.114189E0,1.9160961E1,3.8752556E1,1.2637695E0,5.2994304E0,7.0140586E0,8.493583E1,4.465279E0,1.2832758E1,1.4339688E1,5.5668335E0,-4.9565654E0,-1.2157166E0,-3.0667765E0,-7.939331E-1,-1.567233E0,-2.8128603E0,-1.0472687E0,1.3737422E0,2.3537996E0,1.10188805E-1,3.9515939E0,-4.7167968E-2,1.9024963E0,8.536207E0],"categories":[],"categories_nodes":[],"categories_segments":[],"categories_sizes":[],"default_left":[0,0,0,0,0,0,0,0,0,0,0,0,0,0,0,0,0,0,0,0,0,0,0,0,0,0,0,0,0,0,0,0,0,0,0,0,0,0,0,0,0,0,0,0,0,0,0,0,0,0,0,0,0,0,0,0,0,0,0],"id":8,"left_children":[1,3,5,7,9,11,13,-1,15,17,19,21,23,25,27,-1,-1,-1,-1,29,31,33,35,37,39,-1,41,43,-1,-1,45,-1,47,49,51,53,55,-1,-1,-1,57,-1,-1,-1,-1,-1,-1,-1,-1,-1,-1,-1,-1,-1,-1,-1,-1,-1,-1],"loss_changes":[1.6496734E7,7.4191E5,1.0948175E6,9.4296E4,2.865225E4,2.0399775E5,1.23531E5,0E0,1.9099E4,4.0287812E3,3.9385938E3,3.8108527E4,3.3899375E4,1.7618E4,1.18405E4,0E0,0E0,0E0,0E0,1.0525859E3,8.6881836E1,9.240205E3,1.9381484E3,4.3965625E2,5.546375E3,0E0,4.397125E3,2.3855E3,0E0,0E0,3.2901562E2,0E0,7.582715E1,1.7445752E2,3.4884543E3,7.645154E2,1.605625E3,0E0,0E0,0E0,1.4943125E3,0E0,0E0,0E0,0E0,0E0,0E0,0E0,0E0,0E0,0E0,0E0,0E0,0E0,0E0,0E0,0E0,0E0,0E0],"parents":[2147483647,0,0,1,1,2,2,3,3,4,4,5,5,6,6,8,8,9,9,10,10,11,11,12,12,13,13,14,14,19,19,20,20,21,21,22,22,23,23,24,24,26,26,27,27,30,30,32,32,33,33,34,34,35,35,36,36,40,40],"right_children":[2,4,6,8,10,12,14,-1,16,18,20,22,24,26,28,-1,-1,-1,-1,30,32,34,36,38,40,-1,42,44,-1,-1,46,-1,48,50,52,54,56,-1,-1,-1,58,-1,-1,-1,-1,-1,-1,-1,-1,-1,-1,-1,-1,-1,-1,-1,-1,-1,-1],"split_conditions":[-2.0920743E-1,-9.552444E-1,8.036119E-1,-1.3541336E0,-4.9543896E-1,3.8343865E-1,1.1478233E0,-1.7443853E1,-1.189E0,-7.1312076E-1,-3.542452E-1,1.6289322E-1,5.30224E-1,9.9333185E-1,1.3390113E0,-1.4754107E1,-1.2615209E1,-8.853575E0,-6.2605424E0,-7.400681E-1,-1.809858E-1,1.2199079E-1,-5.489293E-1,-3.5393637E-1,6.682022E-1,1.0324885E1,-2.512551E0,2.8632004E0,1.7246946E1,-7.3239136E-1,1.6394202E0,-1.4894751E0,2.1031399E0,1.0265039E0,-1.3656361E-1,5.466354E-2,3.256212E0,1.2637695E0,5.2994304E0,7.0140586E0,-1.2610763E0,4.465279E0,1.2832758E1,1.4339688E1,5.5668335E0,-4.9565654E0,-1.2157166E0,-3.0667765E0,-7.939331E-1,-1.567233E0,-2.8128603E0,-1.0472687E0,1.3737422E0,2.3537996E0,1.10188805E-1,3.9515939E0,-4.7167968E-2,1.9024963E0,8.536207E0],"split_indices":[10,10,10,10,10,10,10,0,10,3,13,10,10,10,10,0,0,0,0,6,16,7,13,15,10,0,1,1,0,0,28,0,0,20,21,0,1,0,0,0,27,0,0,0,0,0,0,0,0,0,0,0,0,0,0,0,0,0,0],"split_type":[0,0,0,0,0,0,0,0,0,0,0,0,0,0,0,0,0,0,0,0,0,0,0,0,0,0,0,0,0,0,0,0,0,0,0,0,0,0,0,0,0,0,0,0,0,0,0,0,0,0,0,0,0,0,0,0,0,0,0],"sum_hessian":[1.349E3,5.72E2,7.77E2,4.51E2,1.21E2,4E2,3.77E2,1.18E2,3.33E2,5.6E1,6.5E1,1.07E2,2.93E2,2.14E2,1.63E2,1.79E2,1.54E2,2.6E1,3E1,4.9E1,1.6E1,4.6E1,6.1E1,8.2E1,2.11E2,1.07E2,1.07E2,1.01E2,6.2E1,1E0,4.8E1,4E0,1.2E1,1.5E1,3.1E1,9E0,5.2E1,1E0,8.1E1,1.01E2,1.1E2,2E0,1.05E2,9.9E1,2E0,4.7E1,1E0,1.1E1,1E0,1E1,5E0,7E0,2.4E1,7E0,2E0,5.1E1,1E0,1E0,1.09E2],"tree_param":{"num_deleted":"0","num_feature":"30","num_nodes":"59","size_leaf_vector":"1"}},{"base_weights":[-9.587099E-1,-1.1330044E2,8.768604E1,-1.3274197E2,-4.3336666E1,5.9601852E1,1.2597988E2,-1.482375E2,-1.1829008E2,-5.4873905E1,-2.2484007E1,3.4541084E1,7.4400764E1,1.1155863E2,1.4448868E2,-1.7261675E1,-1.4094048E1,-1.2363517E1,-1.0380408E1,-6.2427692E1,-4.4750973E1,1.2855916E0,-2.4300001E1,1.2970537E1,4.0994766E1,6.428371E1,8.404515E1,9.747675E0,1.167379E2,1.4548947E1,5.1957154E0,-6.3084693E0,-1.6759949E0,-6.9577026E-1,-4.5562435E1,-3.0670034E1,-1.6596489E1,9.633093E0,2.9720968E1,3.2155605E1,4.53993E1,1.5328797E0,6.453095E1,8.434127E0,2.2034729E0,4.1675906E0,1.175986E1,-1.2006775E0,-4.614484E0,-2.1022975E0,-3.5056741E0,-2.0728028E0,-1.1081909E0,-1.8217591E0,1.10291E0,3.8414032E0,8.2232255E-1,3.3243148E0,5.8489585E-1,4.5746684E0,8.804321E-1,6.4746017E0,1.7748657E0],"categories":[],"categories_nodes":[],"categories_segments":[],"categories_sizes":[],"default_left":[0,0,0,0,0,0,0,0,0,0,0,0,0,0,0,0,0,0,0,0,0,0,0,0,0,0,0,0,0,0,0,0,0,0,0,0,0,0,0,0,0,0,0,0,0,0,0,0,0,0,0,0,0,0,0,0,0,0,0,0,0,0,0],"id":9,"left_children":[1,3,5,7,9,11,13,15,17,19,21,23,25,27,29,-1,-1,-1,-1,31,33,-1,35,37,39,41,43,-1,45,-1,-1,-1,-1,-1,47,49,51,53,55,57,59,-1,61,-1,-1,-1,-1,-1,-1,-1,-1,-1,-1,-1,-1,-1,-1,-1,-1,-1,-1,-1,-1],"loss_changes":[1.3344373E7,7.981275E5,7.980045E5,8.5925E4,3.004189E4,1.5838875E5,6.82275E4,1.46305E4,6.05875E3,3.5530156E3,3.3929004E3,2.2159406E4,2.1137125E4,1.89475E3,4.9425E3,0E0,0E0,0E0,0E0,2.9285938E2,8.7903906E2,0E0,1.7482793E3,1.893937E3,3.4067031E3,6.690625E2,6.38875E2,0E0,3.3685E3,0E0,0E0,0E0,0E0,0E0,1.8857812E2,2.786543E2,2.9431885E2,1.5228364E3,8.053999E2,1.0929961E3,6.269375E2,0E0,2.190625E2,0E0,0E0,0E0,0E0,0E0,0E0,0E0,0E0,0E0,0E0,0E0,0E0,0E0,0E0,0E0,0E0,0E0,0E0,0E0,0E0],"parents":[2147483647,0,0,1,1,2,2,3,3,4,4,5,5,6,6,7,7,8,8,9,9,10,10,11,11,12,12,13,13,14,14,19,19,20,20,22,22,23,23,24,24,25,25,26,26,28,28,34,34,35,35,36,36,37,37,38,38,39,39,40,40,42,42],"right_children":[2,4,6,8,10,12,14,16,18,20,22,24,26,28,30,-1,-1,-1,-1,32,34,-1,36,38,40,42,44,-1,46,-1,-1,-1,-1,-1,48,50,52,54,56,58,60,-1,62,-1,-1,-1,-1,-1,-1,-1,-1,-1,-1,-1,-1,-1,-1,-1,-1,-1,-1,-1,-1],"split_conditions":[2.8972111E-3,-7.874021E-1,8.9975613E-1,-1.2451456E0,-4.0939143E-1,5.181141E-1,1.1980976E0,-1.4814702E0,-1.0785441E0,-4.9543896E-1,-2.512551E0,2.2160737E-1,7.0343065E-1,9.9333185E-1,2.8632004E0,-1.7261675E1,-1.4094048E1,-1.2363517E1,-1.0380408E1,1.2221106E0,-9.9082375E-1,1.2855916E0,2.84245E-1,6.915402E-1,3.577512E-1,-2.3014822E0,1.2926738E0,9.747675E0,-2.512551E0,1.4548947E1,5.1957154E0,-6.3084693E0,-1.6759949E0,-6.9577026E-1,-2.939977E-1,1.9282056E-3,-1.7764866E-1,-1.567995E-1,1.19439E0,1.5299382E0,2.3522327E0,1.5328797E0,2.0708473E0,8.434127E0,2.2034729E0,4.1675906E0,1.175986E1,-1.2006775E0,-4.614484E0,-2.1022975E0,-3.5056741E0,-2.0728028E0,-1.1081909E0,-1.8217591E0,1.10291E0,3.8414032E0,8.2232255E-1,3.3243148E0,5.8489585E-1,4.5746684E0,8.804321E-1,6.4746017E0,1.7748657E0],"split_indices":[10,3,10,10,13,10,10,10,10,10,1,10,10,10,1,0,0,0,0,4,0,0,8,0,10,11,20,0,1,0,0,0,0,0,9,7,10,21,0,4,5,0,8,0,0,0,0,0,0,0,0,0,0,0,0,0,0,0,0,0,0,0,0],"split_type":[0,0,0,0,0,0,0,0,0,0,0,0,0,0,0,0,0,0,0,0,0,0,0,0,0,0,0,0,0,0,0,0,0,0,0,0,0,0,0,0,0,0,0,0,0,0,0,0,0,0,0,0,0,0,0,0,0,0,0,0,0,0,0],"sum_hessian":[1.338E3,5.9E2,7.48E2,4.61E2,1.29E2,4.33E2,3.15E2,2.18E2,2.43E2,8.2E1,4.7E1,1.62E2,2.71E2,1.81E2,1.34E2,4.5E1,1.73E2,1.72E2,7.1E1,4.4E1,3.8E1,2E0,4.5E1,3.8E1,1.24E2,1.36E2,1.35E2,5.4E1,1.27E2,1.32E2,2E0,4.3E1,1E0,1E0,3.7E1,2.3E1,2.2E1,3.3E1,5E0,4.4E1,8E1,1E0,1.35E2,1.34E2,1E0,2E0,1.25E2,1E0,3.6E1,9E0,1.4E1,1.1E1,1.1E1,1E0,3.2E1,3E0,2E0,4.2E1,2E0,7.9E1,1E0,1.34E2,1E0],"tree_param":{"num_deleted":"0","num_feature":"30","num_nodes":"63","size_leaf_vector":"1"}},{"base_weights":[-3.8964674E0,-1.01148056E2,7.842976E1,-1.1867522E2,-3.9512436E1,4.626041E1,1.0562661E2,-1.309995E2,-1.03361916E2,-4.9326168E1,-2.1996613E1,2.7391413E1,5.8515713E1,8.616736E0,1.1930569E2,-1.47847395E1,-1.2254962E1,-1.0675726E1,-8.455869E0,-6.18786E0,-4.3266666E1,-2.4309101E1,4.140088E0,1.1817223E1,3.4958237E1,4.939375E1,6.333219E1,1.1088159E1,1.3902829E1,-1.2889485E0,-4.406441E1,-3.0712763E1,-1.7445366E1,1.9155558E0,-1.2255412E0,1.4481523E1,-1.2393481E1,2.7644044E-1,3.529266E1,4.9808056E1,9.574768E-1,1.4836426E0,6.3597225E1,-4.525424E0,-2.5813599E0,-3.147287E0,-6.995239E-1,-1.1699612E0,-2.8192642E0,1.7611039E0,-3.234846E-1,-2.540332E0,4.747518E-1,3.1016102E0,4.01035E0,1.4562378E0,5.0095325E0,6.403455E0,2.4176555E0],"categories":[],"categories_nodes":[],"categories_segments":[],"categories_sizes":[],"default_left":[0,0,0,0,0,0,0,0,0,0,0,0,0,0,0,0,0,0,0,0,0,0,0,0,0,0,0,0,0,0,0,0,0,0,0,0,0,0,0,0,0,0,0,0,0,0,0,0,0,0,0,0,0,0,0,0,0,0,0],"id":10,"left_children":[1,3,5,7,9,11,13,15,17,19,21,23,25,-1,27,-1,-1,-1,-1,-1,29,31,33,35,37,39,41,-1,-1,-1,43,45,47,-1,-1,49,51,-1,53,55,-1,-1,57,-1,-1,-1,-1,-1,-1,-1,-1,-1,-1,-1,-1,-1,-1,-1,-1],"loss_changes":[1.0688413E7,6.56453E5,6.2767E5,7.62925E4,2.2464688E4,7.5401875E4,9.3798E4,1.88955E4,4.82675E3,3.9400781E3,3.183123E3,1.526057E4,5.702875E3,0E0,2.229925E4,0E0,0E0,0E0,0E0,0E0,9.345E2,1.5299941E3,1.46569E3,3.0821821E3,8.606406E2,7.4390625E2,7.01625E2,0E0,0E0,0E0,1.3474219E2,1.9448047E2,1.213937E3,0E0,0E0,2.3301592E3,1.2356108E3,0E0,5.666406E2,9.609375E0,0E0,0E0,6.413125E2,0E0,0E0,0E0,0E0,0E0,0E0,0E0,0E0,0E0,0E0,0E0,0E0,0E0,0E0,0E0,0E0],"parents":[2147483647,0,0,1,1,2,2,3,3,4,4,5,5,6,6,7,7,8,8,9,9,10,10,11,11,12,12,14,14,20,20,21,21,22,22,23,23,24,24,25,25,26,26,30,30,31,31,32,32,35,35,36,36,38,38,39,39,42,42],"right_children":[2,4,6,8,10,12,14,16,18,20,22,24,26,-1,28,-1,-1,-1,-1,-1,30,32,34,36,38,40,42,-1,-1,-1,44,46,48,-1,-1,50,52,-1,54,56,-1,-1,58,-1,-1,-1,-1,-1,-1,-1,-1,-1,-1,-1,-1,-1,-1,-1,-1],"split_conditions":[2.8972111E-3,-7.4093765E-1,7.4746627E-1,-1.2121189E0,-3.8314822E-1,4.4141862E-1,1.0502112E0,-1.4289943E0,-1.0179951E0,-5.471812E-1,1.9903444E-1,2.2160737E-1,5.867361E-1,8.616736E0,1.3180945E0,-1.47847395E1,-1.2254962E1,-1.0675726E1,-8.455869E0,-6.18786E0,-2.7567427E0,2.84245E-1,-6.8778706E-1,1.2451268E0,2.6542284E-2,1.0920845E0,-1.2610763E0,1.1088159E1,1.3902829E1,-1.2889485E0,1.3764839E0,2.1031399E0,2.324895E-1,1.9155558E0,-1.2255412E0,4.0506763E0,-4.9249908E-1,2.7644044E-1,-1.4504637E-1,-2.3014822E0,9.574768E-1,1.4836426E0,2.1046095E0,-4.525424E0,-2.5813599E0,-3.147287E0,-6.995239E-1,-1.1699612E0,-2.8192642E0,1.7611039E0,-3.234846E-1,-2.540332E0,4.747518E-1,3.1016102E0,4.01035E0,1.4562378E0,5.0095325E0,6.403455E0,2.4176555E0],"split_indices":[10,10,10,10,10,10,10,10,10,10,7,10,10,0,10,0,0,0,0,0,24,8,16,6,3,13,27,0,0,0,12,0,27,0,0,27,1,0,16,11,0,0,1,0,0,0,0,0,0,0,0,0,0,0,0,0,0,0,0],"split_type":[0,0,0,0,0,0,0,0,0,0,0,0,0,0,0,0,0,0,0,0,0,0,0,0,0,0,0,0,0,0,0,0,0,0,0,0,0,0,0,0,0,0,0,0,0,0,0,0,0,0,0,0,0,0,0,0,0,0,0],"sum_hessian":[1.333E3,6.11E2,7.22E2,4.75E2,1.36E2,3.32E2,3.9E2,2.59E2,2.16E2,8.6E1,5E1,1.32E2,2E2,1.64E2,2.26E2,8.1E1,1.78E2,1.79E2,3.7E1,2.5E1,6.1E1,4.6E1,4E0,4.4E1,8.8E1,7.3E1,1.27E2,1.63E2,6.3E1,2E0,5.9E1,2.2E1,2.4E1,2E0,2E0,4E1,4E0,1E0,8.7E1,7.2E1,1E0,1E0,1.26E2,5.4E1,5E0,2.1E1,1E0,1.7E1,7E0,3.4E1,6E0,2E0,2E0,5E1,3.7E1,1E0,7.1E1,1.24E2,2E0],"tree_param":{"num_deleted":"0","num_feature":"30","num_nodes":"59","size_leaf_vector":"1"}},{"base_weights":[2.540415E0,-9.117846E1,6.959877E1,-1.077377E2,-3.9143005E1,4.551511E1,9.857447E1,-1.2880475E1,-1.00772964E2,-5.2172653E1,-2.665551E1,2.1718805E1,5.7545795E1,8.659333E1,1.1418745E2,-1.0631976E1,-8.962256E0,-6.499495E0,-4.474458E1,-2.9861067E1,-1.356974E1,-3.831404E1,2.5017683E1,4.959985E1,6.4566025E1,6.880655E1,9.035766E1,1.0317658E1,1.2832923E1,-2.6684937E0,-4.633491E0,-3.425003E0,-2.2873194E1,5.87146E-1,-1.5257251E1,-4.2219902E1,-5.4865116E-1,5.5088973E-1,2.8422476E1,4.2333084E1,5.3373093E1,5.4930374E1,6.921315E0,7.1689026E1,2.4942017E1,1.844043E0,9.068176E1,-5.840332E-1,-2.4100385E0,-1.9282745E0,-9.3246E-1,-1.2079957E0,-4.52299E0,4.105074E-1,-2.993512E0,2.4176633E0,4.2466116E0,1.6469513E0,4.3580456E0,3.51309E0,5.5027566E0,1.7121786E0,5.607734E0,1.7329468E0,7.2717643E0,-2.7880248E-1,3.5114706E0,8.025207E0,9.602752E0],"categories":[],"categories_nodes":[],"categories_segments":[],"categories_sizes":[],"default_left":[0,0,0,0,0,0,0,0,0,0,0,0,0,0,0,0,0,0,0,0,0,0,0,0,0,0,0,0,0,0,0,0,0,0,0,0,0,0,0,0,0,0,0,0,0,0,0,0,0,0,0,0,0,0,0,0,0,0,0,0,0,0,0,0,0,0,0,0,0],"id":11,"left_children":[1,3,5,7,9,11,13,-1,15,17,19,21,23,25,27,-1,-1,-1,29,31,33,35,37,39,41,43,45,-1,-1,-1,-1,-1,47,-1,49,51,-1,53,55,57,59,61,-1,63,65,-1,67,-1,-1,-1,-1,-1,-1,-1,-1,-1,-1,-1,-1,-1,-1,-1,-1,-1,-1,-1,-1,-1,-1],"loss_changes":[8.452893E6,4.791785E5,5.4262075E5,4.9379E4,2.0900266E4,1.2185306E5,5.6519E4,0E0,1.051025E4,3.3779844E3,2.6149922E3,2.9872523E4,1.26955E4,7.5085E3,1.0272125E4,0E0,0E0,0E0,5.5992188E1,9.647539E2,6.1449805E2,7.9411816E2,1.1563641E4,1.5244062E3,2.8253125E3,3.2694844E3,2.197E3,0E0,0E0,0E0,0E0,0E0,3.8180957E2,0E0,1.7842407E2,8.8671875E1,0E0,2.0732378E3,6.2478125E3,9.5985156E2,6.9259375E2,1.3382188E3,0E0,8.087031E2,1.2262571E3,0E0,1.493125E3,0E0,0E0,0E0,0E0,0E0,0E0,0E0,0E0,0E0,0E0,0E0,0E0,0E0,0E0,0E0,0E0,0E0,0E0,0E0,0E0,0E0,0E0],"parents":[2147483647,0,0,1,1,2,2,3,3,4,4,5,5,6,6,8,8,9,9,10,10,11,11,12,12,13,13,14,14,18,18,19,19,20,20,21,21,22,22,23,23,24,24,25,25,26,26,32,32,34,34,35,35,37,37,38,38,39,39,40,40,41,41,43,43,44,44,46,46],"right_children":[2,4,6,8,10,12,14,-1,16,18,20,22,24,26,28,-1,-1,-1,30,32,34,36,38,40,42,44,46,-1,-1,-1,-1,-1,48,-1,50,52,-1,54,56,58,60,62,-1,64,66,-1,68,-1,-1,-1,-1,-1,-1,-1,-1,-1,-1,-1,-1,-1,-1,-1,-1,-1,-1,-1,-1,-1,-1],"split_conditions":[-1.567995E-1,-9.8705924E-1,8.3936983E-1,-1.363177E0,-4.5235246E-1,4.689255E-1,1.1660038E0,-1.2880475E1,-1.1484852E0,-7.5206125E-1,-3.036461E-1,-2.720475E0,6.6486377E-1,-7.7778965E-1,3.605863E-1,-1.0631976E1,-8.962256E0,-6.499495E0,-6.191549E-1,-2.5407335E-1,-2.512551E0,-6.167919E-1,2.2481184E-2,-2.4935396E-1,-2.287641E-1,-4.0712833E-1,-2.512551E0,1.0317658E1,1.2832923E1,-2.6684937E0,-4.633491E0,-3.425003E0,-8.2801765E-1,5.87146E-1,-1.6126905E-1,-1.3533973E0,-5.4865116E-1,1.1998622E0,8.24835E-1,-2.3155947E-1,4.1781935E-1,-2.222793E0,6.921315E0,-9.05961E-1,-1.0573912E0,1.844043E0,9.7221917E-1,-5.840332E-1,-2.4100385E0,-1.9282745E0,-9.3246E-1,-1.2079957E0,-4.52299E0,4.105074E-1,-2.993512E0,2.4176633E0,4.2466116E0,1.6469513E0,4.3580456E0,3.51309E0,5.5027566E0,1.7121786E0,5.607734E0,1.7329468E0,7.2717643E0,-2.7880248E-1,3.5114706E0,8.025207E0,9.602752E0],"split_indices":[21,14,14,14,14,14,14,0,14,17,17,23,14,23,11,0,0,0,15,27,1,0,21,11,23,4,1,0,0,0,0,0,1,0,22,0,0,6,23,25,17,22,0,8,0,0,14,0,0,0,0,0,0,0,0,0,0,0,0,0,0,0,0,0,0,0,0,0,0],"split_type":[0,0,0,0,0,0,0,0,0,0,0,0,0,0,0,0,0,0,0,0,0,0,0,0,0,0,0,0,0,0,0,0,0,0,0,0,0,0,0,0,0,0,0,0,0,0,0,0,0,0,0,0,0,0,0,0,0,0,0,0,0,0,0,0,0,0,0,0,0],"sum_hessian":[1.343E3,5.6E2,7.83E2,4.24E2,1.36E2,4.29E2,3.54E2,1.01E2,3.23E2,6.5E1,7.1E1,1.45E2,2.84E2,2.04E2,1.5E2,2.1E2,1.13E2,2.1E1,4.4E1,5.6E1,1.5E1,7E0,1.38E2,1.37E2,1.47E2,3.9E1,1.65E2,8.9E1,6.1E1,5E0,3.9E1,3.2E1,2.4E1,1E0,1.4E1,6E0,1E0,1.7E1,1.21E2,5.1E1,8.6E1,5.2E1,9.5E1,3.6E1,3E0,1E0,1.64E2,2E0,2.2E1,7E0,7E0,1E0,5E0,1.6E1,1E0,9.5E1,2.6E1,3E0,4.8E1,9E0,7.7E1,2E0,5E1,1E0,3.5E1,1E0,2E0,6.1E1,1.03E2],"tree_param":{"num_deleted":"0","num_feature":"30","num_nodes":"69","size_leaf_vector":"1"}},{"base_weights":[-9.8197234E-1,-8.112699E1,6.4523544E1,-9.7146416E1,-3.5292763E1,4.3351753E1,9.1957985E1,-1.1886748E1,-9.16426E1,-4.2499313E1,-1.3691159E1,2.6225252E1,5.437399E1,8.172184E0,1.0581267E2,-9.79684E0,-8.250358E0,-5.3561607E1,-3.519793E1,1.3605754E0,-1.5439866E1,1.40299015E1,3.2995922E1,4.8150997E1,6.136211E0,9.925859E0,1.2071508E1,-1.5615357E0,-5.406913E0,-6.1705935E-1,-3.5511036E1,1.1576538E0,-1.645547E1,3.7355316E0,1.82523E1,2.2926004E1,3.5360355E1,4.839967E1,6.916992E-1,-8.796509E-1,-3.57599E0,-1.3718132E0,-2.6618235E0,7.102878E-1,-2.8438356E0,2.153962E0,5.2501833E-1,2.7303324E0,1.6638184E0,3.0375524E0,4.033323E0,1.1290711E0,4.8588123E0],"categories":[],"categories_nodes":[],"categories_segments":[],"categories_sizes":[],"default_left":[0,0,0,0,0,0,0,0,0,0,0,0,0,0,0,0,0,0,0,0,0,0,0,0,0,0,0,0,0,0,0,0,0,0,0,0,0,0,0,0,0,0,0,0,0,0,0,0,0,0,0,0,0],"id":12,"left_children":[1,3,5,7,9,11,13,-1,15,17,19,21,23,-1,25,-1,-1,27,29,-1,31,33,35,37,-1,-1,-1,-1,-1,-1,39,-1,41,43,45,47,49,51,-1,-1,-1,-1,-1,-1,-1,-1,-1,-1,-1,-1,-1,-1,-1],"loss_changes":[7.050656E6,4.40051E5,4.2525125E5,4.25455E4,2.4014484E4,7.7669625E4,3.68765E4,0E0,1.2787E4,7.6455938E3,2.1671777E3,1.32438125E4,8.0910625E3,0E0,1.008375E3,0E0,0E0,2.2328125E1,4.534453E2,0E0,1.2605771E3,2.5833008E3,1.7131484E3,1.0905E3,0E0,0E0,0E0,0E0,0E0,0E0,1.7075781E2,0E0,6.919668E2,2.260466E3,1.7248242E3,1.7877051E2,8.57125E2,4.165E2,0E0,0E0,0E0,0E0,0E0,0E0,0E0,0E0,0E0,0E0,0E0,0E0,0E0,0E0,0E0],"parents":[2147483647,0,0,1,1,2,2,3,3,4,4,5,5,6,6,8,8,9,9,10,10,11,11,12,12,14,14,17,17,18,18,20,20,21,21,22,22,23,23,30,30,32,32,33,33,34,34,35,35,36,36,37,37],"right_children":[2,4,6,8,10,12,14,-1,16,18,20,22,24,-1,26,-1,-1,28,30,-1,32,34,36,38,-1,-1,-1,-1,-1,-1,40,-1,42,44,46,48,50,52,-1,-1,-1,-1,-1,-1,-1,-1,-1,-1,-1,-1,-1,-1,-1],"split_conditions":[2.8972111E-3,-1.0043128E0,8.9975613E-1,-1.4190865E0,-3.2847056E-1,5.368291E-1,1.1980976E0,-1.1886748E1,-1.189E0,-5.471812E-1,3.366629E-1,3.2545823E-1,7.177423E-1,8.172184E0,1.3786435E0,-9.79684E0,-8.250358E0,-9.9524426E-1,-2.0636551E0,1.3605754E0,-3.4497807E0,1.2913275E-1,-8.910154E-1,1.0717747E0,6.136211E0,9.925859E0,1.2071508E1,-1.5615357E0,-5.406913E0,-6.1705935E-1,-9.1038674E-1,1.1576538E0,1.2628533E0,1.1998622E0,1.2531278E0,-1.5676777E0,-2.5651345E-1,-1.2610763E0,6.916992E-1,-8.796509E-1,-3.57599E0,-1.3718132E0,-2.6618235E0,7.102878E-1,-2.8438356E0,2.153962E0,5.2501833E-1,2.7303324E0,1.6638184E0,3.0375524E0,4.033323E0,1.1290711E0,4.8588123E0],"split_indices":[10,3,10,10,10,10,10,0,10,10,2,10,10,0,10,0,0,28,5,0,1,10,16,29,0,0,0,0,0,0,15,0,6,6,2,26,9,27,0,0,0,0,0,0,0,0,0,0,0,0,0,0,0],"split_type":[0,0,0,0,0,0,0,0,0,0,0,0,0,0,0,0,0,0,0,0,0,0,0,0,0,0,0,0,0,0,0,0,0,0,0,0,0,0,0,0,0,0,0,0,0,0,0,0,0,0,0,0,0],"sum_hessian":[1.341E3,6.03E2,7.38E2,4.46E2,1.57E2,4.18E2,3.2E2,8.6E1,3.6E2,1.17E2,4E1,1.65E2,2.53E2,1.88E2,1.32E2,2.07E2,1.53E2,4.4E1,7.3E1,2E0,3.8E1,6E1,1.05E2,1.38E2,1.15E2,9.7E1,3.5E1,1E0,4.3E1,1E0,7.2E1,1E0,3.7E1,1.8E1,4.2E1,2.2E1,8.3E1,1.37E2,1E0,1E0,7.1E1,3.1E1,6E0,1.7E1,1E0,3.3E1,9E0,1.1E1,1.1E1,4.5E1,3.8E1,1E0,1.36E2],"tree_param":{"num_deleted":"0","num_feature":"30","num_nodes":"53","size_leaf_vector":"1"}},{"base_weights":[1.1111654E0,-7.571901E1,5.520053E1,-8.7142136E1,-3.577173E1,3.3584557E1,7.890069E1,-1.008677E2,-8.026307E1,-4.7162254E1,-2.5985563E1,9.801747E0,4.1556973E1,6.7613686E1,9.30614E1,-1.146363E1,-9.4675045E0,-8.366439E0,-7.0118713E0,-5.4064274E1,-3.8082867E1,-2.976332E1,-1.6390303E1,-9.30959E0,1.5209825E1,3.4939564E1,4.803435E1,6.0066166E1,7.395101E1,9.353572E1,7.6365966E-1,-1.4705871E0,-5.491436E0,-3.8713608E0,-1.0526428E0,-2.2076736E1,-3.2505146E1,-8.857707E0,-2.006195E1,6.4206547E-1,-1.1031461E1,1.651174E1,-8.402392E0,2.9436232E1,3.866799E1,2.2462099E0,4.839129E1,1.4540528E0,6.0369945E0,2.282719E0,7.467302E1,8.88909E0,1.11319595E2,-2.3446786E0,-8.32426E-1,-1.31073E0,-3.3307908E0,-1.0327576E0,1.4506225E-1,-2.1574106E0,-7.326009E-1,-1.3335961E0,-4.1881105E-1,1.4771188E0,3.522658E0,-2.7016418E0,3.0052185E-1,2.976718E0,3.6313477E-1,3.9211347E0,9.6592206E-1,4.8555565E0,1.1792847E0,7.527635E0,2.806185E0,1.5641602E0,1.1407947E1],"categories":[],"categories_nodes":[],"categories_segments":[],"categories_sizes":[],"default_left":[0,0,0,0,0,0,0,0,0,0,0,0,0,0,0,0,0,0,0,0,0,0,0,0,0,0,0,0,0,0,0,0,0,0,0,0,0,0,0,0,0,0,0,0,0,0,0,0,0,0,0,0,0,0,0,0,0,0,0,0,0,0,0,0,0,0,0,0,0,0,0,0,0,0,0,0,0],"id":13,"left_children":[1,3,5,7,9,11,13,15,17,19,21,23,25,27,29,-1,-1,-1,-1,31,33,35,37,39,41,43,45,47,49,51,-1,-1,-1,-1,-1,53,55,57,59,-1,61,63,65,67,69,-1,71,-1,-1,-1,73,-1,75,-1,-1,-1,-1,-1,-1,-1,-1,-1,-1,-1,-1,-1,-1,-1,-1,-1,-1,-1,-1,-1,-1,-1,-1],"loss_changes":[5.6226795E6,2.5196725E5,4.04118E5,3.288225E4,1.2819609E4,7.865853E4,5.412425E4,1.169E3,4.27775E3,1.5130469E3,2.0495703E3,1.1097288E4,1.1695125E4,5.7939375E3,5.971125E3,0E0,0E0,0E0,0E0,1.9617188E2,7.915234E1,3.1508203E2,4.3075195E2,7.2087964E2,2.69025E3,2.1037188E3,3.278125E2,5.46625E2,2.4295E3,3.651625E3,0E0,0E0,0E0,0E0,0E0,1.06288086E2,9.286328E1,1.5134851E2,1.1157031E2,0E0,2.9109863E2,2.0530195E3,1.1428981E3,4.726328E2,1.0556094E3,0E0,3.4128125E2,0E0,0E0,0E0,9.81E2,0E0,6.1374062E3,0E0,0E0,0E0,0E0,0E0,0E0,0E0,0E0,0E0,0E0,0E0,0E0,0E0,0E0,0E0,0E0,0E0,0E0,0E0,0E0,0E0,0E0,0E0,0E0],"parents":[2147483647,0,0,1,1,2,2,3,3,4,4,5,5,6,6,7,7,8,8,9,9,10,10,11,11,12,12,13,13,14,14,19,19,20,20,21,21,22,22,23,23,24,24,25,25,26,26,27,27,28,28,29,29,35,35,36,36,37,37,38,38,40,40,41,41,42,42,43,43,44,44,46,46,50,50,52,52],"right_children":[2,4,6,8,10,12,14,16,18,20,22,24,26,28,30,-1,-1,-1,-1,32,34,36,38,40,42,44,46,48,50,52,-1,-1,-1,-1,-1,54,56,58,60,-1,62,64,66,68,70,-1,72,-1,-1,-1,74,-1,76,-1,-1,-1,-1,-1,-1,-1,-1,-1,-1,-1,-1,-1,-1,-1,-1,-1,-1,-1,-1,-1,-1,-1,-1],"split_conditions":[-2.0920743E-1,-9.552444E-1,8.036119E-1,-1.3156024E0,-5.0975066E-1,3.577512E-1,1.1478233E0,-1.4814702E0,-1.0968922E0,-7.5206125E-1,-3.5489222E-1,-1.3656361E-1,6.1499256E-1,9.665433E-1,2.8632004E0,-1.146363E1,-9.4675045E0,-8.366439E0,-7.0118713E0,-2.942872E-1,1.692402E0,-2.803917E-1,-1.3495043E-1,-1.179066E0,1.2350525E0,4.777481E-1,5.180885E-1,-1.0301843E0,-2.512551E0,1.4274498E0,7.6365966E-1,-1.4705871E0,-5.491436E0,-3.8713608E0,-1.0526428E0,-2.817992E-1,-9.393566E-1,5.880707E-1,6.580278E-1,6.4206547E-1,4.8875335E-1,8.649826E-1,1.2610852E0,2.3522327E0,1.562878E0,2.2462099E0,2.5567935E0,1.4540528E0,6.0369945E0,2.282719E0,2.070789E0,8.88909E0,-2.2232583E0,-2.3446786E0,-8.32426E-1,-1.31073E0,-3.3307908E0,-1.0327576E0,1.4506225E-1,-2.1574106E0,-7.326009E-1,-1.3335961E0,-4.1881105E-1,1.4771188E0,3.522658E0,-2.7016418E0,3.0052185E-1,2.976718E0,3.6313477E-1,3.9211347E0,9.6592206E-1,4.8555565E0,1.1792847E0,7.527635E0,2.806185E0,1.5641602E0,1.1407947E1],"split_indices":[10,10,10,10,10,10,10,10,10,17,10,21,10,10,1,0,0,0,0,9,2,9,16,8,0,10,21,25,1,10,0,0,0,0,0,9,25,8,22,0,1,0,0,5,2,0,1,0,0,0,0,0,1,0,0,0,0,0,0,0,0,0,0,0,0,0,0,0,0,0,0,0,0,0,0,0,0],"split_type":[0,0,0,0,0,0,0,0,0,0,0,0,0,0,0,0,0,0,0,0,0,0,0,0,0,0,0,0,0,0,0,0,0,0,0,0,0,0,0,0,0,0,0,0,0,0,0,0,0,0,0,0,0,0,0,0,0,0,0,0,0,0,0,0,0,0,0,0,0,0,0,0,0,0,0,0,0],"sum_hessian":[1.351E3,5.58E2,7.93E2,4.33E2,1.25E2,4.16E2,3.77E2,1.4E2,2.93E2,5.6E1,6.9E1,1.05E2,3.11E2,2.13E2,1.64E2,3.8E1,1.02E2,2.14E2,7.9E1,2.9E1,2.7E1,4.8E1,2.1E1,2.3E1,8.2E1,1.57E2,1.54E2,1.02E2,1.11E2,1.63E2,1E0,1E0,2.8E1,2.6E1,1E0,1.5E1,3.3E1,8E0,1.3E1,2E0,2.1E1,7.8E1,4E0,6.7E1,9E1,3E0,1.51E2,1E0,1.01E2,2E0,1.09E2,1.34E2,2.9E1,1.3E1,2E0,2E0,3.1E1,7E0,1E0,1.1E1,2E0,1.5E1,6E0,7.3E1,5E0,1E0,3E0,6.6E1,1E0,8.8E1,2E0,1.5E2,1E0,1.07E2,2E0,1E0,2.8E1],"tree_param":{"num_deleted":"0","num_feature":"30","num_nodes":"77","size_leaf_vector":"1"}},{"base_weights":[8.9709353E-1,-6.849824E1,5.0604023E1,-7.962653E1,-3.502218E1,2.971688E1,7.1254906E1,-9.629519E0,-7.475923E1,-5.4023423E0,-2.8716024E1,1.3737699E0,3.5294067E1,6.0581207E1,8.49175E1,-7.9529343E0,-6.7701097E0,-3.3305614E1,-2.1550472E1,-1.1109761E1,6.026474E0,2.5833221E1,4.1002087E1,5.4501736E1,6.751394E1,8.016181E0,1.0350217E2,-3.435362E1,-1.4068433E0,-3.285323E0,-1.9316296E1,-7.730851E0,-2.1003235E1,-6.3776505E-1,1.4625151E1,1.8494123E1,2.7573853E1,3.5996113E1,4.4149094E1,2.8609741E1,5.58063E1,2.7011445E0,6.848812E1,1.4859498E0,1.0596161E1,-3.2487184E-1,-3.4825761E0,-2.5238037E-1,-1.968216E0,-3.215149E-1,-8.5918474E-1,-2.3900962E0,-6.1550295E-1,9.7727174E-1,-6.0833997E-1,1.0000318E0,3.178061E0,2.4694726E0,9.916955E-1,2.8366528E0,1.5011368E0,3.6322637E0,4.6105957E-1,8.298401E-1,4.4382586E0,3.5192628E0,-8.7352294E-1,5.6031594E0,1.4836121E0,6.881154E0,1.8719971E0],"categories":[],"categories_nodes":[],"categories_segments":[],"categories_sizes":[],"default_left":[0,0,0,0,0,0,0,0,0,0,0,0,0,0,0,0,0,0,0,0,0,0,0,0,0,0,0,0,0,0,0,0,0,0,0,0,0,0,0,0,0,0,0,0,0,0,0,0,0,0,0,0,0,0,0,0,0,0,0,0,0,0,0,0,0,0,0,0,0,0,0],"id":14,"left_children":[1,3,5,7,9,11,13,-1,15,-1,17,19,21,23,25,-1,-1,27,29,31,33,35,37,39,41,-1,43,45,-1,-1,47,49,51,53,55,57,59,61,63,65,67,-1,69,-1,-1,-1,-1,-1,-1,-1,-1,-1,-1,-1,-1,-1,-1,-1,-1,-1,-1,-1,-1,-1,-1,-1,-1,-1,-1,-1,-1],"loss_changes":[4.6119035E6,2.0508375E5,3.3389462E5,2.6714E4,1.5343953E4,6.1442594E4,5.1875375E4,0E0,5.65875E3,0E0,2.834039E3,3.8422944E3,1.6491656E4,5.7191875E3,6.63975E3,0E0,0E0,8.0697656E2,5.0175195E2,4.393518E2,2.7599019E3,1.0868906E3,1.5773125E3,2.5918438E3,2.0957188E3,0E0,5.1837812E3,7.680156E2,0E0,0E0,1.9607812E2,3.0695984E1,2.4993042E1,1.6468185E3,1.3483477E3,1.1910605E3,5.600078E2,6.83125E2,6.2784375E2,2.2741167E3,2.4865625E2,0E0,2.7315625E2,0E0,0E0,0E0,0E0,0E0,0E0,0E0,0E0,0E0,0E0,0E0,0E0,0E0,0E0,0E0,0E0,0E0,0E0,0E0,0E0,0E0,0E0,0E0,0E0,0E0,0E0,0E0,0E0],"parents":[2147483647,0,0,1,1,2,2,3,3,4,4,5,5,6,6,8,8,10,10,11,11,12,12,13,13,14,14,17,17,18,18,19,19,20,20,21,21,22,22,23,23,24,24,26,26,27,27,30,30,31,31,32,32,33,33,34,34,35,35,36,36,37,37,38,38,39,39,40,40,42,42],"right_children":[2,4,6,8,10,12,14,-1,16,-1,18,20,22,24,26,-1,-1,28,30,32,34,36,38,40,42,-1,44,46,-1,-1,48,50,52,54,56,58,60,62,64,66,68,-1,70,-1,-1,-1,-1,-1,-1,-1,-1,-1,-1,-1,-1,-1,-1,-1,-1,-1,-1,-1,-1,-1,-1,-1,-1,-1,-1,-1,-1],"split_conditions":[-2.0920743E-1,-1.0077204E0,7.7865815E-1,-1.3750508E0,-7.423546E-2,2.2160737E-1,1.1478233E0,-9.629519E0,-1.189E0,-5.4023423E0,-4.213125E-1,1.6139263E-1,5.181141E-1,9.845246E-1,1.4274498E0,-7.9529343E0,-6.7701097E0,3.0831078E-1,-7.1172494E-1,8.579422E-1,-2.4391428E-2,-9.6955436E-1,6.2820315E-1,-5.9535533E-1,-2.1264846E0,8.016181E0,-6.066961E-1,-9.9450934E-1,-1.4068433E0,-3.285323E0,-6.23971E-1,-5.477687E-1,9.46076E-2,-2.3160787E-1,7.6804084E-1,-1.7145349E-1,1.5088313E0,1.0697551E0,-1.2610763E0,-2.9497784E-1,2.518133E0,2.7011445E0,2.070789E0,1.4859498E0,1.0596161E1,-3.2487184E-1,-3.4825761E0,-2.5238037E-1,-1.968216E0,-3.215149E-1,-8.5918474E-1,-2.3900962E0,-6.1550295E-1,9.7727174E-1,-6.0833997E-1,1.0000318E0,3.178061E0,2.4694726E0,9.916955E-1,2.8366528E0,1.5011368E0,3.6322637E0,4.6105957E-1,8.298401E-1,4.4382586E0,3.5192628E0,-8.7352294E-1,5.6031594E0,1.4836121E0,6.881154E0,1.8719971E0],"split_indices":[10,10,10,10,7,10,10,0,10,0,10,7,10,10,10,0,0,25,26,27,22,1,10,25,1,0,7,10,0,0,0,19,3,9,0,19,6,29,27,5,8,0,0,0,0,0,0,0,0,0,0,0,0,0,0,0,0,0,0,0,0,0,0,0,0,0,0,0,0,0,0],"split_type":[0,0,0,0,0,0,0,0,0,0,0,0,0,0,0,0,0,0,0,0,0,0,0,0,0,0,0,0,0,0,0,0,0,0,0,0,0,0,0,0,0,0,0,0,0,0,0,0,0,0,0,0,0,0,0,0,0,0,0,0,0,0,0,0,0,0,0,0,0,0,0],"sum_hessian":[1.335E3,5.57E2,7.78E2,4.17E2,1.4E2,3.88E2,3.9E2,9E1,3.27E2,3.3E1,1.07E2,6.4E1,3.24E2,2.22E2,1.68E2,1.89E2,1.38E2,6.3E1,4.4E1,1.7E1,4.7E1,1.24E2,2E2,1.23E2,9.9E1,1.38E2,3E1,5.9E1,4E0,5E0,3.9E1,1.4E1,3E0,2.7E1,2E1,2.6E1,9.8E1,8.2E1,1.18E2,7E0,1.16E2,3E0,9.6E1,1E0,2.9E1,1E0,5.8E1,1E0,3.8E1,3E0,1.1E1,2E0,1E0,9E0,1.8E1,1.7E1,3E0,1.4E1,1.2E1,9.1E1,7E0,8.1E1,1E0,1E0,1.17E2,6E0,1E0,1.15E2,1E0,9.5E1,1E0],"tree_param":{"num_deleted":"0","num_feature":"30","num_nodes":"71","size_leaf_vector":"1"}},{"base_weights":[2.4868394E-1,-6.012799E1,4.7331085E1,-7.108174E1,-2.1913368E1,3.2843586E1,6.851064E1,-8.513042E1,-6.584708E1,-2.8635475E1,-9.273018E0,2.0642916E1,4.1513336E1,6.495765E1,8.8978966E1,-9.614114E0,-7.879838E0,-6.719142E1,-4.8419544E1,-3.1862648E1,-2.1777918E1,6.534195E0,-1.2131181E1,5.203629E0,2.348748E1,3.9050827E1,5.5195934E1,5.9086826E1,7.176264E1,9.820415E0,6.9093156E0,-6.885547E0,-5.790423E0,-1.3959961E0,-4.9178786E0,-3.3665623E1,-2.1262429E0,-2.3383081E1,9.979655E-1,1.3457178E0,-3.7530823E0,-1.0205454E1,-3.3121908E0,1.9433289E0,2.9849765E0,3.8512166E0,2.4901798E1,2.5345234E1,4.017552E1,5.663817E1,1.9490479E0,1.0527467E0,5.93438E1,7.213154E1,1.4116516E0,-3.4001095E0,-9.1169435E-1,-2.4046934E0,-2.397644E-1,-8.6529545E-2,2.3622437E-1,-5.84729E-1,-1.1059164E-1,-1.2368206E0,-2.7876282E-2,5.854928E-1,-8.513997E-1,1.1802415E0,-9.640943E-1,2.5978284E0,1.2588929E0,2.692971E0,7.389974E-1,3.660797E0,4.536119E0,2.0407593E0,5.8169155E0,5.959865E0,1.0940369E0,7.2478557E0,1.5765381E0],"categories":[],"categories_nodes":[],"categories_segments":[],"categories_sizes":[],"default_left":[0,0,0,0,0,0,0,0,0,0,0,0,0,0,0,0,0,0,0,0,0,0,0,0,0,0,0,0,0,0,0,0,0,0,0,0,0,0,0,0,0,0,0,0,0,0,0,0,0,0,0,0,0,0,0,0,0,0,0,0,0,0,0,0,0,0,0,0,0,0,0,0,0,0,0,0,0,0,0,0,0],"id":15,"left_children":[1,3,5,7,9,11,13,15,17,19,21,23,25,27,29,-1,-1,31,33,35,37,39,41,43,45,47,49,51,53,-1,-1,-1,-1,-1,-1,55,-1,57,59,-1,61,63,-1,-1,65,67,69,71,73,75,-1,-1,77,79,-1,-1,-1,-1,-1,-1,-1,-1,-1,-1,-1,-1,-1,-1,-1,-1,-1,-1,-1,-1,-1,-1,-1,-1,-1,-1,-1],"loss_changes":[3.860361E6,2.475055E5,2.3186788E5,2.837E4,1.1120426E4,4.72715E4,1.669175E4,9.300625E2,4.735625E3,1.2314531E3,2.2478877E3,8.266125E3,6.7733438E3,6.42675E3,1.103125E3,0E0,0E0,8.6575E2,4.603125E1,3.735664E2,1.156665E3,6.20255E2,1.3192949E3,9.2068286E2,4.375383E3,2.49625E3,8.529219E2,1.2345625E3,1.5123125E3,0E0,0E0,0E0,0E0,0E0,0E0,7.7078125E1,0E0,3.4634863E2,9.670056E0,0E0,1.5708244E1,8.3384204E2,0E0,0E0,9.738905E2,1.4011323E3,1.6611562E3,3.6998242E2,2.2059688E3,8.0977344E2,0E0,0E0,1.1736562E3,1.1655E3,0E0,0E0,0E0,0E0,0E0,0E0,0E0,0E0,0E0,0E0,0E0,0E0,0E0,0E0,0E0,0E0,0E0,0E0,0E0,0E0,0E0,0E0,0E0,0E0,0E0,0E0,0E0],"parents":[2147483647,0,0,1,1,2,2,3,3,4,4,5,5,6,6,7,7,8,8,9,9,10,10,11,11,12,12,13,13,14,14,17,17,18,18,19,19,20,20,21,21,22,22,23,23,24,24,25,25,26,26,27,27,28,28,35,35,37,37,38,38,40,40,41,41,44,44,45,45,46,46,47,47,48,48,49,49,52,52,53,53],"right_children":[2,4,6,8,10,12,14,16,18,20,22,24,26,28,30,-1,-1,32,34,36,38,40,42,44,46,48,50,52,54,-1,-1,-1,-1,-1,-1,56,-1,58,60,-1,62,64,-1,-1,66,68,70,72,74,76,-1,-1,78,80,-1,-1,-1,-1,-1,-1,-1,-1,-1,-1,-1,-1,-1,-1,-1,-1,-1,-1,-1,-1,-1,-1,-1,-1,-1,-1,-1],"split_conditions":[-3.022719E-1,-7.874021E-1,9.6029466E-1,-1.3462096E0,-4.0939143E-1,5.8953536E-1,1.3639354E0,-1.4865181E0,5.419667E-1,-4.3358257E-1,-1.4156845E0,-4.9271357E-1,9.198726E-1,4.1813675E-2,6.38264E-1,-9.614114E0,-7.879838E0,-8.03141E-1,-1.8886901E0,6.4005023E-1,4.6501032E-1,2.1404076E0,2.6542284E-2,-1.8478985E0,6.0869496E-2,-1.3534776E0,1.1005052E0,9.654427E-1,1.4002893E0,9.820415E0,6.9093156E0,-6.885547E0,-5.790423E0,-1.3959961E0,-4.9178786E0,2.5231972E-1,-2.1262429E0,5.852069E-1,-4.2204273E-1,1.3457178E0,6.631264E-1,1.053699E-1,-3.3121908E0,1.9433289E0,8.292469E-1,-8.36423E-2,1.359506E0,-1.4364476E0,7.687165E-1,-6.906401E-1,1.9490479E0,1.0527467E0,2.8699787E0,1.330433E0,1.4116516E0,-3.4001095E0,-9.1169435E-1,-2.4046934E0,-2.397644E-1,-8.6529545E-2,2.3622437E-1,-5.84729E-1,-1.1059164E-1,-1.2368206E0,-2.7876282E-2,5.854928E-1,-8.513997E-1,1.1802415E0,-9.640943E-1,2.5978284E0,1.2588929E0,2.692971E0,7.389974E-1,3.660797E0,4.536119E0,2.0407593E0,5.8169155E0,5.959865E0,1.0940369E0,7.2478557E0,1.5765381E0],"split_indices":[29,3,14,14,13,14,3,14,27,3,8,13,23,23,15,0,0,13,22,26,4,25,3,6,14,22,15,14,14,0,0,0,0,0,0,7,0,23,3,0,4,7,0,0,8,28,6,22,14,25,0,0,19,15,0,0,0,0,0,0,0,0,0,0,0,0,0,0,0,0,0,0,0,0,0,0,0,0,0,0,0],"split_type":[0,0,0,0,0,0,0,0,0,0,0,0,0,0,0,0,0,0,0,0,0,0,0,0,0,0,0,0,0,0,0,0,0,0,0,0,0,0,0,0,0,0,0,0,0,0,0,0,0,0,0,0,0,0,0,0,0,0,0,0,0,0,0,0,0,0,0,0,0,0,0,0,0,0,0,0,0,0,0,0,0],"sum_hessian":[1.356E3,5.94E2,7.62E2,4.61E2,1.33E2,4.54E2,3.08E2,1.21E2,3.4E2,8.6E1,4.7E1,1.9E2,2.64E2,2.66E2,4.2E1,3.9E1,8.2E1,3.13E2,2.7E1,5.6E1,3E1,7E0,4E1,3E1,1.6E2,2.27E2,3.7E1,1.48E2,1.18E2,2.6E1,1.6E1,2.6E2,5.3E1,1E0,2.6E1,4.6E1,1E1,2.8E1,2E0,4E0,3E0,3.8E1,2E0,3E0,2.7E1,1.1E1,1.49E2,1.9E1,2.08E2,3.5E1,2E0,1E0,1.47E2,1.17E2,1E0,4.5E1,1E0,2.7E1,1E0,1E0,1E0,1E0,2E0,3.1E1,7E0,2.2E1,5E0,7E0,4E0,1.36E2,1.3E1,1.7E1,2E0,1.28E2,8E1,2E0,3.3E1,1.46E2,1E0,1.16E2,1E0],"tree_param":{"num_deleted":"0","num_feature":"30","num_nodes":"81","size_leaf_vector":"1"}},{"base_weights":[1.08115E0,-5.4284138E1,4.1371395E1,-6.3298153E1,-2.2447329E1,2.3965534E1,5.5500843E1,-7.280248E1,-5.719512E1,-2.8095144E1,-1.4396626E1,1.2670744E1,3.1837626E1,4.2521355E1,6.181862E1,-8.764486E0,-6.8525124E0,-5.8609993E1,-4.3318413E1,-3.1097233E1,-2.0216812E1,-8.868918E0,-1.9595858E1,-3.1022482E1,1.44528055E1,2.906817E1,3.7756397E1,3.811811E1,5.7200236E0,5.68902E1,7.293436E1,-5.925559E0,-4.258016E0,-4.397599E0,-1.2453126E0,-3.1431348E0,-7.19574E-1,-2.0928328E1,-2.2817384E-1,-4.2557025E0,-1.2583325E1,4.2905885E-1,-2.0679588E1,-6.1167604E-1,-3.4780273E0,-3.2751362E0,1.598988E1,8.185669E0,2.9606344E1,4.079664E1,2.8728657E1,3.225141E1,4.242376E1,5.4449802E1,7.1990234E1,7.378812E1,2.5286744E0,-3.6901855E-1,-2.157347E0,-5.546942E-1,3.5913087E-2,-5.5342776E-1,-1.46435E0,-2.2777711E-1,-2.132455E0,-1.9757041E0,1.9969483E-1,1.4221544E0,3.204602E0,1.0011567E0,4.4104006E-2,2.2063508E0,3.154914E0,2.1692953E0,4.2689605E0,3.1018312E0,6.177735E-1,3.3229866E0,-8.8248295E-1,4.3553653E0,1.5151917E0,5.476169E0,-3.7725832E-2,7.333356E0,1.9875244E0,2.9219117E0,7.45371E0],"categories":[],"categories_nodes":[],"categories_segments":[],"categories_sizes":[],"default_left":[0,0,0,0,0,0,0,0,0,0,0,0,0,0,0,0,0,0,0,0,0,0,0,0,0,0,0,0,0,0,0,0,0,0,0,0,0,0,0,0,0,0,0,0,0,0,0,0,0,0,0,0,0,0,0,0,0,0,0,0,0,0,0,0,0,0,0,0,0,0,0,0,0,0,0,0,0,0,0,0,0,0,0,0,0,0,0],"id":16,"left_children":[1,3,5,7,9,11,13,15,17,19,21,23,25,27,29,-1,-1,31,33,35,37,39,41,43,45,47,49,51,-1,53,55,-1,-1,-1,-1,-1,-1,57,-1,59,61,-1,63,-1,-1,65,67,69,71,73,75,77,79,81,83,85,-1,-1,-1,-1,-1,-1,-1,-1,-1,-1,-1,-1,-1,-1,-1,-1,-1,-1,-1,-1,-1,-1,-1,-1,-1,-1,-1,-1,-1,-1,-1],"loss_changes":[2.986897E6,1.6043438E5,1.8926962E5,2.13005E4,5.3246016E3,3.0627438E4,3.2386E4,4.65975E3,2.8015E3,1.0978672E3,1.3781572E3,1.1738645E4,2.2628125E3,7.062375E3,1.1463875E4,0E0,0E0,2E0,4.094922E1,1.8110938E2,2.4575293E2,4.2623926E2,7.876631E2,3.4880078E2,3.867254E3,1.3759844E3,5.2964844E2,1.4861562E3,0E0,3.5239375E3,1.55125E3,0E0,0E0,0E0,0E0,0E0,0E0,1.6505273E2,0E0,8.5416016E1,1.3679297E2,0E0,2.600078E2,0E0,0E0,1.0821816E3,3.2069062E3,6.6289E1,1.3554922E3,6.6509375E2,7.894209E2,2.3831836E3,1.2505625E3,3.0645E3,2.9265625E2,5.5940625E2,0E0,0E0,0E0,0E0,0E0,0E0,0E0,0E0,0E0,0E0,0E0,0E0,0E0,0E0,0E0,0E0,0E0,0E0,0E0,0E0,0E0,0E0,0E0,0E0,0E0,0E0,0E0,0E0,0E0,0E0,0E0],"parents":[2147483647,0,0,1,1,2,2,3,3,4,4,5,5,6,6,7,7,8,8,9,9,10,10,11,11,12,12,13,13,14,14,17,17,18,18,19,19,20,20,21,21,22,22,23,23,24,24,25,25,26,26,27,27,29,29,30,30,37,37,39,39,40,40,42,42,45,45,46,46,47,47,48,48,49,49,50,50,51,51,52,52,53,53,54,54,55,55],"right_children":[2,4,6,8,10,12,14,16,18,20,22,24,26,28,30,-1,-1,32,34,36,38,40,42,44,46,48,50,52,-1,54,56,-1,-1,-1,-1,-1,-1,58,-1,60,62,-1,64,-1,-1,66,68,70,72,74,76,78,80,82,84,86,-1,-1,-1,-1,-1,-1,-1,-1,-1,-1,-1,-1,-1,-1,-1,-1,-1,-1,-1,-1,-1,-1,-1,-1,-1,-1,-1,-1,-1,-1,-1],"split_conditions":[-1.567995E-1,-7.874021E-1,7.514865E-1,-1.2452478E0,-4.2002356E-1,4.689255E-1,9.7221917E-1,-1.4664655E0,5.5868196E-1,-4.9271357E-1,1.1671122E-1,-2.720475E0,-4.7959703E-1,8.5203326E-1,1.2751094E0,-8.764486E0,-6.8525124E0,1.1182512E0,1.4881731E0,1.692402E0,2.1031399E0,-5.9130233E-2,-2.512551E0,-1.3533973E0,-4.2061085E-1,-1.6342202E0,8.910745E-1,-2.43959E-1,5.7200236E0,1.2441038E0,1.6745166E0,-5.925559E0,-4.258016E0,-4.397599E0,-1.2453126E0,-3.1431348E0,-7.19574E-1,-1.181676E0,-2.2817384E-1,1.026432E0,9.322748E-1,4.2905885E-1,3.6549814E-2,-6.1167604E-1,-3.4780273E0,-4.9249908E-1,8.910745E-1,3.4338763E-1,-7.0549265E-2,3.2127133E-1,6.9142747E-1,1.139459E0,1.6469808E0,2.5567935E0,1.949361E0,-2.2046254E0,2.5286744E0,-3.6901855E-1,-2.157347E0,-5.546942E-1,3.5913087E-2,-5.5342776E-1,-1.46435E0,-2.2777711E-1,-2.132455E0,-1.9757041E0,1.9969483E-1,1.4221544E0,3.204602E0,1.0011567E0,4.4104006E-2,2.2063508E0,3.154914E0,2.1692953E0,4.2689605E0,3.1018312E0,6.177735E-1,3.3229866E0,-8.8248295E-1,4.3553653E0,1.5151917E0,5.476169E0,-3.7725832E-2,7.333356E0,1.9875244E0,2.9219117E0,7.45371E0],"split_indices":[21,3,14,13,21,14,14,2,27,13,7,23,2,23,14,0,0,23,1,2,0,27,1,0,15,6,0,23,0,16,8,0,0,0,0,0,0,27,0,5,4,0,25,0,0,1,0,1,15,13,3,6,8,1,1,23,0,0,0,0,0,0,0,0,0,0,0,0,0,0,0,0,0,0,0,0,0,0,0,0,0,0,0,0,0,0,0],"split_type":[0,0,0,0,0,0,0,0,0,0,0,0,0,0,0,0,0,0,0,0,0,0,0,0,0,0,0,0,0,0,0,0,0,0,0,0,0,0,0,0,0,0,0,0,0,0,0,0,0,0,0,0,0,0,0,0,0,0,0,0,0,0,0,0,0,0,0,0,0,0,0,0,0,0,0,0,0,0,0,0,0,0,0,0,0,0,0],"sum_hessian":[1.337E3,5.63E2,7.74E2,4.38E2,1.25E2,3.48E2,4.26E2,1.67E2,2.71E2,7.2E1,5.3E1,1.44E2,2.04E2,1.42E2,2.84E2,3.3E1,1.34E2,2.43E2,2.8E1,5E1,2.2E1,2.7E1,2.6E1,5E0,1.39E2,1.43E2,6.1E1,1.12E2,3E1,2.01E2,8.3E1,2.31E2,1.2E1,2.7E1,1E0,4.9E1,1E0,2.1E1,1E0,1.3E1,1.4E1,1E0,2.5E1,1E0,4E0,1.1E1,1.28E2,4E0,1.39E2,4.3E1,1.8E1,5.1E1,6.1E1,1.77E2,2.4E1,8.1E1,2E0,1E0,2E1,1E1,3E0,4E0,1E1,1E0,2.4E1,2E0,9E0,1.17E2,1.1E1,3E0,1E0,3.1E1,1.08E2,5E0,3.8E1,1.6E1,2E0,5E1,1E0,5.8E1,3E0,1.76E2,1E0,2.3E1,1E0,2E0,7.9E1],"tree_param":{"num_deleted":"0","num_feature":"30","num_nodes":"87","size_leaf_vector":"1"}},{"base_weights":[6.079713E-1,-4.838075E1,3.830073E1,-5.7286705E1,-1.9182611E1,2.6790052E1,5.6618187E1,-6.324142E1,-4.866923E1,-2.2808159E1,-7.8614783E0,1.3346405E1,3.208754E1,5.2287598E1,6.763246E1,-7.790222E0,-6.0314965E0,-4.995444E0,-3.467612E1,-2.7182085E1,-1.8870527E1,1.0457805E0,-9.288641E0,-5.53125E-2,1.6270918E1,2.7711336E1,3.7236618E1,2.717742E0,5.288127E1,1.7438599E0,6.8709724E1,-3.5761285E0,-7.571594E-1,-2.7475784E1,-6.8359375E-1,-2.3627605E1,-1.5947141E1,-1.1114471E1,-6.016837E0,1.3423828E1,-4.096289E0,7.0444813E0,1.7881725E1,2.7939526E1,4.5546875E0,7.6080936E-1,3.738342E1,1.0778809E0,5.3032593E1,1.5693482E0,6.920081E1,-2.7987041E0,-1.0818766E0,-5.8109134E-1,-2.4259489E0,-7.724411E-1,-1.7504475E0,-8.008667E-1,-1.4772094E0,-9.1050416E-1,-3.2894966E-1,9.885865E-2,1.571316E0,1.242545E-1,-1.4188774E0,1.0455464E0,-1.5200602E-1,2.037064E0,9.8773146E-1,2.8374884E0,1.4869217E0,5.534851E-1,1.2971802E-1,2.0984964E0,3.7804163E0,5.1566315E0,6.638707E0,2.7388713E0,6.9960756E0],"categories":[],"categories_nodes":[],"categories_segments":[],"categories_sizes":[],"default_left":[0,0,0,0,0,0,0,0,0,0,0,0,0,0,0,0,0,0,0,0,0,0,0,0,0,0,0,0,0,0,0,0,0,0,0,0,0,0,0,0,0,0,0,0,0,0,0,0,0,0,0,0,0,0,0,0,0,0,0,0,0,0,0,0,0,0,0,0,0,0,0,0,0,0,0,0,0,0,0],"id":17,"left_children":[1,3,5,7,9,11,13,15,17,19,21,23,25,27,29,-1,-1,-1,31,33,35,-1,37,39,41,43,45,-1,47,-1,49,-1,-1,51,-1,53,55,57,59,61,63,65,67,69,71,-1,73,-1,75,-1,77,-1,-1,-1,-1,-1,-1,-1,-1,-1,-1,-1,-1,-1,-1,-1,-1,-1,-1,-1,-1,-1,-1,-1,-1,-1,-1,-1,-1],"loss_changes":[2.479883E6,1.50763E5,1.5851562E5,1.985975E4,5.4849453E3,3.290153E4,1.0391625E4,6.4993125E3,1.6308125E3,1.2782383E3,1.01219946E3,5.25283E3,6.5168125E3,1.7529375E3,3.0734688E3,0E0,0E0,0E0,2.8807422E2,9.303516E1,4.2980273E2,0E0,1.3026001E2,1.4167101E3,1.5088516E3,8.502969E2,3.72375E2,0E0,7.53625E2,0E0,9.1875E2,0E0,0E0,8.8953125E1,0E0,8.419141E1,3.642041E2,1.0889258E2,8.796515E1,1.5527649E2,1.0952722E3,5.4173584E2,1.6515664E3,6.1940625E2,2.3989716E0,0E0,2.4160938E2,0E0,6.3E2,0E0,4.9875E2,0E0,0E0,0E0,0E0,0E0,0E0,0E0,0E0,0E0,0E0,0E0,0E0,0E0,0E0,0E0,0E0,0E0,0E0,0E0,0E0,0E0,0E0,0E0,0E0,0E0,0E0,0E0,0E0],"parents":[2147483647,0,0,1,1,2,2,3,3,4,4,5,5,6,6,7,7,8,8,9,9,10,10,11,11,12,12,13,13,14,14,18,18,19,19,20,20,22,22,23,23,24,24,25,25,26,26,28,28,30,30,33,33,35,35,36,36,37,37,38,38,39,39,40,40,41,41,42,42,43,43,44,44,46,46,48,48,50,50],"right_children":[2,4,6,8,10,12,14,16,18,20,22,24,26,28,30,-1,-1,-1,32,34,36,-1,38,40,42,44,46,-1,48,-1,50,-1,-1,52,-1,54,56,58,60,62,64,66,68,70,72,-1,74,-1,76,-1,78,-1,-1,-1,-1,-1,-1,-1,-1,-1,-1,-1,-1,-1,-1,-1,-1,-1,-1,-1,-1,-1,-1,-1,-1,-1,-1,-1,-1],"split_conditions":[2.8972111E-3,-7.874021E-1,9.386542E-1,-1.2007431E0,-2.565458E-1,4.777481E-1,1.2990127E0,-1.4660574E0,1.2393854E0,-4.9543896E-1,3.366629E-1,1.6289322E-1,7.177423E-1,-1.418684E0,-6.066961E-1,-7.790222E0,-6.0314965E0,-4.995444E0,2.3296628E0,1.692402E0,-5.066783E-1,1.0457805E0,3.9475217E-1,2.4872869E-1,-1.7056162E0,1.6384144E0,-1.0301843E0,2.717742E0,-6.5716475E-1,1.7438599E0,-6.470983E-1,-3.5761285E0,-7.571594E-1,1.435006E-1,-6.8359375E-1,-1.3533973E0,-3.5783684E-1,7.0736796E-1,6.7182714E-1,2.1115793E-1,2.4672788E-1,-1.0049118E0,5.774739E-1,1.2925969E0,4.8471412E-1,7.6080936E-1,-1.8081648E0,1.0778809E0,1.8348728E0,1.5693482E0,-1.3289849E0,-2.7987041E0,-1.0818766E0,-5.8109134E-1,-2.4259489E0,-7.724411E-1,-1.7504475E0,-8.008667E-1,-1.4772094E0,-9.1050416E-1,-3.2894966E-1,9.885865E-2,1.571316E0,1.242545E-1,-1.4188774E0,1.0455464E0,-1.5200602E-1,2.037064E0,9.8773146E-1,2.8374884E0,1.4869217E0,5.534851E-1,1.2971802E-1,2.0984964E0,3.7804163E0,5.1566315E0,6.638707E0,2.7388713E0,6.9960756E0],"split_indices":[10,3,10,10,10,10,10,10,23,10,2,10,10,7,7,0,0,0,22,2,11,0,22,27,2,15,25,0,2,0,15,0,0,7,0,0,16,26,11,7,28,12,22,5,0,0,28,0,16,0,23,0,0,0,0,0,0,0,0,0,0,0,0,0,0,0,0,0,0,0,0,0,0,0,0,0,0,0,0],"split_type":[0,0,0,0,0,0,0,0,0,0,0,0,0,0,0,0,0,0,0,0,0,0,0,0,0,0,0,0,0,0,0,0,0,0,0,0,0,0,0,0,0,0,0,0,0,0,0,0,0,0,0,0,0,0,0,0,0,0,0,0,0,0,0,0,0,0,0,0,0,0,0,0,0,0,0,0,0,0,0],"sum_hessian":[1.341E3,5.83E2,7.58E2,4.46E2,1.37E2,4.67E2,2.91E2,2.6E2,1.86E2,1.03E2,3.4E1,1.33E2,3.34E2,2.13E2,7.8E1,3.9E1,2.21E2,1.68E2,1.8E1,4.6E1,5.7E1,2E0,3.2E1,2.4E1,1.09E2,1.84E2,1.5E2,6E0,2.07E2,2E0,7.6E1,1.7E1,1E0,4.5E1,1E0,1.9E1,3.8E1,1.9E1,1.3E1,5E0,1.9E1,1.7E1,9.2E1,1.82E2,2E0,1E0,1.49E2,1E0,2.06E2,1E0,7.5E1,4.3E1,2E0,1E0,1.8E1,7E0,3.1E1,1.2E1,7E0,5E0,8E0,1E0,4E0,1.3E1,6E0,1.2E1,5E0,6.9E1,2.3E1,1.75E2,7E0,1E0,1E0,5E0,1.44E2,1.9E2,1.6E1,2E0,7.3E1],"tree_param":{"num_deleted":"0","num_feature":"30","num_nodes":"79","size_leaf_vector":"1"}},{"base_weights":[7.0709115E-1,-4.35322E1,3.5108116E1,-5.1819595E1,-1.798391E1,2.5339422E1,5.063262E1,-6.602688E1,-4.8483486E1,-2.4410927E1,-1.1046413E1,1.5717883E1,3.177757E1,4.6463963E1,6.094518E1,-7.2017717E0,-5.66324E0,-5.1219402E1,-4.2452686E1,-3.3081993E1,-2.1149529E1,6.6763916E0,-1.190134E1,-1.7551025E1,1.6519089E1,2.9367607E1,3.910868E1,4.4980953E1,6.4542786E1,6.2088776E1,2.3122895E0,-5.253449E0,-4.409023E1,-4.438252E1,-3.369436E1,-3.3968167E0,-8.56543E-1,-2.255477E1,-1.4550246E1,1.1079875E0,-3.267029E-1,-1.5170294E1,-7.0370564E0,-2.2936585E0,1.9956055E-1,6.605537E0,1.85871E1,1.3850999E1,3.020833E1,2.9341002E1,4.3878056E1,2.166024E0,4.54629E1,6.717154E0,1.518451E0,4.7037502E1,6.5759026E1,-4.4537826E0,-1.2197937E0,-4.4580393E0,-1.2792481E0,-3.2191977E-1,-3.6099823E0,-2.2957845E0,-9.124756E-1,-7.463989E-1,-1.5929724E0,-2.191219E0,-1.2871889E0,-4.7513372E-1,-1.1133362E0,3.6934137E-1,1.5608262E0,1.957001E0,8.1086177E-1,5.7562464E-1,1.8190689E0,3.6692128E0,2.7822838E0,9.9936527E-1,3.0588872E0,4.5232935E0,1.9359802E0,4.5725856E0,1.3216594E0,4.8641496E0,9.0828246E-1,7.0494585E0,5.0529943E0],"categories":[],"categories_nodes":[],"categories_segments":[],"categories_sizes":[],"default_left":[0,0,0,0,0,0,0,0,0,0,0,0,0,0,0,0,0,0,0,0,0,0,0,0,0,0,0,0,0,0,0,0,0,0,0,0,0,0,0,0,0,0,0,0,0,0,0,0,0,0,0,0,0,0,0,0,0,0,0,0,0,0,0,0,0,0,0,0,0,0,0,0,0,0,0,0,0,0,0,0,0,0,0,0,0,0,0,0,0],"id":18,"left_children":[1,3,5,7,9,11,13,15,17,19,21,23,25,27,29,-1,-1,31,33,35,37,39,41,43,45,47,49,51,53,55,-1,-1,57,59,61,-1,-1,63,65,-1,-1,67,69,-1,-1,71,73,75,77,79,81,-1,83,-1,-1,85,87,-1,-1,-1,-1,-1,-1,-1,-1,-1,-1,-1,-1,-1,-1,-1,-1,-1,-1,-1,-1,-1,-1,-1,-1,-1,-1,-1,-1,-1,-1,-1,-1],"loss_changes":[2.0804124E6,1.25681875E5,1.15339E5,1.8174875E4,6.3292812E3,2.8862406E4,9.893125E3,5.9275E2,3.9140625E3,1.4495977E3,1.1855312E3,5.4077305E3,3.8514375E3,2.8611562E3,2.1110938E3,0E0,0E0,1.81875E1,5.497031E2,1.2183984E2,2.0969336E2,2.11341E2,1.0063242E3,5.7212E2,3.7314766E3,2.412375E3,1.8338203E3,1.2855938E3,7.965469E2,1.2709688E3,0E0,0E0,9.910156E1,2.978125E1,1.7897695E3,0E0,0E0,3.952539E1,8.179932E0,0E0,0E0,3.5326855E2,2.279917E2,0E0,0E0,8.337317E2,1.4377188E3,3.5196338E2,2.149875E3,2.9788086E2,5.5272656E2,0E0,1.0660938E3,0E0,0E0,7.1489844E2,8.37125E2,0E0,0E0,0E0,0E0,0E0,0E0,0E0,0E0,0E0,0E0,0E0,0E0,0E0,0E0,0E0,0E0,0E0,0E0,0E0,0E0,0E0,0E0,0E0,0E0,0E0,0E0,0E0,0E0,0E0,0E0,0E0,0E0],"parents":[2147483647,0,0,1,1,2,2,3,3,4,4,5,5,6,6,7,7,8,8,9,9,10,10,11,11,12,12,13,13,14,14,17,17,18,18,19,19,20,20,21,21,22,22,23,23,24,24,25,25,26,26,27,27,28,28,29,29,32,32,33,33,34,34,37,37,38,38,41,41,42,42,45,45,46,46,47,47,48,48,49,49,50,50,52,52,55,55,56,56],"right_children":[2,4,6,8,10,12,14,16,18,20,22,24,26,28,30,-1,-1,32,34,36,38,40,42,44,46,48,50,52,54,56,-1,-1,58,60,62,-1,-1,64,66,-1,-1,68,70,-1,-1,72,74,76,78,80,82,-1,84,-1,-1,86,88,-1,-1,-1,-1,-1,-1,-1,-1,-1,-1,-1,-1,-1,-1,-1,-1,-1,-1,-1,-1,-1,-1,-1,-1,-1,-1,-1,-1,-1,-1,-1,-1],"split_conditions":[-3.247704E-2,-1.0043128E0,9.7221917E-1,-1.4116064E0,-4.9271357E-1,5.944731E-1,1.2827263E0,-1.2734075E0,8.582274E-2,-5.624564E-2,-9.447494E-1,-2.5120623E0,7.0736796E-1,2.0072248E0,1.6745166E0,-7.2017717E0,-5.66324E0,-1.10647E0,-1.0647439E0,1.8922508E0,-3.7539655E-1,-3.377098E-1,-2.7833748E-1,6.5872157E-1,-1.7056162E0,-2.0080032E0,6.922379E-1,-6.5716475E-1,1.1584376E0,-3.8794997E-1,2.3122895E0,-5.253449E0,2.6682672E-1,4.7880605E-2,-9.361537E-1,-3.3968167E0,-8.56543E-1,1.2221106E0,-4.1503406E-1,1.1079875E0,-3.267029E-1,-1.8088765E-1,8.910745E-1,-2.2936585E0,1.9956055E-1,1.4023149E0,1.3473631E0,-3.1818992E-1,-1.0466931E0,-1.2437962E0,6.3649064E-1,2.166024E0,2.0493052E0,6.717154E0,1.518451E0,4.7710764E-1,6.38264E-1,-4.4537826E0,-1.2197937E0,-4.4580393E0,-1.2792481E0,-3.2191977E-1,-3.6099823E0,-2.2957845E0,-9.124756E-1,-7.463989E-1,-1.5929724E0,-2.191219E0,-1.2871889E0,-4.7513372E-1,-1.1133362E0,3.6934137E-1,1.5608262E0,1.957001E0,8.1086177E-1,5.7562464E-1,1.8190689E0,3.6692128E0,2.7822838E0,9.9936527E-1,3.0588872E0,4.5232935E0,1.9359802E0,4.5725856E0,1.3216594E0,4.8641496E0,9.0828246E-1,7.0494585E0,5.0529943E0],"split_indices":[14,3,14,3,13,14,14,2,2,7,6,22,26,16,8,0,0,18,3,12,18,0,13,2,2,22,21,2,3,15,0,0,11,7,15,0,0,4,3,0,0,26,0,0,0,8,6,12,6,8,25,0,0,0,0,22,15,0,0,0,0,0,0,0,0,0,0,0,0,0,0,0,0,0,0,0,0,0,0,0,0,0,0,0,0,0,0,0,0],"split_type":[0,0,0,0,0,0,0,0,0,0,0,0,0,0,0,0,0,0,0,0,0,0,0,0,0,0,0,0,0,0,0,0,0,0,0,0,0,0,0,0,0,0,0,0,0,0,0,0,0,0,0,0,0,0,0,0,0,0,0,0,0,0,0,0,0,0,0,0,0,0,0,0,0,0,0,0,0,0,0,0,0,0,0,0,0,0,0,0,0],"sum_hessian":[1.365E3,5.97E2,7.68E2,4.5E2,1.47E2,4.73E2,2.95E2,8.2E1,3.68E2,7.5E1,7.2E1,1.91E2,2.82E2,2.14E2,8.1E1,4.6E1,3.6E1,2.48E2,1.2E2,1.8E1,5.7E1,3E0,6.9E1,4E0,1.87E2,2.16E2,6.6E1,2.01E2,1.3E1,7.8E1,3E0,2.04E2,4.4E1,9.5E1,2.5E1,1.7E1,1E0,4.5E1,1.2E1,2E0,1E0,4E1,2.9E1,3E0,1E0,3.3E1,1.54E2,1.2E1,2.04E2,2.4E1,4.2E1,5E0,1.96E2,1.2E1,1E0,1.8E1,6E1,4.3E1,1E0,9.4E1,1E0,2E0,2.3E1,4.3E1,2E0,3E0,9E0,8E0,3.2E1,2E1,9E0,2.6E1,7E0,1.4E2,1.4E1,5E0,7E0,5.1E1,1.53E2,2E0,2.2E1,3.9E1,3E0,1.94E2,2E0,1.7E1,1E0,4.3E1,1.7E1],"tree_param":{"num_deleted":"0","num_feature":"30","num_nodes":"89","size_leaf_vector":"1"}},{"base_weights":[5.844453E-1,-4.062319E1,2.9921474E1,-4.693911E1,-1.8421406E1,2.0292624E1,4.3568977E1,-5.707483E1,-4.379015E1,-2.3181381E1,-1.1110258E1,7.609656E0,2.4892511E1,3.9804764E1,5.279235E1,-6.443817E0,-5.1403723E0,-4.563833E1,-3.8760582E1,-2.8990763E1,-1.9580688E1,-9.070991E0,-1.8768078E1,-1.9776943E1,9.143794E0,1.7894083E1,2.7904867E1,3.4374645E1,4.7843063E1,5.383521E1,1.6390656E0,-4.732244E0,-4.040485E0,-3.9267628E0,-9.614909E0,-1.0881917E0,-3.0004194E1,-2.0780994E1,-1.180363E0,-1.1188099E1,-2.6694539E0,-2.029373E0,-2.5186157E-1,-2.262146E-1,-2.2319052E1,3.7365263E0,1.3223814E1,1.04546995E1,2.0430597E1,2.6128798E1,3.4222183E1,2.7087162E1,3.6987144E1,4.4860893E1,6.4234314E1,4.955989E1,6.4602776E1,-1.8652467E0,4.2301026E-1,-3.0576274E0,-8.137146E-1,-2.4131114E0,-1.5889307E0,-9.268799E-1,-1.6718628E0,-9.4053954E-2,-7.542684E-1,-4.723877E-1,-2.489331E0,1.5897925E0,8.876509E-2,1.4612916E-1,1.499333E0,1.6599944E0,3.6124757E-1,2.080269E0,4.1940102E-1,1.3811054E0,2.6881616E0,2.522894E0,3.863023E0,-5.4398604E-2,2.848232E0,3.7447312E0,9.01237E-1,4.943865E0,3.7638245E0,7.232521E0,2.9971223E0,4.99228E0,1.2622498E0,1.4616699E0,6.6287036E0],"categories":[],"categories_nodes":[],"categories_segments":[],"categories_sizes":[],"default_left":[0,0,0,0,0,0,0,0,0,0,0,0,0,0,0,0,0,0,0,0,0,0,0,0,0,0,0,0,0,0,0,0,0,0,0,0,0,0,0,0,0,0,0,0,0,0,0,0,0,0,0,0,0,0,0,0,0,0,0,0,0,0,0,0,0,0,0,0,0,0,0,0,0,0,0,0,0,0,0,0,0,0,0,0,0,0,0,0,0,0,0,0,0],"id":19,"left_children":[1,3,5,7,9,11,13,15,17,19,21,23,25,27,29,-1,-1,31,33,35,37,39,41,43,45,47,49,51,53,55,-1,-1,-1,-1,57,-1,59,61,-1,63,65,-1,-1,-1,67,69,71,73,75,77,79,81,83,85,87,89,91,-1,-1,-1,-1,-1,-1,-1,-1,-1,-1,-1,-1,-1,-1,-1,-1,-1,-1,-1,-1,-1,-1,-1,-1,-1,-1,-1,-1,-1,-1,-1,-1,-1,-1,-1,-1],"loss_changes":[1.6453328E6,7.850244E4,1.0358656E5,1.15441875E4,4.162164E3,2.7113797E4,9.2864375E3,9.0525E2,1.3915E3,1.02208984E3,6.418047E2,5.474704E3,6.7317188E3,8.700219E3,2.6100781E3,0E0,0E0,2.2971875E2,1.0707188E3,1.690039E2,2.2145312E2,5.529016E2,1.967976E2,2.6118237E2,2.598E3,1.7866328E3,1.7761719E3,1.7587031E3,1.6643438E3,8.953906E2,0E0,0E0,0E0,0E0,4.542771E2,0E0,6.39375E1,3.0485742E2,0E0,1.8470996E2,9.401059E1,0E0,0E0,0E0,1.5417456E2,1.8221423E3,1.3934404E3,1.1593997E3,3.8399414E2,1.3906094E3,9.678867E2,1.6345859E3,1.0013281E3,8.504375E2,1.158957E3,2.8139062E2,8.8327344E2,0E0,0E0,0E0,0E0,0E0,0E0,0E0,0E0,0E0,0E0,0E0,0E0,0E0,0E0,0E0,0E0,0E0,0E0,0E0,0E0,0E0,0E0,0E0,0E0,0E0,0E0,0E0,0E0,0E0,0E0,0E0,0E0,0E0,0E0,0E0,0E0],"parents":[2147483647,0,0,1,1,2,2,3,3,4,4,5,5,6,6,7,7,8,8,9,9,10,10,11,11,12,12,13,13,14,14,17,17,18,18,19,19,20,20,21,21,22,22,23,23,24,24,25,25,26,26,27,27,28,28,29,29,34,34,36,36,37,37,39,39,40,40,44,44,45,45,46,46,47,47,48,48,49,49,50,50,51,51,52,52,53,53,54,54,55,55,56,56],"right_children":[2,4,6,8,10,12,14,16,18,20,22,24,26,28,30,-1,-1,32,34,36,38,40,42,44,46,48,50,52,54,56,-1,-1,-1,-1,58,-1,60,62,-1,64,66,-1,-1,-1,68,70,72,74,76,78,80,82,84,86,88,90,92,-1,-1,-1,-1,-1,-1,-1,-1,-1,-1,-1,-1,-1,-1,-1,-1,-1,-1,-1,-1,-1,-1,-1,-1,-1,-1,-1,-1,-1,-1,-1,-1,-1,-1,-1,-1],"split_conditions":[-1.567995E-1,-1.0043128E0,8.9136636E-1,-7.378556E-1,-4.9271357E-1,4.2188513E-1,1.265052E0,-1.4664655E0,-1.1731644E0,-7.1312076E-1,6.5985763E-1,-2.0774066E0,-8.6177737E-1,1.1990091E-1,2.5684748E0,-6.443817E0,-5.1403723E0,5.8084375E-1,5.47301E-1,-1.0423253E0,2.267779E-1,-3.602487E-1,2.1638944E0,-2.516393E-1,1.8726762E-1,-1.5008539E0,8.564006E-1,1.0109524E0,2.2521598E0,3.0091253E-1,1.6390656E0,-4.732244E0,-4.040485E0,-3.9267628E0,1.3300883E0,-1.0881917E0,1.9534891E0,-3.7643602E-1,-1.180363E0,1.379382E-2,4.2516407E-1,-2.029373E0,-2.5186157E-1,-2.262146E-1,-1.3533973E0,-1.7197164E0,-1.314599E0,-1.861821E0,1.1587781E0,-1.3696668E-1,6.6266036E-1,-8.6052305E-1,8.595446E-1,1.1925607E0,9.591592E-1,2.2868867E-1,-8.0380136E-1,-1.8652467E0,4.2301026E-1,-3.0576274E0,-8.137146E-1,-2.4131114E0,-1.5889307E0,-9.268799E-1,-1.6718628E0,-9.4053954E-2,-7.542684E-1,-4.723877E-1,-2.489331E0,1.5897925E0,8.876509E-2,1.4612916E-1,1.499333E0,1.6599944E0,3.6124757E-1,2.080269E0,4.1940102E-1,1.3811054E0,2.6881616E0,2.522894E0,3.863023E0,-5.4398604E-2,2.848232E0,3.7447312E0,9.01237E-1,4.943865E0,3.7638245E0,7.232521E0,2.9971223E0,4.99228E0,1.2622498E0,1.4616699E0,6.6287036E0],"split_indices":[21,3,3,2,13,3,21,2,29,3,24,4,2,23,2,0,0,4,2,17,25,18,2,3,15,0,4,3,28,23,0,0,0,0,0,0,12,28,0,15,19,0,0,0,0,6,1,26,4,15,21,27,22,13,18,23,0,0,0,0,0,0,0,0,0,0,0,0,0,0,0,0,0,0,0,0,0,0,0,0,0,0,0,0,0,0,0,0,0,0,0,0,0],"split_type":[0,0,0,0,0,0,0,0,0,0,0,0,0,0,0,0,0,0,0,0,0,0,0,0,0,0,0,0,0,0,0,0,0,0,0,0,0,0,0,0,0,0,0,0,0,0,0,0,0,0,0,0,0,0,0,0,0,0,0,0,0,0,0,0,0,0,0,0,0,0,0,0,0,0,0,0,0,0,0,0,0,0,0,0,0,0,0,0,0,0,0,0,0],"sum_hessian":[1.359E3,5.65E2,7.94E2,4.39E2,1.26E2,4.67E2,3.27E2,1E2,3.39E2,7.5E1,5.1E1,1.25E2,3.42E2,2.36E2,9.1E1,3.9E1,6.1E1,2.42E2,9.7E1,2.6E1,4.9E1,4.2E1,9E0,6E0,1.19E2,1.05E2,2.37E2,1.44E2,9.2E1,8.8E1,3E0,1.77E2,6.5E1,9.5E1,2E0,2E0,2.4E1,4.1E1,8E0,3.1E1,1.1E1,8E0,1E0,1E0,5E0,5.2E1,6.7E1,2.8E1,7.7E1,1.89E2,4.8E1,4.1E1,1.03E2,8.1E1,1.1E1,6.7E1,2.1E1,1E0,1E0,2.3E1,1E0,2.2E1,1.9E1,2.5E1,6E0,9E0,2E0,1E0,4E0,9E0,4.3E1,9E0,5.8E1,1.4E1,1.4E1,7.5E1,2E0,1.2E1,1.77E2,1.8E1,3E1,2E0,3.9E1,1.01E2,2E0,4.6E1,3.5E1,8E0,3E0,6.6E1,1E0,1E0,2E1],"tree_param":{"num_deleted":"0","num_feature":"30","num_nodes":"93","size_leaf_vector":"1"}},{"base_weights":[2.507045E-1,-3.5611755E1,2.8050737E1,-4.2601265E1,-1.595782E1,1.7447008E1,3.9056084E1,-4.8777115E1,-3.7573475E1,-2.1306597E1,-9.526028E0,8.611147E0,2.2087557E1,3.6005676E1,5.1781704E1,-5.881465E0,-4.5722876E0,-6.773621E-1,-3.7670746E1,-2.7000032E1,-1.838944E1,-2.4089895E1,-7.886717E0,8.6628526E-1,1.2349345E1,2.2828386E1,1.5160405E1,3.0096977E1,3.8942745E1,9.5529175E-1,5.22485E1,-3.962827E0,-3.4344067E1,-2.7443857E0,-7.7302855E-1,-5.137848E-1,-1.8996756E1,-2.653428E0,-4.7117922E-1,-8.738665E0,7.9291077E0,2.4196153E0,-1.6048584E1,-5.0579834E0,1.2787506E1,2.3191605E1,9.759354E0,2.6857708E0,1.7755508E1,2.6295393E1,3.475037E1,3.6336815E1,4.49801E1,6.014611E1,4.519541E1,-2.7986486E0,-3.6225033E0,-2.002207E0,-1.2175573E0,-6.3312405E-1,-1.3838806E0,1.1708659E0,-1.704773E-1,6.99098E-1,-1.1514063E-1,-1.9828452E0,-2.3544922E-1,2.1466065E-2,-7.801636E-1,9.77889E-1,1.7321895E0,3.246704E0,2.2516618E0,1.3874359E0,4.5154786E-1,5.452295E-1,-5.573425E-1,1.838785E0,1.921997E-1,2.6882944E0,-5.066406E-1,2.6171215E0,3.7780597E0,3.7177372E0,2.110348E0,2.1238184E0,4.637122E0,4.205484E0,6.9870577E0,4.588633E0,8.779358E-1],"categories":[],"categories_nodes":[],"categories_segments":[],"categories_sizes":[],"default_left":[0,0,0,0,0,0,0,0,0,0,0,0,0,0,0,0,0,0,0,0,0,0,0,0,0,0,0,0,0,0,0,0,0,0,0,0,0,0,0,0,0,0,0,0,0,0,0,0,0,0,0,0,0,0,0,0,0,0,0,0,0,0,0,0,0,0,0,0,0,0,0,0,0,0,0,0,0,0,0,0,0,0,0,0,0,0,0,0,0,0,0],"id":20,"left_children":[1,3,5,7,9,11,13,15,17,19,21,23,25,27,29,-1,-1,-1,31,33,35,37,39,41,43,45,47,49,51,-1,53,-1,55,-1,-1,-1,57,-1,-1,59,61,63,65,67,69,71,73,75,77,79,81,83,85,87,89,-1,-1,-1,-1,-1,-1,-1,-1,-1,-1,-1,-1,-1,-1,-1,-1,-1,-1,-1,-1,-1,-1,-1,-1,-1,-1,-1,-1,-1,-1,-1,-1,-1,-1,-1,-1],"loss_changes":[1.3698491E6,8.1743E4,8.964256E4,1.18918125E4,5.2669883E3,1.6047086E4,1.28476875E4,3.2889062E3,4.878125E2,9.318242E2,1.5767383E3,3.9846533E3,9.830547E2,4.1904375E3,9.004531E2,0E0,0E0,0E0,2.475E2,1.8765625E1,3.8527344E2,2.0654883E2,9.855381E2,1.2474525E3,7.7400977E2,8.749531E2,8.5875586E2,9.790703E2,1.5593438E3,0E0,1.1808438E3,0E0,1.7007031E2,0E0,0E0,0E0,1.5486719E2,0E0,0E0,7.104668E2,1.6560759E2,7.100005E2,1.6036145E2,4.507361E1,1.0720557E3,6.776406E2,1.0997931E2,1.6748357E2,1.9493945E2,1.297082E3,1.8109375E2,1.0976875E3,8.9775E2,2.3394453E3,6.2872656E2,0E0,0E0,0E0,0E0,0E0,0E0,0E0,0E0,0E0,0E0,0E0,0E0,0E0,0E0,0E0,0E0,0E0,0E0,0E0,0E0,0E0,0E0,0E0,0E0,0E0,0E0,0E0,0E0,0E0,0E0,0E0,0E0,0E0,0E0,0E0,0E0],"parents":[2147483647,0,0,1,1,2,2,3,3,4,4,5,5,6,6,7,7,8,8,9,9,10,10,11,11,12,12,13,13,14,14,18,18,19,19,20,20,21,21,22,22,23,23,24,24,25,25,26,26,27,27,28,28,30,30,32,32,36,36,39,39,40,40,41,41,42,42,43,43,44,44,45,45,46,46,47,47,48,48,49,49,50,50,51,51,52,52,53,53,54,54],"right_children":[2,4,6,8,10,12,14,16,18,20,22,24,26,28,30,-1,-1,-1,32,34,36,38,40,42,44,46,48,50,52,-1,54,-1,56,-1,-1,-1,58,-1,-1,60,62,64,66,68,70,72,74,76,78,80,82,84,86,88,90,-1,-1,-1,-1,-1,-1,-1,-1,-1,-1,-1,-1,-1,-1,-1,-1,-1,-1,-1,-1,-1,-1,-1,-1,-1,-1,-1,-1,-1,-1,-1,-1,-1,-1,-1,-1],"split_conditions":[2.8972111E-3,-9.846015E-1,8.109511E-1,-1.2579893E0,-4.9271357E-1,4.4765726E-1,1.3180945E0,-1.492846E0,-1.8929839E0,-5.624564E-2,-8.376407E-1,2.2160737E-1,1.1275333E0,9.9333185E-1,1.0772946E0,-5.881465E0,-4.5722876E0,-6.773621E-1,-1.1233139E0,1.7779282E0,-2.3133638E0,-9.5986925E-2,-1.3656361E-1,1.4031155E0,-5.489293E-1,1.4030365E0,1.9783014E-1,2.3292069E-1,6.986867E-1,9.5529175E-1,2.786013E-1,-3.962827E0,-2.9092366E-1,-2.7443857E0,-7.7302855E-1,-5.137848E-1,1.3179744E0,-2.653428E0,-4.7117922E-1,5.053124E-1,-5.449666E-3,-1.9382633E-1,1.4398065E0,5.466354E-2,-1.680965E-1,-1.7045346E0,9.0909475E-1,-1.1888418E0,2.1179242E0,2.0334949E-1,-8.6197627E-1,1.5894754E0,-8.794771E-1,9.8246616E-1,9.630557E-1,-2.7986486E0,-3.6225033E0,-2.002207E0,-1.2175573E0,-6.3312405E-1,-1.3838806E0,1.1708659E0,-1.704773E-1,6.99098E-1,-1.1514063E-1,-1.9828452E0,-2.3544922E-1,2.1466065E-2,-7.801636E-1,9.77889E-1,1.7321895E0,3.246704E0,2.2516618E0,1.3874359E0,4.5154786E-1,5.452295E-1,-5.573425E-1,1.838785E0,1.921997E-1,2.6882944E0,-5.066406E-1,2.6171215E0,3.7780597E0,3.7177372E0,2.110348E0,2.1238184E0,4.637122E0,4.205484E0,6.9870577E0,4.588633E0,8.779358E-1],"split_indices":[10,10,10,10,13,10,10,10,8,7,11,10,8,10,3,0,0,0,10,20,24,0,21,20,13,5,13,24,27,0,15,0,9,0,0,0,2,0,0,24,3,9,2,0,26,20,6,2,27,24,7,6,7,13,29,0,0,0,0,0,0,0,0,0,0,0,0,0,0,0,0,0,0,0,0,0,0,0,0,0,0,0,0,0,0,0,0,0,0,0,0],"split_type":[0,0,0,0,0,0,0,0,0,0,0,0,0,0,0,0,0,0,0,0,0,0,0,0,0,0,0,0,0,0,0,0,0,0,0,0,0,0,0,0,0,0,0,0,0,0,0,0,0,0,0,0,0,0,0,0,0,0,0,0,0,0,0,0,0,0,0,0,0,0,0,0,0,0,0,0,0,0,0,0,0,0,0,0,0,0,0,0,0,0,0],"sum_hessian":[1.372E3,5.99E2,7.73E2,4.41E2,1.58E2,3.95E2,3.78E2,1.94E2,2.47E2,8.5E1,7.3E1,1.37E2,2.58E2,3.08E2,7E1,4.1E1,1.53E2,1E0,2.46E2,2.6E1,5.9E1,6E0,6.7E1,4.5E1,9.2E1,2.31E2,2.7E1,1.06E2,2.02E2,1E0,6.9E1,1.48E2,9.8E1,2.5E1,1E0,3E0,5.6E1,5E0,1E0,6.4E1,3E0,4.2E1,3E0,2E0,9E1,2.24E2,7E0,5E0,2.2E1,6.2E1,4.4E1,1.46E2,5.6E1,2.9E1,4E1,2.6E1,7.2E1,4.7E1,9E0,4.5E1,1.9E1,2E0,1E0,1.8E1,2.4E1,2E0,1E0,1E0,1E0,5.6E1,3.4E1,1.2E1,2.12E2,3E0,4E0,4E0,1E0,2.1E1,1E0,6.1E1,1E0,1.4E1,3E1,1.37E2,9E0,4E0,5.2E1,1.2E1,1.7E1,3.9E1,1E0],"tree_param":{"num_deleted":"0","num_feature":"30","num_nodes":"91","size_leaf_vector":"1"}},{"base_weights":[-6.2396055E-1,-3.1886719E1,2.5100462E1,-3.7768642E1,-1.2290406E1,1.7618568E1,3.5036728E1,-5.190316E0,-3.5813805E1,-1.4909884E1,-5.4099984E0,8.957324E0,2.1093489E1,3.1573938E1,4.3496784E1,-3.9016063E0,-3.1071802E1,-1.5897E1,-8.548882E0,-3.3570952E0,-1.9519482E1,3.0604417E0,1.1940355E1,1.7277912E1,2.352194E1,2.9307682E1,3.7242054E1,3.209717E1,4.6712875E1,-3.2659733E1,-2.5162868E1,-1.8096058E1,-1.2670081E1,-2.7992758E-1,-1.2282049E1,-5.748203E0,4.7205944E0,-2.7227743E0,-5.304728E-1,-7.437228E-1,8.385322E0,1.6354116E1,9.599071E0,1.777108E1,4.7815146E0,2.392782E1,-6.2316895E-1,2.291748E0,2.9782116E1,3.970288E1,2.0475464E1,1.2336019E0,3.3391758E1,1.1896037E1,4.758769E1,-3.3408916E0,-2.3905292E0,-1.4217148E0,-2.6998248E0,-2.021787E0,-1.1797307E0,-6.632391E-1,-1.452334E0,3.14917E-1,-4.7587487E-1,-1.4364692E0,-1.9401042E-1,-6.722481E-1,-1.7258301E-1,7.731829E-1,-3.8791505E-1,2.6600832E-1,-1.0362636E0,1.2142062E-1,1.4000794E0,1.039177E0,2.2941072E0,1.0845112E0,-5.2795655E-1,1.4683512E0,2.0015233E0,-2.9862672E-1,6.932325E-1,2.406929E0,-6.976318E-2,-4.6173707E-1,2.2473553E-1,4.4580483E-1,-2.1035767E-1,3.0078022E0,3.678589E-1,1.056722E0,4.0638256E0,2.1728706E0,4.5981446E-1,3.4890907E0,1.276656E0,1.5670716E0,2.1733399E-1,3.8488667E0,5.2197127E0],"categories":[],"categories_nodes":[],"categories_segments":[],"categories_sizes":[],"default_left":[0,0,0,0,0,0,0,0,0,0,0,0,0,0,0,0,0,0,0,0,0,0,0,0,0,0,0,0,0,0,0,0,0,0,0,0,0,0,0,0,0,0,0,0,0,0,0,0,0,0,0,0,0,0,0,0,0,0,0,0,0,0,0,0,0,0,0,0,0,0,0,0,0,0,0,0,0,0,0,0,0,0,0,0,0,0,0,0,0,0,0,0,0,0,0,0,0,0,0,0,0],"id":21,"left_children":[1,3,5,7,9,11,13,-1,15,17,19,21,23,25,27,-1,29,31,33,35,37,39,41,43,45,47,49,51,53,55,57,59,61,63,65,67,69,-1,-1,71,73,75,77,79,81,83,85,87,89,91,93,-1,95,97,99,-1,-1,-1,-1,-1,-1,-1,-1,-1,-1,-1,-1,-1,-1,-1,-1,-1,-1,-1,-1,-1,-1,-1,-1,-1,-1,-1,-1,-1,-1,-1,-1,-1,-1,-1,-1,-1,-1,-1,-1,-1,-1,-1,-1,-1,-1],"loss_changes":[1.092122E6,7.019269E4,5.4767562E4,1.11551875E4,2.4966387E3,1.2662516E4,7.971875E3,0E0,5.119875E3,5.1083984E2,1.1220527E3,2.1446904E3,2.4104531E3,1.8629844E3,1.8002344E3,0E0,8.014375E2,3.951836E2,4.9047217E2,7.41776E2,4.0341943E2,8.7727527E2,6.903926E2,6.668906E2,1.8083125E3,2.097875E3,1.7451641E3,1.7647656E2,1.5050469E3,7.3671875E1,4.3983203E2,4.2972266E2,3.400625E2,1.0713599E2,2.0905542E2,1.0204663E2,2.6305557E2,0E0,0E0,8.788292E2,7.078458E2,8.219912E2,1.0954634E3,5.167969E2,1.2094389E2,6.438672E2,5.6238686E1,4.746422E1,1.1715625E3,1.01496094E3,9.906885E1,0E0,2.0388672E2,7.604236E1,7.59125E2,0E0,0E0,0E0,0E0,0E0,0E0,0E0,0E0,0E0,0E0,0E0,0E0,0E0,0E0,0E0,0E0,0E0,0E0,0E0,0E0,0E0,0E0,0E0,0E0,0E0,0E0,0E0,0E0,0E0,0E0,0E0,0E0,0E0,0E0,0E0,0E0,0E0,0E0,0E0,0E0,0E0,0E0,0E0,0E0,0E0,0E0],"parents":[2147483647,0,0,1,1,2,2,3,3,4,4,5,5,6,6,8,8,9,9,10,10,11,11,12,12,13,13,14,14,16,16,17,17,18,18,19,19,20,20,21,21,22,22,23,23,24,24,25,25,26,26,27,27,28,28,29,29,30,30,31,31,32,32,33,33,34,34,35,35,36,36,39,39,40,40,41,41,42,42,43,43,44,44,45,45,46,46,47,47,48,48,49,49,50,50,52,52,53,53,54,54],"right_children":[2,4,6,8,10,12,14,-1,16,18,20,22,24,26,28,-1,30,32,34,36,38,40,42,44,46,48,50,52,54,56,58,60,62,64,66,68,70,-1,-1,72,74,76,78,80,82,84,86,88,90,92,94,-1,96,98,100,-1,-1,-1,-1,-1,-1,-1,-1,-1,-1,-1,-1,-1,-1,-1,-1,-1,-1,-1,-1,-1,-1,-1,-1,-1,-1,-1,-1,-1,-1,-1,-1,-1,-1,-1,-1,-1,-1,-1,-1,-1,-1,-1,-1,-1,-1],"split_conditions":[-2.6827684E-1,-7.152502E-1,8.9975613E-1,-1.4561496E0,-2.7833748E-1,4.6086785E-1,1.2634169E0,-5.190316E0,-1.189E0,1.359506E0,1.2628533E0,3.3229405E-1,6.5022093E-1,5.795314E-1,3.9704362E-1,-3.9016063E0,6.9207084E-1,1.2199079E-1,-1.3495043E-1,-1.3656361E-1,9.46076E-2,1.3769433E-2,2.947522E-1,1.0697551E0,1.2926738E0,-1.388637E0,1.4993347E0,1.22862E0,-2.2232583E0,1.5880796E0,-2.9291648E-1,1.1337955E0,-2.7718237E-1,-2.4678173E-2,2.8043956E-1,1.0150948E0,1.9494876E0,-2.7227743E0,-5.304728E-1,8.292469E-1,-1.0923384E-2,-1.4532276E0,3.3857664E-1,-2.4935396E-1,-5.188473E-1,1.8939067E0,-5.4013926E-1,3.2361296E-1,1.7162881E0,-2.7526734E0,1.9903444E-1,1.2336019E0,1.5963566E0,-2.7526734E0,1.0405389E0,-3.3408916E0,-2.3905292E0,-1.4217148E0,-2.6998248E0,-2.021787E0,-1.1797307E0,-6.632391E-1,-1.452334E0,3.14917E-1,-4.7587487E-1,-1.4364692E0,-1.9401042E-1,-6.722481E-1,-1.7258301E-1,7.731829E-1,-3.8791505E-1,2.6600832E-1,-1.0362636E0,1.2142062E-1,1.4000794E0,1.039177E0,2.2941072E0,1.0845112E0,-5.2795655E-1,1.4683512E0,2.0015233E0,-2.9862672E-1,6.932325E-1,2.406929E0,-6.976318E-2,-4.6173707E-1,2.2473553E-1,4.4580483E-1,-2.1035767E-1,3.0078022E0,3.678589E-1,1.056722E0,4.0638256E0,2.1728706E0,4.5981446E-1,3.4890907E0,1.276656E0,1.5670716E0,2.1733399E-1,3.8488667E0,5.2197127E0],"split_indices":[29,10,10,10,13,10,10,0,10,6,6,14,10,24,6,0,5,7,16,21,3,22,7,29,20,6,25,14,1,11,9,11,9,1,22,11,22,0,0,8,19,6,13,11,1,1,1,1,13,1,7,0,8,1,13,0,0,0,0,0,0,0,0,0,0,0,0,0,0,0,0,0,0,0,0,0,0,0,0,0,0,0,0,0,0,0,0,0,0,0,0,0,0,0,0,0,0,0,0,0,0],"split_type":[0,0,0,0,0,0,0,0,0,0,0,0,0,0,0,0,0,0,0,0,0,0,0,0,0,0,0,0,0,0,0,0,0,0,0,0,0,0,0,0,0,0,0,0,0,0,0,0,0,0,0,0,0,0,0,0,0,0,0,0,0,0,0,0,0,0,0,0,0,0,0,0,0,0,0,0,0,0,0,0,0,0,0,0,0,0,0,0,0,0,0,0,0,0,0,0,0,0,0,0,0],"sum_hessian":[1.356E3,6.12E2,7.44E2,4.7E2,1.42E2,4.26E2,3.18E2,5.4E1,4.16E2,1.02E2,4E1,1.23E2,3.03E2,2.29E2,8.9E1,2.44E2,1.72E2,8.7E1,1.5E1,3.6E1,4E0,4.2E1,8.1E1,1.21E2,1.82E2,1.68E2,6.1E1,2.2E1,6.7E1,1.32E2,4E1,4.9E1,3.8E1,5E0,1E1,2.8E1,8E0,2E0,2E0,2.5E1,1.7E1,2.6E1,5.5E1,1.16E2,5E0,1.79E2,3E0,3E0,1.65E2,5.2E1,9E0,2E0,2E1,2E0,6.5E1,1.19E2,1.3E1,7E0,3.3E1,3.5E1,1.4E1,1E1,2.8E1,3E0,2E0,8E0,2E0,2.2E1,6E0,6E0,2E0,1.9E1,6E0,8E0,9E0,1.5E1,1.1E1,5.1E1,4E0,5.2E1,6.4E1,1E0,4E0,1.78E2,1E0,1E0,2E0,2E0,1E0,1.63E2,2E0,2E0,5E1,8E0,1E0,1.8E1,2E0,1E0,1E0,2.5E1,4E1],"tree_param":{"num_deleted":"0","num_feature":"30","num_nodes":"101","size_leaf_vector":"1"}},{"base_weights":[8.101553E-1,-2.8080997E1,2.391428E1,-3.3763123E1,-9.892591E0,1.4890568E1,3.1460274E1,-3.8133476E1,-2.9106743E1,-1.2695473E1,-3.4441326E0,8.965275E0,1.7724627E1,2.6828693E1,3.9216858E1,-4.4893406E1,-3.666281E1,-3.0253845E1,-2.3220873E1,-1.58203335E1,-1.0348559E1,-1.6901276E0,-1.4563477E1,2.1416523E0,1.0685293E1,1.1345498E1,1.8409426E1,1.8792892E1,2.7725258E1,3.6300293E1,5.1730465E1,-1.1148621E0,-4.552108E0,-1.0535278E0,-3.674277E0,-8.6955565E-1,-3.0323751E1,-2.477338E1,-1.3720108E1,-7.4674684E-1,-1.6283258E1,-3.2364502E0,-1.1078859E1,-3.8532968E0,3.6783752E0,-1.6687573E0,-1.9714966E-1,4.0341043E0,-8.329132E0,9.627051E0,2.0328888E1,2.8518677E0,1.3326312E1,1.7718735E1,2.7353695E1,-3.579895E0,2.1512056E1,2.2361668E1,2.9658438E1,4.631436E1,3.3462154E1,1.0297486E0,5.2975883E1,-3.0393095E0,-8.816895E-1,-6.6494143E-1,-2.5121095E0,6.128845E-1,-1.7431223E0,-1.6504707E0,-4.0447998E-1,-4.5415527E-1,1.7537436E-3,-1.2362365E0,-6.528678E-1,-4.376931E-1,2.1438396E-1,8.0943453E-1,-4.1228515E-1,-8.116089E-1,5.740234E-1,-1.9182129E-1,-9.826701E-1,1.2856277E0,7.238638E-1,7.6014405E-1,3.1155975E0,4.5744935E-1,-3.955892E-2,1.4527277E0,1.6784261E-1,1.8217993E0,7.7113146E-1,3.0853708E0,1.5582935E0,1.275525E0,-1.3276693E0,4.910604E-1,2.2690904E0,-2.5844118E-1,2.2791831E0,1.1135498E0,3.004706E0,4.7249923E0,1.1930481E0,8.5632324E-1,3.3878667E0,1.3230164E0,5.40807E0],"categories":[],"categories_nodes":[],"categories_segments":[],"categories_sizes":[],"default_left":[0,0,0,0,0,0,0,0,0,0,0,0,0,0,0,0,0,0,0,0,0,0,0,0,0,0,0,0,0,0,0,0,0,0,0,0,0,0,0,0,0,0,0,0,0,0,0,0,0,0,0,0,0,0,0,0,0,0,0,0,0,0,0,0,0,0,0,0,0,0,0,0,0,0,0,0,0,0,0,0,0,0,0,0,0,0,0,0,0,0,0,0,0,0,0,0,0,0,0,0,0,0,0,0,0,0,0,0,0],"id":22,"left_children":[1,3,5,7,9,11,13,15,17,19,21,23,25,27,29,31,33,35,37,39,41,43,45,47,49,51,53,55,57,59,61,-1,-1,-1,-1,-1,63,65,67,-1,69,71,73,75,77,-1,-1,79,81,83,85,87,89,91,93,95,97,99,101,103,105,-1,107,-1,-1,-1,-1,-1,-1,-1,-1,-1,-1,-1,-1,-1,-1,-1,-1,-1,-1,-1,-1,-1,-1,-1,-1,-1,-1,-1,-1,-1,-1,-1,-1,-1,-1,-1,-1,-1,-1,-1,-1,-1,-1,-1,-1,-1,-1],"loss_changes":[8.998005E5,6.1571938E4,5.0533094E4,8.1696875E3,2.5589697E3,5.6009688E3,1.3569469E4,6.6053125E2,8.166094E2,5.696592E2,8.5303815E2,1.3033701E3,8.002422E2,1.3377344E3,3.5966719E3,2.761797E2,2.2375E1,1.5125E1,2.6485742E2,3.6942383E1,2.7578223E2,4.7869305E2,1.27579956E2,5.091715E2,7.2276465E2,3.8260278E2,7.94125E2,1.8412344E3,1.7216094E3,2.002875E3,7.961172E2,0E0,0E0,0E0,0E0,0E0,6.421875E0,4.722461E1,6.9612695E2,0E0,3.6229492E1,2.980716E1,2.3466016E2,1.0045224E2,4.4677155E2,0E0,0E0,4.8191425E2,1.9553436E1,5.470947E2,8.655796E2,3.537454E1,2.5539062E2,8.3379297E2,5.4779297E1,8.029419E2,3.974082E2,7.564121E2,8.6034375E2,2.4048828E2,7.573203E2,0E0,3.823047E2,0E0,0E0,0E0,0E0,0E0,0E0,0E0,0E0,0E0,0E0,0E0,0E0,0E0,0E0,0E0,0E0,0E0,0E0,0E0,0E0,0E0,0E0,0E0,0E0,0E0,0E0,0E0,0E0,0E0,0E0,0E0,0E0,0E0,0E0,0E0,0E0,0E0,0E0,0E0,0E0,0E0,0E0,0E0,0E0,0E0,0E0],"parents":[2147483647,0,0,1,1,2,2,3,3,4,4,5,5,6,6,7,7,8,8,9,9,10,10,11,11,12,12,13,13,14,14,15,15,16,16,17,17,18,18,19,19,20,20,21,21,22,22,23,23,24,24,25,25,26,26,27,27,28,28,29,29,30,30,36,36,37,37,38,38,40,40,41,41,42,42,43,43,44,44,47,47,48,48,49,49,50,50,51,51,52,52,53,53,54,54,55,55,56,56,57,57,58,58,59,59,60,60,62,62],"right_children":[2,4,6,8,10,12,14,16,18,20,22,24,26,28,30,32,34,36,38,40,42,44,46,48,50,52,54,56,58,60,62,-1,-1,-1,-1,-1,64,66,68,-1,70,72,74,76,78,-1,-1,80,82,84,86,88,90,92,94,96,98,100,102,104,106,-1,108,-1,-1,-1,-1,-1,-1,-1,-1,-1,-1,-1,-1,-1,-1,-1,-1,-1,-1,-1,-1,-1,-1,-1,-1,-1,-1,-1,-1,-1,-1,-1,-1,-1,-1,-1,-1,-1,-1,-1,-1,-1,-1,-1,-1,-1,-1],"split_conditions":[-2.3742267E-1,-7.152502E-1,7.7021784E-1,-1.2260637E0,-2.565458E-1,4.4765726E-1,1.1691074E0,-1.4664655E0,-1.0179951E0,-4.9543896E-1,-2.2129582E-2,-5.489293E-1,-1.4714206E0,-1.3884815E0,1.4535042E0,-1.499365E0,-1.3992754E0,-8.862994E-1,1.6680288E0,-4.6499392E-1,-6.727403E-1,-1.3656361E-1,1.0294553E-1,1.2715065E-1,1.1182512E0,-1.707011E0,8.6478734E-1,1.0105118E0,-2.8337234E-1,1.131151E0,-2.9598147E-1,-1.1148621E0,-4.552108E0,-1.0535278E0,-3.674277E0,-8.6955565E-1,1.6770269E0,-1.5860148E-1,5.8352077E-1,-7.4674684E-1,1.692402E0,-5.6795293E-1,1.4953327E0,3.2939413E0,5.9640986E-1,-1.6687573E0,-1.9714966E-1,-1.9377902E0,-1.8250865E0,-1.1860033E0,8.6544114E-1,-1.6335614E0,-1.0521914E-2,7.758917E-1,9.7197217E-1,-2.066896E0,-1.0607258E0,-1.2724612E0,-2.512551E0,6.0922976E0,-1.0404003E0,1.0297486E0,-2.313311E0,-3.0393095E0,-8.816895E-1,-6.6494143E-1,-2.5121095E0,6.128845E-1,-1.7431223E0,-1.6504707E0,-4.0447998E-1,-4.5415527E-1,1.7537436E-3,-1.2362365E0,-6.528678E-1,-4.376931E-1,2.1438396E-1,8.0943453E-1,-4.1228515E-1,-8.116089E-1,5.740234E-1,-1.9182129E-1,-9.826701E-1,1.2856277E0,7.238638E-1,7.6014405E-1,3.1155975E0,4.5744935E-1,-3.955892E-2,1.4527277E0,1.6784261E-1,1.8217993E0,7.7113146E-1,3.0853708E0,1.5582935E0,1.275525E0,-1.3276693E0,4.910604E-1,2.2690904E0,-2.5844118E-1,2.2791831E0,1.1135498E0,3.004706E0,4.7249923E0,1.1930481E0,8.5632324E-1,3.3878667E0,1.3230164E0,5.40807E0],"split_indices":[29,10,10,10,10,10,10,2,10,10,18,13,0,11,10,24,27,5,12,15,12,21,0,0,23,24,17,21,9,17,9,0,0,0,0,0,26,5,2,0,2,0,20,15,1,0,0,26,1,5,12,11,23,21,17,0,27,23,1,9,15,0,19,0,0,0,0,0,0,0,0,0,0,0,0,0,0,0,0,0,0,0,0,0,0,0,0,0,0,0,0,0,0,0,0,0,0,0,0,0,0,0,0,0,0,0,0,0,0],"split_type":[0,0,0,0,0,0,0,0,0,0,0,0,0,0,0,0,0,0,0,0,0,0,0,0,0,0,0,0,0,0,0,0,0,0,0,0,0,0,0,0,0,0,0,0,0,0,0,0,0,0,0,0,0,0,0,0,0,0,0,0,0,0,0,0,0,0,0,0,0,0,0,0,0,0,0,0,0,0,0,0,0,0,0,0,0,0,0,0,0,0,0,0,0,0,0,0,0,0,0,0,0,0,0,0,0,0,0,0,0],"sum_hessian":[1.346E3,5.98E2,7.48E2,4.55E2,1.43E2,3.42E2,4.06E2,2.31E2,2.24E2,9.9E1,4.4E1,1.12E2,2.3E2,2.57E2,1.49E2,3.6E1,1.95E2,1.84E2,4E1,4E1,5.9E1,3.9E1,5E0,2.3E1,8.9E1,2.4E1,2.06E2,2.8E1,2.29E2,1.24E2,2.5E1,1E0,3.5E1,1E0,1.94E2,1E0,1.83E2,3.3E1,7E0,3E0,3.7E1,6E0,5.3E1,2.8E1,1.1E1,4E0,1E0,2E1,3E0,8.2E1,7E0,5E0,1.9E1,1.94E2,1.2E1,3E0,2.5E1,6.4E1,1.65E2,2.4E1,1E2,1E0,2.4E1,1.82E2,1E0,1E0,3.2E1,1E0,6E0,3.6E1,1E0,4E0,2E0,4E1,1.3E1,2.6E1,2E0,7E0,4E0,2E0,1.8E1,1E0,2E0,3.3E1,4.9E1,4E0,3E0,3E0,2E0,1.7E1,2E0,1.84E2,1E1,8E0,4E0,1E0,2E0,2E0,2.3E1,1E0,6.3E1,4E0,1.61E2,2.3E1,1E0,2E0,9.8E1,1E0,2.3E1],"tree_param":{"num_deleted":"0","num_feature":"30","num_nodes":"109","size_leaf_vector":"1"}},{"base_weights":[-5.533435E-1,-2.7052925E1,1.9178215E1,-3.1798922E1,-1.4628895E1,1.047097E1,2.6228613E1,-4.405051E0,-3.0432789E1,-2.0910984E1,-1.066695E1,1.9977062E0,1.3374008E1,2.236295E1,3.2924507E1,-3.2404213E1,-2.7672358E1,-1.5135956E1,-2.2432035E1,-1.3466768E1,-8.79414E0,-3.6012776E0,4.292704E0,5.6531677E0,1.4093365E1,2.3423664E1,1.5075205E1,3.8805176E1,2.9337955E1,-3.24769E0,-8.35199E-1,-1.3466766E1,-2.7851192E1,5.822388E-1,-1.6921337E1,-4.7819215E-1,-2.2711779E1,-6.622172E0,-1.4278557E1,-9.38118E0,-1.5558878E0,-2.118028E0,-2.1082885E0,-1.2155273E1,5.2846265E0,8.345928E0,-3.816101E0,9.245443E0,1.556087E1,1.9361526E1,2.5566406E1,-1.3521546E0,1.6213537E1,2.9649092E1,4.345171E1,3.0534586E1,5.3022256E0,-1.866272E-1,-1.6711508E0,-1.3595428E0,-2.8033516E0,-1.7669338E0,-3.2246706E-1,-2.298883E0,-5.1222533E-1,-2.4648438E-1,-8.0846256E-1,-2.992859E-1,-1.4529856E0,-9.6587366E-1,-9.805501E-2,4.5686852E-2,-2.676483E-1,7.32149E-2,-6.751526E-1,-1.4599813E0,-2.4108277E-1,4.520994E-1,2.5933106E0,-1.1344605E-1,1.0194405E0,-1.1116486E0,7.1897787E-1,-7.099878E-1,1.0587687E0,1.2846577E0,1.9348669E0,8.911676E-1,2.0306935E0,2.1565733E0,2.8816197E0,1.8088063E0,-3.7733155E-1,3.365271E0,1.8436173E0,9.7825927E-1,4.415426E0,2.3389637E0,3.3905914E0,1.468811E0,-8.9796954E-1],"categories":[],"categories_nodes":[],"categories_segments":[],"categories_sizes":[],"default_left":[0,0,0,0,0,0,0,0,0,0,0,0,0,0,0,0,0,0,0,0,0,0,0,0,0,0,0,0,0,0,0,0,0,0,0,0,0,0,0,0,0,0,0,0,0,0,0,0,0,0,0,0,0,0,0,0,0,0,0,0,0,0,0,0,0,0,0,0,0,0,0,0,0,0,0,0,0,0,0,0,0,0,0,0,0,0,0,0,0,0,0,0,0,0,0,0,0,0,0,0,0],"id":23,"left_children":[1,3,5,7,9,11,13,-1,15,17,19,21,23,25,27,29,31,33,35,37,39,41,43,45,47,49,51,53,55,-1,-1,57,59,-1,61,-1,63,65,67,69,71,73,-1,75,77,79,81,83,85,87,89,-1,91,93,95,97,99,-1,-1,-1,-1,-1,-1,-1,-1,-1,-1,-1,-1,-1,-1,-1,-1,-1,-1,-1,-1,-1,-1,-1,-1,-1,-1,-1,-1,-1,-1,-1,-1,-1,-1,-1,-1,-1,-1,-1,-1,-1,-1,-1,-1],"loss_changes":[7.142474E5,3.3911062E4,4.7793344E4,5.7058438E3,3.8338945E3,8.631855E3,1.0445625E4,0E0,1.182125E3,2.0508398E2,4.1641016E2,1.184778E3,1.3754844E3,1.7881562E3,2.1517812E3,1.08140625E2,4.6640625E1,6.9722095E2,1.23458984E2,1.22143555E2,2.5734912E2,6.554448E2,1.1247191E3,6.438122E2,1.5564648E3,1.5939844E3,1.4562314E3,1.0941641E3,2.7430547E3,0E0,0E0,1.1937421E2,4.2539062E1,0E0,9.669873E1,0E0,1.0641211E2,1.6552032E1,5.2940918E1,1.2809619E2,1.4755713E1,3.4830664E2,0E0,6.0085144E1,8.6036316E2,3.4452637E2,5.6200806E2,1.3476567E3,1.6226133E3,6.785332E2,1.3807656E3,0E0,1.4544883E3,3.6719922E2,3.959453E2,1.5193984E3,9.361856E2,0E0,0E0,0E0,0E0,0E0,0E0,0E0,0E0,0E0,0E0,0E0,0E0,0E0,0E0,0E0,0E0,0E0,0E0,0E0,0E0,0E0,0E0,0E0,0E0,0E0,0E0,0E0,0E0,0E0,0E0,0E0,0E0,0E0,0E0,0E0,0E0,0E0,0E0,0E0,0E0,0E0,0E0,0E0,0E0],"parents":[2147483647,0,0,1,1,2,2,3,3,4,4,5,5,6,6,8,8,9,9,10,10,11,11,12,12,13,13,14,14,15,15,16,16,17,17,18,18,19,19,20,20,21,21,22,22,23,23,24,24,25,25,26,26,27,27,28,28,31,31,32,32,34,34,36,36,37,37,38,38,39,39,40,40,41,41,43,43,44,44,45,45,46,46,47,47,48,48,49,49,50,50,52,52,53,53,54,54,55,55,56,56],"right_children":[2,4,6,8,10,12,14,-1,16,18,20,22,24,26,28,30,32,34,36,38,40,42,44,46,48,50,52,54,56,-1,-1,58,60,-1,62,-1,64,66,68,70,72,74,-1,76,78,80,82,84,86,88,90,-1,92,94,96,98,100,-1,-1,-1,-1,-1,-1,-1,-1,-1,-1,-1,-1,-1,-1,-1,-1,-1,-1,-1,-1,-1,-1,-1,-1,-1,-1,-1,-1,-1,-1,-1,-1,-1,-1,-1,-1,-1,-1,-1,-1,-1,-1,-1,-1],"split_conditions":[-2.0920743E-1,-1.0451505E0,7.177423E-1,-1.492846E0,-6.829577E-1,3.2545823E-1,1.1478233E0,-4.405051E0,-1.2121189E0,-2.9092366E-1,-5.066783E-1,-1.9886842E-1,-1.172134E-1,1.0469997E0,-4.870527E-1,-1.10647E0,-1.3200061E0,-9.361537E-1,-1.8891282E0,-2.8283122E-1,-3.602487E-1,1.1998622E0,-2.5120623E0,8.5837936E-1,-7.943196E-1,-8.426173E-1,-1.4304165E0,1.029662E0,1.6455507E0,-3.24769E0,-8.35199E-1,-1.1599705E-1,-1.4526474E0,5.822388E-1,1.6379843E0,-4.7819215E-1,2.1862972E0,-7.3653364E-1,-1.3533973E0,1.2441038E0,-3.865119E-1,5.880707E-1,-2.1082885E0,-4.4914368E-1,8.6544114E-1,-2.8568345E-1,1.1014067E-2,-5.988839E-1,5.886958E-1,-1.7819272E0,9.283795E-1,-1.3521546E0,9.2637557E-1,9.75212E-1,-2.9598147E-1,-9.26376E-2,-8.794771E-1,-1.866272E-1,-1.6711508E0,-1.3595428E0,-2.8033516E0,-1.7669338E0,-3.2246706E-1,-2.298883E0,-5.1222533E-1,-2.4648438E-1,-8.0846256E-1,-2.992859E-1,-1.4529856E0,-9.6587366E-1,-9.805501E-2,4.5686852E-2,-2.676483E-1,7.32149E-2,-6.751526E-1,-1.4599813E0,-2.4108277E-1,4.520994E-1,2.5933106E0,-1.1344605E-1,1.0194405E0,-1.1116486E0,7.1897787E-1,-7.099878E-1,1.0587687E0,1.2846577E0,1.9348669E0,8.911676E-1,2.0306935E0,2.1565733E0,2.8816197E0,1.8088063E0,-3.7733155E-1,3.365271E0,1.8436173E0,9.7825927E-1,4.415426E0,2.3389637E0,3.3905914E0,1.468811E0,-8.9796954E-1],"split_indices":[10,10,10,10,10,10,10,0,10,9,11,15,15,8,8,18,15,15,1,9,18,6,22,13,26,7,7,13,13,0,0,1,26,0,11,0,12,12,0,16,3,8,0,0,12,9,22,27,3,1,10,0,22,12,9,0,7,0,0,0,0,0,0,0,0,0,0,0,0,0,0,0,0,0,0,0,0,0,0,0,0,0,0,0,0,0,0,0,0,0,0,0,0,0,0,0,0,0,0,0,0],"split_type":[0,0,0,0,0,0,0,0,0,0,0,0,0,0,0,0,0,0,0,0,0,0,0,0,0,0,0,0,0,0,0,0,0,0,0,0,0,0,0,0,0,0,0,0,0,0,0,0,0,0,0,0,0,0,0,0,0,0,0,0,0,0,0,0,0,0,0,0,0,0,0,0,0,0,0,0,0,0,0,0,0,0,0,0,0,0,0,0,0,0,0,0,0,0,0,0,0,0,0,0,0],"sum_hessian":[1.364E3,5.82E2,7.82E2,4.2E2,1.62E2,3.51E2,4.31E2,3.9E1,3.81E2,6.1E1,1.01E2,9E1,2.61E2,2.76E2,1.55E2,2.16E2,1.65E2,1.5E1,4.6E1,3.8E1,6.3E1,2.6E1,6.4E1,2.3E1,2.38E2,2.39E2,3.7E1,5.5E1,1E2,2.15E2,1E0,3E0,1.62E2,1E0,1.4E1,1E0,4.5E1,5E0,3.3E1,5.8E1,5E0,2.5E1,1E0,3E0,6.1E1,1.8E1,5E0,5.7E1,1.81E2,8.6E1,1.53E2,1E0,3.6E1,2.1E1,3.4E1,9.5E1,5E0,1E0,2E0,3E0,1.59E2,1.3E1,1E0,4.4E1,1E0,2E0,3E0,1E0,3.2E1,5.6E1,2E0,2E0,3E0,1.6E1,9E0,2E0,1E0,6E1,1E0,3E0,1.5E1,3E0,2E0,4E0,5.3E1,1.08E2,7.3E1,8E0,7.8E1,7.2E1,8.1E1,3.3E1,3E0,1.4E1,7E0,1E0,3.3E1,3.3E1,6.2E1,3E0,2E0],"tree_param":{"num_deleted":"0","num_feature":"30","num_nodes":"101","size_leaf_vector":"1"}},{"base_weights":[1.3647711E-1,-2.473545E1,1.806796E1,-2.843315E1,-1.3573297E1,9.878245E0,2.4766466E1,-3.8268735E0,-2.6910715E1,-1.8416538E1,-1.0281955E1,2.7964988E0,1.246241E1,2.1311102E1,3.0749142E1,-2.8347757E1,-2.3552828E1,-5.3295493E0,-1.8795528E1,-1.7566618E1,-9.12281E0,-3.9598906E0,5.197466E0,5.8196845E0,1.2987347E1,1.9231012E1,2.6244936E1,2.8291412E1,4.1534824E1,-3.141686E1,-2.6935022E1,-2.4542648E1,-1.6228443E1,-1.4141236E-1,-6.5802E-1,-1.99085E1,-1.1796301E1,-3.2744548E-1,-2.0378826E0,-7.2676225E0,-1.2994166E1,-5.754893E0,-2.2598958E0,6.98537E0,5.227748E-1,1.01177225E1,-1.0352241E0,1.4407591E1,9.756857E0,1.703909E1,2.3946392E1,2.3056953E1,3.75558E1,2.9058523E1,3.1485107E0,-1.9036865E-2,4.3146965E1,-7.918274E-1,-3.1627405E0,-2.7568939E0,-1.8595467E0,-2.4159546E-1,-2.4737804E0,-1.68041E0,-3.5089722E-1,-1.5758394E0,-2.24948E0,5.53125E-1,-1.4336169E0,-1.0332501E0,-5.497344E-1,-1.3702015E0,-3.4718832E-1,7.306316E-2,-7.125061E-1,-1.0559749E-1,-4.456543E-1,6.1562026E-1,2.4636476E0,1.0408467E0,-3.2170334E-1,1.7330811E0,1.459246E-1,-1.0282716E0,5.302307E-1,9.188959E-1,1.6101087E0,7.561733E-2,1.0506828E0,1.3397754E0,2.103451E0,1.1011823E0,2.515722E0,2.4342463E0,6.3590497E-1,4.507314E0,2.1451626E0,1.049355E0,2.973337E0,-1.2381226E0,1.0126251E0,4.4129367E0,9.293457E-1],"categories":[],"categories_nodes":[],"categories_segments":[],"categories_sizes":[],"default_left":[0,0,0,0,0,0,0,0,0,0,0,0,0,0,0,0,0,0,0,0,0,0,0,0,0,0,0,0,0,0,0,0,0,0,0,0,0,0,0,0,0,0,0,0,0,0,0,0,0,0,0,0,0,0,0,0,0,0,0,0,0,0,0,0,0,0,0,0,0,0,0,0,0,0,0,0,0,0,0,0,0,0,0,0,0,0,0,0,0,0,0,0,0,0,0,0,0,0,0,0,0,0,0],"id":24,"left_children":[1,3,5,7,9,11,13,-1,15,17,19,21,23,25,27,29,31,33,35,37,39,41,43,45,47,49,51,53,55,57,59,61,63,-1,-1,65,67,-1,-1,69,71,73,75,77,79,81,83,85,87,89,91,93,95,97,99,-1,101,-1,-1,-1,-1,-1,-1,-1,-1,-1,-1,-1,-1,-1,-1,-1,-1,-1,-1,-1,-1,-1,-1,-1,-1,-1,-1,-1,-1,-1,-1,-1,-1,-1,-1,-1,-1,-1,-1,-1,-1,-1,-1,-1,-1,-1,-1],"loss_changes":[6.07886E5,2.3181719E4,4.3203547E4,5.3790312E3,2.1061094E3,6.5166875E3,8.337156E3,0E0,1.1370312E3,1.8254102E2,5.828135E2,1.5941025E3,8.380156E2,2.3586094E3,2.9867188E3,2.6809375E2,4.571914E2,5.385277E0,1.9359961E2,3.7538843E2,4.657666E2,6.6333405E1,5.981172E2,