{"learner":{"attributes":{"scikit_learn":"{\"_estimator_type\": \"regressor\"}"},"feature_names":[],"feature_types":[],"gradient_booster":{"model":{"gbtree_model_param":{"num_parallel_tree":"1","num_trees":"200"},"iteration_indptr":[0,1,2,3,4,5,6,7,8,9,10,11,12,13,14,15,16,17,18,19,20,21,22,23,24,25,26,27,28,29,30,31,32,33,34,35,36,37,38,39,40,41,42,43,44,45,46,47,48,49,50,51,52,53,54,55,56,57,58,59,60,61,62,63,64,65,66,67,68,69,70,71,72,73,74,75,76,77,78,79,80,81,82,83,84,85,86,87,88,89,90,91,92,93,94,95,96,97,98,99,100,101,102,103,104,105,106,107,108,109,110,111,112,113,114,115,116,117,118,119,120,121,122,123,124,125,126,127,128,129,130,131,132,133,134,135,136,137,138,139,140,141,142,143,144,145,146,147,148,149,150,151,152,153,154,155,156,157,158,159,160,161,162,163,164,165,166,167,168,169,170,171,172,173,174,175,176,177,178,179,180,181,182,183,184,185,186,187,188,189,190,191,192,193,194,195,196,197,198,199,200],"tree_info":[0,0,0,0,0,0,0,0,0,0,0,0,0,0,0,0,0,0,0,0,0,0,0,0,0,0,0,0,0,0,0,0,0,0,0,0,0,0,0,0,0,0,0,0,0,0,0,0,0,0,0,0,0,0,0,0,0,0,0,0,0,0,0,0,0,0,0,0,0,0,0,0,0,0,0,0,0,0,0,0,0,0,0,0,0,0,0,0,0,0,0,0,0,0,0,0,0,0,0,0,0,0,0,0,0,0,0,0,0,0,0,0,0,0,0,0,0,0,0,0,0,0,0,0,0,0,0,0,0,0,0,0,0,0,0,0,0,0,0,0,0,0,0,0,0,0,0,0,0,0,0,0,0,0,0,0,0,0,0,0,0,0,0,0,0,0,0,0,0,0,0,0,0,0,0,0,0,0,0,0,0,0,0,0,0,0,0,0,0,0,0,0,0,0,0,0,0,0,0,0],"trees":[{"base_weights":[-5.920831E-1,-2.6404556E2,2.5239384E2,-2.99199E2,-8.784293E1,1.7112213E2,3.3876328E2,-3.4794647E2,-2.6699155E2,-1.3555972E2,-6.2913292E1,7.7631714E1,2.051741E2,2.8507269E1,3.7285446E2,-3.6665478E1,-3.1959082E1,-2.8554514E1,-2.396531E1,-1.509478E1,-1.0208159E1,-7.190592E1,-2.4299942E1,1.1176428E1,9.908997E1,1.652406E1,2.2511158E1,3.461346E1,4.0090923E1,-7.2969185E1,-1.3968506E-1,-3.6031967E1,-1.2484326E1,-3.4203522E0,4.0750027E1,7.1411835E1,1.1799529E1,-7.4516764E0,-3.9494972E0,-3.8394585E0,-9.746826E-1,-5.195282E-1,-1.486602E0,4.2827246E-1,-1.7237444E0,1.03042E0,4.797681E0,7.367965E0,-2.846863E-1],"categories":[],"categories_nodes":[],"categories_segments":[],"categories_sizes":[],"default_left":[0,0,0,0,0,0,0,0,0,0,0,0,0,0,0,0,0,0,0,0,0,0,0,0,0,0,0,0,0,0,0,0,0,0,0,0,0,0,0,0,0,0,0,0,0,0,0,0,0],"id":0,"left_children":[1,3,5,7,9,11,13,15,17,19,21,23,25,-1,27,-1,-1,-1,-1,-1,-1,29,31,33,35,-1,-1,-1,-1,37,-1,39,41,43,45,47,-1,-1,-1,-1,-1,-1,-1,-1,-1,-1,-1,-1,-1],"loss_changes":[9.8642024E7,4.46446E6,5.241672E6,8.55404E5,1.3659806E5,1.228833E6,5.61796E5,8.544E3,1.18226E5,5.71275E3,2.6726062E4,1.5005006E5,1.90508E5,0E0,2.615E4,0E0,0E0,0E0,0E0,0E0,0E0,4.8460625E3,1.9067236E3,1.1794721E4,3.3434875E4,0E0,0E0,0E0,0E0,4.241875E2,0E0,1.2258789E2,9.636951E1,2.0960715E3,1.4858652E3,6.103922E3,0E0,0E0,0E0,0E0,0E0,0E0,0E0,0E0,0E0,0E0,0E0,0E0,0E0],"parents":[2147483647,0,0,1,1,2,2,3,3,4,4,5,5,6,6,7,7,8,8,9,9,10,10,11,11,12,12,14,14,21,21,22,22,23,23,24,24,29,29,31,31,32,32,33,33,34,34,35,35],"right_children":[2,4,6,8,10,12,14,16,18,20,22,24,26,-1,28,-1,-1,-1,-1,-1,-1,30,32,34,36,-1,-1,-1,-1,38,-1,40,42,44,46,48,-1,-1,-1,-1,-1,-1,-1,-1,-1,-1,-1,-1,-1],"split_conditions":[-4.3014973E-2,-6.638384E-1,9.339059E-1,-1.1188921E0,-3.5577404E-1,5.1532865E-1,1.1570991E0,-1.2384338E0,-9.433715E-1,-5.3031427E-1,-1.760783E-1,1.899292E-1,6.959055E-1,2.8507269E1,1.3495938E0,-3.6665478E1,-3.1959082E1,-2.8554514E1,-2.396531E1,-1.509478E1,-1.0208159E1,4.051084E0,-1.03809394E-1,1.5099262E-1,3.4161377E-1,1.652406E1,2.2511158E1,3.461346E1,4.0090923E1,1.6782277E0,-1.3968506E-1,1.5494964E-1,3.6028096E-1,1.0868508E0,-2.5858073E0,1.5747858E0,1.1799529E1,-7.4516764E0,-3.9494972E0,-3.8394585E0,-9.746826E-1,-5.195282E-1,-1.486602E0,4.2827246E-1,-1.7237444E0,1.03042E0,4.797681E0,7.367965E0,-2.846863E-1],"split_indices":[1,1,1,1,1,1,1,1,1,2,0,1,1,0,1,0,0,0,0,0,0,10,0,26,1,0,0,0,0,29,0,3,10,25,11,25,0,0,0,0,0,0,0,0,0,0,0,0,0],"split_type":[0,0,0,0,0,0,0,0,0,0,0,0,0,0,0,0,0,0,0,0,0,0,0,0,0,0,0,0,0,0,0,0,0,0,0,0,0,0,0,0,0,0,0,0,0,0,0,0,0],"sum_hessian":[1.478E3,7.24E2,7.54E2,6.03E2,1.21E2,3.9E2,3.64E2,2.36E2,3.67E2,4E1,8.1E1,1.05E2,2.85E2,1.45E2,2.19E2,1.35E2,1.01E2,2.13E2,1.54E2,2.5E1,1.5E1,6.5E1,1.6E1,2.6E1,7.9E1,9.8E1,1.87E2,1.19E2,1E2,6.4E1,1E0,7E0,9E0,1.8E1,8E0,3.4E1,4.5E1,6E1,4E0,6E0,1E0,3E0,6E0,1.2E1,6E0,2E0,6E0,3.3E1,1E0],"tree_param":{"num_deleted":"0","num_feature":"30","num_nodes":"49","size_leaf_vector":"1"}},{"base_weights":[4.868122E0,-2.3696846E2,2.3019504E2,-2.6914645E2,-7.9674934E1,1.5585248E2,3.0412854E2,-3.1080527E2,-2.3793771E2,-1.2704403E2,-5.836875E1,8.068874E1,1.8873347E2,2.5345133E1,3.3251593E2,-3.3798504E1,-2.9329483E1,-2.5423504E1,-2.1523087E1,-1.3781754E1,-8.905053E0,-6.617958E1,-2.518453E1,3.5468678E1,1.1341719E2,1.6153622E1,2.0557209E1,3.143457E1,3.6782833E1,-6.711378E1,-1.3270263E-1,-3.3693043E1,-1.2932346E1,2.8881195E0,5.315237E1,8.169745E0,1.2085301E1,-7.099983E0,-5.004663E0,-9.2594606E-1,-3.5379055E0,-1.5371095E-1,-1.4164612E0,1.6814648E0,-1.9465983E-1,-5.879547E-1,5.9251547E0],"categories":[],"categories_nodes":[],"categories_segments":[],"categories_sizes":[],"default_left":[0,0,0,0,0,0,0,0,0,0,0,0,0,0,0,0,0,0,0,0,0,0,0,0,0,0,0,0,0,0,0,0,0,0,0,0,0,0,0,0,0,0,0,0,0,0,0],"id":1,"left_children":[1,3,5,7,9,11,13,15,17,19,21,23,25,-1,27,-1,-1,-1,-1,-1,-1,29,31,33,35,-1,-1,-1,-1,37,-1,39,41,43,45,-1,-1,-1,-1,-1,-1,-1,-1,-1,-1,-1,-1],"loss_changes":[8.02127E7,3.572144E6,4.140864E6,6.91816E5,1.15713625E5,9.28869E5,4.63824E5,1.9378E4,7.147E4,2.87225E3,2.0624156E4,1.7061519E5,8.8153E4,0E0,3.9008E4,0E0,0E0,0E0,0E0,0E0,0E0,4.0913438E3,1.4407314E3,2.9229863E4,6.16525E3,0E0,0E0,0E0,0E0,9.5671875E2,0E0,8.4362305E1,1.046051E2,1.3120172E3,1.2229891E4,0E0,0E0,0E0,0E0,0E0,0E0,0E0,0E0,0E0,0E0,0E0,0E0],"parents":[2147483647,0,0,1,1,2,2,3,3,4,4,5,5,6,6,7,7,8,8,9,9,10,10,11,11,12,12,14,14,21,21,22,22,23,23,24,24,29,29,31,31,32,32,33,33,34,34],"right_children":[2,4,6,8,10,12,14,16,18,20,22,24,26,-1,28,-1,-1,-1,-1,-1,-1,30,32,34,36,-1,-1,-1,-1,38,-1,40,42,44,46,-1,-1,-1,-1,-1,-1,-1,-1,-1,-1,-1,-1],"split_conditions":[-4.3014973E-2,-6.638384E-1,9.255992E-1,-1.0954171E0,-3.799716E-1,5.478325E-1,1.1477088E0,-1.2796055E0,-9.375926E-1,-4.903737E-1,-1.9779742E-1,3.217503E-1,7.410497E-1,2.5345133E1,1.3969048E0,-3.3798504E1,-2.9329483E1,-2.5423504E1,-2.1523087E1,-1.3781754E1,-8.905053E0,4.051084E0,-1.03809394E-1,9.659256E-3,3.7231183E-1,1.6153622E1,2.0557209E1,3.143457E1,3.6782833E1,1.6427484E0,-1.3270263E-1,2.4643527E-1,-5.0407976E-1,5.5776726E-2,-2.5858073E0,8.169745E0,1.2085301E1,-7.099983E0,-5.004663E0,-9.2594606E-1,-3.5379055E0,-1.5371095E-1,-1.4164612E0,1.6814648E0,-1.9465983E-1,-5.879547E-1,5.9251547E0],"split_indices":[1,1,1,1,1,1,1,1,1,0,0,1,1,0,1,0,0,0,0,0,0,10,0,7,1,0,0,0,0,28,0,8,3,8,11,0,0,0,0,0,0,0,0,0,0,0,0],"split_type":[0,0,0,0,0,0,0,0,0,0,0,0,0,0,0,0,0,0,0,0,0,0,0,0,0,0,0,0,0,0,0,0,0,0,0,0,0,0,0,0,0,0,0,0,0,0,0],"sum_hessian":[1.47E3,7.09E2,7.61E2,5.88E2,1.21E2,3.81E2,3.8E2,2.48E2,3.4E2,3.6E1,8.5E1,1.17E2,2.64E2,1.4E2,2.4E2,9E1,1.58E2,1.92E2,1.48E2,2.6E1,1E1,6.8E1,1.7E1,5E1,6.7E1,1.05E2,1.59E2,1.65E2,7.5E1,6.7E1,1E0,9E0,8E0,1.8E1,3.2E1,1.5E1,5.2E1,5.2E1,1.5E1,1E0,8E0,1E0,7E0,4E0,1.4E1,3E0,2.9E1],"tree_param":{"num_deleted":"0","num_feature":"30","num_nodes":"47","size_leaf_vector":"1"}},{"base_weights":[-2.4079232E0,-2.1467084E2,2.0608858E2,-2.4199817E2,-6.903855E1,1.430573E2,2.7873825E2,-2.7808817E2,-2.1266647E2,-1.01114044E2,-4.847799E1,8.691353E1,1.7910487E2,2.4540636E2,3.1199736E1,-2.9480368E1,-2.543413E1,-2.2561234E1,-1.8994324E1,-1.2091642E1,-7.9573884E0,-5.536021E1,-1.2984826E1,3.6616734E1,1.1318226E2,1.591781E1,1.925355E1,2.195652E1,2.5880186E1,-5.6255783E1,-1.2606812E-1,-1.3823517E1,-1.4602661E-1,2.2815444E0,5.0644463E1,7.7670326E0,1.1794927E1,-5.8375115E0,-3.5448167E0,-1.6610718E0,-6.599292E-1,2.2591674E0,-3.9981842E-2,-9.906006E-1,5.4185195E0],"categories":[],"categories_nodes":[],"categories_segments":[],"categories_sizes":[],"default_left":[0,0,0,0,0,0,0,0,0,0,0,0,0,0,0,0,0,0,0,0,0,0,0,0,0,0,0,0,0,0,0,0,0,0,0,0,0,0,0,0,0,0,0,0,0],"id":2,"left_children":[1,3,5,7,9,11,13,15,17,19,21,23,25,27,-1,-1,-1,-1,-1,-1,-1,29,31,33,35,-1,-1,-1,-1,37,-1,39,-1,41,43,-1,-1,-1,-1,-1,-1,-1,-1,-1,-1],"loss_changes":[6.4215548E7,2.844728E6,3.3121E6,5.813E5,7.093956E4,7.81829E5,2.99244E5,3.14E4,5.6575E4,9.14625E3,1.6868734E4,2.0196788E5,3.3316E4,3.406E3,0E0,0E0,0E0,0E0,0E0,0E0,0E0,2.8360625E3,1.05466064E2,2.6374914E4,8.106E3,0E0,0E0,0E0,0E0,5.325156E2,0E0,1.3200537E2,0E0,9.3483264E2,8.898078E3,0E0,0E0,0E0,0E0,0E0,0E0,0E0,0E0,0E0,0E0],"parents":[2147483647,0,0,1,1,2,2,3,3,4,4,5,5,6,6,7,7,8,8,9,9,10,10,11,11,12,12,13,13,21,21,22,22,23,23,24,24,29,29,31,31,33,33,34,34],"right_children":[2,4,6,8,10,12,14,16,18,20,22,24,26,28,-1,-1,-1,-1,-1,-1,-1,30,32,34,36,-1,-1,-1,-1,38,-1,40,-1,42,44,-1,-1,-1,-1,-1,-1,-1,-1,-1,-1],"split_conditions":[-4.3014973E-2,-6.638384E-1,9.559362E-1,-1.0824157E0,-3.2941008E-1,6.092286E-1,1.2585832E0,-1.2117084E0,-9.0761715E-1,-5.0456965E-1,-1.3431305E-1,3.4161377E-1,7.858329E-1,1.055976E0,3.1199736E1,-2.9480368E1,-2.543413E1,-2.2561234E1,-1.8994324E1,-1.2091642E1,-7.9573884E0,4.051084E0,1.4982741E0,1.1699026E-2,4.1348347E-1,1.591781E1,1.925355E1,2.195652E1,2.5880186E1,-2.303604E-1,-1.2606812E-1,-8.305818E-2,-1.4602661E-1,-1.1750168E0,-2.719888E0,7.7670326E0,1.1794927E1,-5.8375115E0,-3.5448167E0,-1.6610718E0,-6.599292E-1,2.2591674E0,-3.9981842E-2,-9.906006E-1,5.4185195E0],"split_indices":[1,1,1,1,1,1,1,1,1,1,0,1,1,1,0,0,0,0,0,0,0,10,4,2,1,0,0,0,0,0,0,2,0,3,9,0,0,0,0,0,0,0,0,0,0],"split_type":[0,0,0,0,0,0,0,0,0,0,0,0,0,0,0,0,0,0,0,0,0,0,0,0,0,0,0,0,0,0,0,0,0,0,0,0,0,0,0,0,0,0,0,0,0],"sum_hessian":[1.449E3,7.18E2,7.31E2,6.04E2,1.14E2,3.93E2,3.38E2,2.67E2,3.37E2,4.3E1,7.1E1,1.55E2,2.38E2,1.73E2,1.65E2,1.5E2,1.17E2,2.09E2,1.28E2,2E1,2.3E1,5.9E1,1.2E1,5.4E1,1.01E2,1.01E2,1.37E2,6.5E1,1.08E2,5.8E1,1E0,1.1E1,1E0,1.6E1,3.8E1,1.4E1,8.7E1,5.1E1,7E0,7E0,4E0,1E0,1.5E1,2E0,3.6E1],"tree_param":{"num_deleted":"0","num_feature":"30","num_nodes":"45","size_leaf_vector":"1"}},{"base_weights":[-2.6951501E0,-1.9122879E2,1.8840027E2,-2.1797089E2,-6.142579E1,1.3307298E2,2.5261162E2,-2.4651114E2,-1.8699976E2,-9.123785E1,-4.0108067E1,8.155383E1,1.6102103E2,2.201647E1,2.8266058E1,-2.6677652E1,-2.2717985E1,-1.9516403E1,-1.6320488E1,-1.1192595E1,-7.294546E1,-4.855803E1,-1.1757749E1,4.0558327E1,1.0551117E2,1.4802111E1,1.7786184E1,-7.3974304E0,-2.103998E0,-8.966594E0,-4.9789894E1,-7.791443E-1,-1.8097006E1,-2.3593647E0,5.159214E1,4.0336223E0,1.0654581E1,-1.1976319E-1,-1.2252258E0,-5.692265E0,-4.036945E0,-4.18396E-1,1.1527283E0,-1.2956448E0,-2.5139008E0,-2.5395691E0,2.0435457E-1,5.3219404E0,-8.376404E-1],"categories":[],"categories_nodes":[],"categories_segments":[],"categories_sizes":[],"default_left":[0,0,0,0,0,0,0,0,0,0,0,0,0,0,0,0,0,0,0,0,0,0,0,0,0,0,0,0,0,0,0,0,0,0,0,0,0,0,0,0,0,0,0,0,0,0,0,0,0],"id":3,"left_children":[1,3,5,7,9,11,13,15,17,19,21,23,25,-1,-1,-1,-1,-1,-1,-1,27,29,31,33,35,-1,-1,-1,-1,37,39,41,43,45,47,-1,-1,-1,-1,-1,-1,-1,-1,-1,-1,-1,-1,-1,-1],"loss_changes":[5.3465428E7,2.5796E6,2.584678E6,5.01054E5,7.832334E4,5.599325E5,2.69268E5,6.4362E4,2.6622E4,1.18925625E4,1.7875117E4,1.35185E5,2.99375E4,0E0,0E0,0E0,0E0,0E0,0E0,0E0,9.9078125E1,2.4310625E3,1.3082275E3,2.5693203E4,1.7038125E3,0E0,0E0,0E0,0E0,6.1904907E1,1.5320938E3,3.834386E2,1.0868555E2,1.2690199E3,4.641914E3,0E0,0E0,0E0,0E0,0E0,0E0,0E0,0E0,0E0,0E0,0E0,0E0,0E0,0E0],"parents":[2147483647,0,0,1,1,2,2,3,3,4,4,5,5,6,6,7,7,8,8,9,9,10,10,11,11,12,12,20,20,21,21,22,22,23,23,24,24,29,29,30,30,31,31,32,32,33,33,34,34],"right_children":[2,4,6,8,10,12,14,16,18,20,22,24,26,-1,-1,-1,-1,-1,-1,-1,28,30,32,34,36,-1,-1,-1,-1,38,40,42,44,46,48,-1,-1,-1,-1,-1,-1,-1,-1,-1,-1,-1,-1,-1,-1],"split_conditions":[-1.1594772E-2,-6.638384E-1,9.559362E-1,-1.0567734E0,-3.2941008E-1,6.092286E-1,1.2585832E0,-1.2196541E0,-8.769191E-1,-5.3031427E-1,-1.1416209E-1,3.7231183E-1,8.270045E-1,2.201647E1,2.8266058E1,-2.6677652E1,-2.2717985E1,-1.9516403E1,-1.6320488E1,-1.1192595E1,1.0404E0,-2.4949203E0,7.656921E-2,1.5099262E-1,2.8214788E-1,1.4802111E1,1.7786184E1,-7.3974304E0,-2.103998E0,-5.9500545E-1,1.2893561E0,1.1699026E-2,3.7078702E-1,-9.448816E-1,1.5747858E0,4.0336223E0,1.0654581E1,-1.1976319E-1,-1.2252258E0,-5.692265E0,-4.036945E0,-4.18396E-1,1.1527283E0,-1.2956448E0,-2.5139008E0,-2.5395691E0,2.0435457E-1,5.3219404E0,-8.376404E-1],"split_indices":[1,1,1,1,1,1,1,1,1,2,1,1,1,0,0,0,0,0,0,0,8,15,20,26,6,0,0,0,0,0,28,2,12,4,25,0,0,0,0,0,0,0,0,0,0,0,0,0,0],"split_type":[0,0,0,0,0,0,0,0,0,0,0,0,0,0,0,0,0,0,0,0,0,0,0,0,0,0,0,0,0,0,0,0,0,0,0,0,0,0,0,0,0,0,0,0,0,0,0,0,0],"sum_hessian":[1.482E3,7.46E2,7.36E2,6.18E2,1.28E2,3.97E2,3.39E2,3.18E2,3E2,5.2E1,7.6E1,1.41E2,2.56E2,1.67E2,1.72E2,1.49E2,1.69E2,2.18E2,8.2E1,2.2E1,3E1,5.8E1,1.8E1,5.3E1,8.8E1,1.5E2,1.06E2,2.9E1,1E0,2E0,5.6E1,7E0,1.1E1,1.1E1,4.2E1,2E0,8.6E1,1E0,1E0,2.9E1,2.7E1,6E0,1E0,8E0,3E0,1E0,1E1,4.1E1,1E0],"tree_param":{"num_deleted":"0","num_feature":"30","num_nodes":"49","size_leaf_vector":"1"}},{"base_weights":[-2.2183406E0,-1.7381003E2,1.6499428E2,-1.9613667E2,-5.9612034E1,1.0381789E2,2.1430797E2,-2.3078001E2,-1.7418097E2,-9.350732E1,-4.39723E1,3.4938007E1,1.2129494E2,1.7860594E1,2.4218018E2,-2.5552013E1,-2.1757566E1,-1.899444E1,-1.5865603E1,-1.0082558E1,-6.704365E0,-5.3265377E1,-2.3483812E1,5.4377666E0,5.26489E1,9.801013E1,1.3892119E1,2.2081724E1,2.5956665E1,-5.9506946E0,-4.3534782E1,-2.8078793E1,-8.486511E0,1.4340715E1,-3.853594E0,5.5847485E1,7.500824E0,4.0866537E0,9.864306E0,-1.1639649E0,-4.4345E0,-2.532532E-1,-2.9229481E0,-2.1437378E-1,-1.1863428E0,1.3088074E-1,2.7185652E0,-2.2130454E0,1.0367533E-1,8.368042E-1,5.812619E0,-5.1082766E-1,2.2664063E0],"categories":[],"categories_nodes":[],"categories_segments":[],"categories_sizes":[],"default_left":[0,0,0,0,0,0,0,0,0,0,0,0,0,0,0,0,0,0,0,0,0,0,0,0,0,0,0,0,0,0,0,0,0,0,0,0,0,0,0,0,0,0,0,0,0,0,0,0,0,0,0,0,0],"id":4,"left_children":[1,3,5,7,9,11,13,15,17,19,21,23,25,-1,27,-1,-1,-1,-1,-1,-1,29,31,33,35,37,-1,-1,-1,-1,39,41,43,45,47,49,51,-1,-1,-1,-1,-1,-1,-1,-1,-1,-1,-1,-1,-1,-1,-1,-1],"loss_changes":[4.214897E7,1.83681E6,2.222274E6,4.20738E5,5.9501875E4,3.9783675E5,3.65728E5,2.0194E4,6.1637E4,4.0596875E2,1.47428125E4,3.576453E4,9.555725E4,0E0,2.7369E4,0E0,0E0,0E0,0E0,0E0,0E0,8.7121875E2,1.6912529E3,2.288717E3,5.7907188E3,2.3675E2,0E0,0E0,0E0,0E0,1.5573047E2,5.432871E2,1.4592004E2,2.3079353E3,1.2742666E3,3.8412578E3,8.8055347E2,0E0,0E0,0E0,0E0,0E0,0E0,0E0,0E0,0E0,0E0,0E0,0E0,0E0,0E0,0E0,0E0],"parents":[2147483647,0,0,1,1,2,2,3,3,4,4,5,5,6,6,7,7,8,8,9,9,10,10,11,11,12,12,14,14,21,21,22,22,23,23,24,24,25,25,30,30,31,31,32,32,33,33,34,34,35,35,36,36],"right_children":[2,4,6,8,10,12,14,16,18,20,22,24,26,-1,28,-1,-1,-1,-1,-1,-1,30,32,34,36,38,-1,-1,-1,-1,40,42,44,46,48,50,52,-1,-1,-1,-1,-1,-1,-1,-1,-1,-1,-1,-1,-1,-1,-1,-1],"split_conditions":[-4.3014973E-2,-6.638384E-1,8.613141E-1,-1.1188921E0,-3.799716E-1,3.7231183E-1,1.1379578E0,-1.3030804E0,-9.7262484E-1,-5.3031427E-1,-2.7226272E-1,1.899292E-1,6.6448534E-1,1.7860594E1,1.3069779E0,-2.5552013E1,-2.1757566E1,-1.899444E1,-1.5865603E1,-1.0082558E1,-6.704365E0,-1.7563248E-1,-1.03809394E-1,9.3757296E-1,1.2660244E0,-3.6646086E-1,1.3892119E1,2.2081724E1,2.5956665E1,-5.9506946E0,-1.2823914E0,-8.276984E-1,9.3369555E-1,-3.057765E-2,-1.0213112E0,3.1602997E-2,3.2022575E-1,4.0866537E0,9.864306E0,-1.1639649E0,-4.4345E0,-2.532532E-1,-2.9229481E0,-2.1437378E-1,-1.1863428E0,1.3088074E-1,2.7185652E0,-2.2130454E0,1.0367533E-1,8.368042E-1,5.812619E0,-5.1082766E-1,2.2664063E0],"split_indices":[1,1,1,1,1,1,1,1,1,2,0,1,1,0,1,0,0,0,0,0,0,29,0,22,29,0,0,0,0,0,8,12,10,20,21,2,0,0,0,0,0,0,0,0,0,0,0,0,0,0,0,0,0],"split_type":[0,0,0,0,0,0,0,0,0,0,0,0,0,0,0,0,0,0,0,0,0,0,0,0,0,0,0,0,0,0,0,0,0,0,0,0,0,0,0,0,0,0,0,0,0,0,0,0,0,0,0,0,0],"sum_hessian":[1.467E3,7.24E2,7.43E2,6.05E2,1.19E2,3.33E2,4.1E2,2.31E2,3.74E2,3.6E1,8.3E1,6.8E1,2.65E2,1.83E2,2.27E2,7.4E1,1.57E2,1.8E2,1.94E2,2.6E1,1E1,5.6E1,2.7E1,2.6E1,4.2E1,1.17E2,1.48E2,1.08E2,1.19E2,3.1E1,2.5E1,2E1,7E0,1.3E1,1.3E1,3.9E1,3E0,2E0,1.15E2,1E0,2.4E1,1E0,1.9E1,3E0,4E0,7E0,6E0,2E0,1.1E1,2E0,3.7E1,2E0,1E0],"tree_param":{"num_deleted":"0","num_feature":"30","num_nodes":"53","size_leaf_vector":"1"}},{"base_weights":[-1.3900179E0,-1.5434698E2,1.5259537E2,-1.7591531E2,-5.203534E1,1.0721052E2,2.0663383E2,-2.0565753E2,-1.5493248E2,-7.62568E1,-3.533818E1,6.3558586E1,1.3086952E2,1.8744002E2,2.3604977E1,-2.3282293E1,-1.9502684E1,-1.651505E1,-1.3698384E1,-9.197891E0,-6.1137207E1,-7.574121E0,-3.8750893E1,2.953275E1,8.226623E1,1.1882239E1,1.4605075E1,1.6697607E1,1.987488E1,-6.201982E0,-1.7770752E0,-1.5423584E-1,-9.938826E-1,-3.935698E1,1.8375854E-1,-3.1965332E0,4.2536324E1,5.346641E0,8.471542E0,-4.3002625E0,-2.7308004E0,-2.301941E0,-3.4038085E-2,4.4769273E0,1.2363923E0],"categories":[],"categories_nodes":[],"categories_segments":[],"categories_sizes":[],"default_left":[0,0,0,0,0,0,0,0,0,0,0,0,0,0,0,0,0,0,0,0,0,0,0,0,0,0,0,0,0,0,0,0,0,0,0,0,0,0,0,0,0,0,0,0,0],"id":5,"left_children":[1,3,5,7,9,11,13,15,17,19,21,23,25,27,-1,-1,-1,-1,-1,-1,29,31,33,35,37,-1,-1,-1,-1,-1,-1,-1,-1,39,-1,41,43,-1,-1,-1,-1,-1,-1,-1,-1],"loss_changes":[3.521194E7,1.645866E6,1.80498E6,3.5444E5,5.0689875E4,4.120155E5,1.47155E5,2.7657E4,4.4684E4,6.9754062E3,7.286547E3,8.986919E4,3.0746E4,1.54125E4,0E0,0E0,0E0,0E0,0E0,0E0,4.6132812E1,1.273042E2,1.8189375E3,2.269264E4,2.0304375E3,0E0,0E0,0E0,0E0,0E0,0E0,0E0,0E0,1.9005234E3,0E0,8.9803906E2,2.0066719E3,0E0,0E0,0E0,0E0,0E0,0E0,0E0,0E0],"parents":[2147483647,0,0,1,1,2,2,3,3,4,4,5,5,6,6,7,7,8,8,9,9,10,10,11,11,12,12,13,13,20,20,21,21,22,22,23,23,24,24,33,33,35,35,36,36],"right_children":[2,4,6,8,10,12,14,16,18,20,22,24,26,28,-1,-1,-1,-1,-1,-1,30,32,34,36,38,-1,-1,-1,-1,-1,-1,-1,-1,40,-1,42,44,-1,-1,-1,-1,-1,-1,-1,-1],"split_conditions":[-4.3014973E-2,-6.638384E-1,9.6929914E-1,-1.0954171E0,-3.2941008E-1,6.023666E-1,1.3069779E0,-1.3783386E0,-9.0761715E-1,-5.3031427E-1,-7.270898E-3,3.4161377E-1,8.309771E-1,1.0953414E0,2.3604977E1,-2.3282293E1,-1.9502684E1,-1.651505E1,-1.3698384E1,-9.197891E0,1.0404E0,3.6028096E-1,4.051084E0,1.5099262E-1,3.7231183E-1,1.1882239E1,1.4605075E1,1.6697607E1,1.987488E1,-6.201982E0,-1.7770752E0,-1.5423584E-1,-9.938826E-1,-2.0083898E-1,1.8375854E-1,-9.448816E-1,1.2660244E0,5.346641E0,8.471542E0,-4.3002625E0,-2.7308004E0,-2.301941E0,-3.4038085E-2,4.4769273E0,1.2363923E0],"split_indices":[1,1,1,1,1,1,1,28,1,2,26,1,1,1,0,0,0,0,0,0,8,10,10,26,1,0,0,0,0,0,0,0,0,1,0,4,29,0,0,0,0,0,0,0,0],"split_type":[0,0,0,0,0,0,0,0,0,0,0,0,0,0,0,0,0,0,0,0,0,0,0,0,0,0,0,0,0,0,0,0,0,0,0,0,0,0,0,0,0,0,0,0,0],"sum_hessian":[1.493E3,7.49E2,7.44E2,6.18E2,1.31E2,4.06E2,3.38E2,2.52E2,3.66E2,5.2E1,7.9E1,1.44E2,2.62E2,2.09E2,1.29E2,6.5E1,1.87E2,2.28E2,1.38E2,2.3E1,2.9E1,9E0,7E1,5.2E1,9.2E1,1.51E2,1.11E2,8E1,1.29E2,2.8E1,1E0,3E0,6E0,6.9E1,1E0,1.5E1,3.7E1,9E0,8.3E1,5.1E1,1.8E1,1E0,1.4E1,3.4E1,3E0],"tree_param":{"num_deleted":"0","num_feature":"30","num_nodes":"45","size_leaf_vector":"1"}},{"base_weights":[-1.0212882E0,-1.4145706E2,1.3417291E2,-1.5926424E2,-4.705702E1,8.423096E1,1.7494028E2,-1.8260155E2,-1.3790263E2,-6.941924E1,-3.2933804E1,3.923945E1,1.0289167E2,1.4577718E2,1.9671889E2,-2.0498852E1,-1.7167168E1,-1.4633801E1,-1.2421325E1,-8.239264E0,-5.3991685E0,-3.615725E1,-9.010388E0,8.205723E0,5.286573E1,8.7363754E1,1.1502642E1,1.3708562E1,1.601081E1,1.8587355E1,2.2694532E1,1.7457275E-1,-3.678659E1,-3.2107666E0,-1.2341675E0,3.2213686E0,1.9494629E-1,4.1726215E1,6.409106E1,8.770961E0,2.5005798E0,-3.9941742E0,-2.5899615E0,-4.377604E-1,-9.7367354E-2,2.5605577E-1,-1.8006388E0,4.4550757E0,6.5799564E-1,6.5658264E0,2.653292E0],"categories":[],"categories_nodes":[],"categories_segments":[],"categories_sizes":[],"default_left":[0,0,0,0,0,0,0,0,0,0,0,0,0,0,0,0,0,0,0,0,0,0,0,0,0,0,0,0,0,0,0,0,0,0,0,0,0,0,0,0,0,0,0,0,0,0,0,0,0,0,0],"id":6,"left_children":[1,3,5,7,9,11,13,15,17,19,21,23,25,27,29,-1,-1,-1,-1,-1,-1,31,33,35,37,39,-1,-1,-1,-1,-1,-1,41,43,-1,-1,45,47,49,-1,-1,-1,-1,-1,-1,-1,-1,-1,-1,-1,-1],"loss_changes":[2.7947538E7,1.206185E6,1.512267E6,2.77421E5,3.4349625E4,2.8057825E5,2.32996E5,3.5035E4,1.889E4,4.3579688E3,5.3036562E3,4.22765E4,3.4985E4,4.7175E2,3.4198E4,0E0,0E0,0E0,0E0,0E0,0E0,1.590875E3,1.5357574E2,6.148037E3,6.0788438E3,1.575E2,0E0,0E0,0E0,0E0,0E0,0E0,1.1295781E3,8.789261E0,0E0,0E0,1.1225385E3,3.4791875E3,2.003125E2,0E0,0E0,0E0,0E0,0E0,0E0,0E0,0E0,0E0,0E0,0E0,0E0],"parents":[2147483647,0,0,1,1,2,2,3,3,4,4,5,5,6,6,7,7,8,8,9,9,10,10,11,11,12,12,13,13,14,14,21,21,22,22,23,23,24,24,25,25,32,32,33,33,36,36,37,37,38,38],"right_children":[2,4,6,8,10,12,14,16,18,20,22,24,26,28,30,-1,-1,-1,-1,-1,-1,32,34,36,38,40,-1,-1,-1,-1,-1,-1,42,44,-1,-1,46,48,50,-1,-1,-1,-1,-1,-1,-1,-1,-1,-1,-1,-1],"split_conditions":[-4.3014973E-2,-6.638384E-1,8.613141E-1,-1.0697752E0,-3.4241152E-1,5.077445E-1,1.1379578E0,-1.2897176E0,-9.0761715E-1,-5.3031427E-1,-1.1416209E-1,2.217109E-1,6.959055E-1,1.0296117E0,1.424714E0,-2.0498852E1,-1.7167168E1,-1.4633801E1,-1.2421325E1,-8.239264E0,-5.3991685E0,-5.9500545E-1,3.6028096E-1,1.5582755E-1,3.7231183E-1,2.4143143E0,1.1502642E1,1.3708562E1,1.601081E1,1.8587355E1,2.2694532E1,1.7457275E-1,4.84177E-1,-7.936018E-2,-1.2341675E0,3.2213686E0,1.16266705E-1,1.2934937E0,1.5769181E0,8.770961E0,2.5005798E0,-3.9941742E0,-2.5899615E0,-4.377604E-1,-9.7367354E-2,2.5605577E-1,-1.8006388E0,4.4550757E0,6.5799564E-1,6.5658264E0,2.653292E0],"split_indices":[1,1,1,1,1,1,1,1,1,2,1,1,1,1,1,0,0,0,0,0,0,0,10,22,1,25,0,0,0,0,0,0,15,0,0,0,7,29,5,0,0,0,0,0,0,0,0,0,0,0,0],"split_type":[0,0,0,0,0,0,0,0,0,0,0,0,0,0,0,0,0,0,0,0,0,0,0,0,0,0,0,0,0,0,0,0,0,0,0,0,0,0,0,0,0,0,0,0,0,0,0,0,0,0,0],"sum_hessian":[1.47E3,7.21E2,7.49E2,6.06E2,1.15E2,3.38E2,4.11E2,2.86E2,3.2E2,4.3E1,7.2E1,1E2,2.38E2,1.79E2,2.32E2,8.8E1,1.98E2,1.92E2,1.28E2,2.1E1,2.2E1,6.3E1,9E0,3.1E1,6.9E1,1.08E2,1.3E2,1.18E2,6.1E1,1.76E2,5.6E1,1E0,6.2E1,4E0,5E0,7E0,2.4E1,3.7E1,3.2E1,1.07E2,1E0,4.6E1,1.6E1,2E0,2E0,2.2E1,2E0,3.4E1,3E0,3E1,2E0],"tree_param":{"num_deleted":"0","num_feature":"30","num_nodes":"51","size_leaf_vector":"1"}},{"base_weights":[4.3463793E-1,-1.2658656E2,1.2290675E2,-1.437582E2,-4.1923264E1,8.092053E1,1.6106442E2,-1.731333E2,-1.3016998E2,-6.889736E1,-3.0105476E1,5.2462654E1,1.0408302E2,1.4118637E2,1.861616E2,-2.0886496E1,-1.666307E1,-1.3914298E1,-1.1327046E1,-7.598981E0,-4.9958262E0,-3.458573E1,-5.9958496E0,1.1049947E1,6.402365E1,9.4541626E1,1.1304321E2,1.2640783E1,1.5108989E1,1.7567778E1,2.100833E1,-4.2416615E1,-2.6050775E0,3.161621E-2,-8.19053E0,-4.1496215E0,2.0557041E1,3.8966385E1,7.002877E1,9.564534E0,4.3589416E0,2.7831726E0,1.1364093E1,-4.426889E0,-2.1708276E0,-7.767334E-2,8.294271E-2,-1.395874E-1,-9.545356E-1,1.916155E-1,3.321048E0,1.4274577E0,4.0370746E0,2.8757691E0,7.1419864E0],"categories":[],"categories_nodes":[],"categories_segments":[],"categories_sizes":[],"default_left":[0,0,0,0,0,0,0,0,0,0,0,0,0,0,0,0,0,0,0,0,0,0,0,0,0,0,0,0,0,0,0,0,0,0,0,0,0,0,0,0,0,0,0,0,0,0,0,0,0,0,0,0,0,0,0],"id":7,"left_children":[1,3,5,7,9,11,13,15,17,19,21,23,25,27,29,-1,-1,-1,-1,-1,-1,31,33,35,37,39,41,-1,-1,-1,-1,43,-1,45,47,-1,49,51,53,-1,-1,-1,-1,-1,-1,-1,-1,-1,-1,-1,-1,-1,-1,-1,-1],"loss_changes":[2.303926E7,1.05089E6,1.194946E6,2.18553E5,3.7453812E4,2.3249475E5,1.70277E5,8.8775E3,4.74725E4,1.1736875E3,9.298148E3,7.781116E4,6.24025E3,1.36855E4,5.978E3,0E0,0E0,0E0,0E0,0E0,0E0,3.8408984E3,1.9868439E2,1.933681E4,1.6531625E4,1.566875E3,1.777625E3,0E0,0E0,0E0,0E0,4.5823438E2,0E0,3.8687942E0,8.7937195E1,0E0,7.484245E3,3.5998438E2,3.802125E3,0E0,0E0,0E0,0E0,0E0,0E0,0E0,0E0,0E0,0E0,0E0,0E0,0E0,0E0,0E0,0E0],"parents":[2147483647,0,0,1,1,2,2,3,3,4,4,5,5,6,6,7,7,8,8,9,9,10,10,11,11,12,12,13,13,14,14,21,21,22,22,23,23,24,24,25,25,26,26,31,31,33,33,34,34,36,36,37,37,38,38],"right_children":[2,4,6,8,10,12,14,16,18,20,22,24,26,28,30,-1,-1,-1,-1,-1,-1,32,34,36,38,40,42,-1,-1,-1,-1,44,-1,46,48,-1,50,52,54,-1,-1,-1,-1,-1,-1,-1,-1,-1,-1,-1,-1,-1,-1,-1,-1],"split_conditions":[-3.4212506E-1,-8.099995E-1,9.116543E-1,-1.1592131E0,-4.162314E-1,6.360902E-1,1.2614088E0,-1.4318554E0,-9.346774E-1,-5.3031427E-1,-1.03809394E-1,-9.6238874E-2,7.986885E-1,-4.508986E-1,1.4558032E0,-2.0886496E1,-1.666307E1,-1.3914298E1,-1.1327046E1,-7.598981E0,-4.9958262E0,-1.2161959E-1,1.0868508E0,-9.448816E-1,-3.3112323E-1,1.2249365E0,-2.5858073E0,1.2640783E1,1.5108989E1,1.7567778E1,2.100833E1,1.0823946E0,-2.6050775E0,2.1121062E-2,4.414465E-1,-4.1496215E0,-2.5775096E-1,-1.9001707E0,1.4460756E-1,9.564534E0,4.3589416E0,2.7831726E0,1.1364093E1,-4.426889E0,-2.1708276E0,-7.767334E-2,8.294271E-2,-1.395874E-1,-9.545356E-1,1.916155E-1,3.321048E0,1.4274577E0,4.0370746E0,2.8757691E0,7.1419864E0],"split_indices":[13,23,6,6,0,6,6,29,6,2,0,13,6,4,6,0,0,0,0,0,0,29,25,4,0,13,11,0,0,0,0,4,0,14,4,0,13,20,2,0,0,0,0,0,0,0,0,0,0,0,0,0,0,0,0],"split_type":[0,0,0,0,0,0,0,0,0,0,0,0,0,0,0,0,0,0,0,0,0,0,0,0,0,0,0,0,0,0,0,0,0,0,0,0,0,0,0,0,0,0,0,0,0,0,0,0,0,0,0,0,0,0,0],"sum_hessian":[1.479E3,7.26E2,7.53E2,6.03E2,1.23E2,3.6E2,3.93E2,1.87E2,4.16E2,3.6E1,8.7E1,1.63E2,1.97E2,2.23E2,1.7E2,2.4E1,1.63E2,2.67E2,1.49E2,2.4E1,1.2E1,7.3E1,1.4E1,3.6E1,1.27E2,1.01E2,9.6E1,9.5E1,1.28E2,1.24E2,4.6E1,3.6E1,3.7E1,4E0,1E1,5E0,3.1E1,2.6E1,1.01E2,9.8E1,3E0,1E0,9.5E1,3.2E1,4E0,2E0,2E0,2E0,8E0,1.3E1,1.8E1,2E0,2.4E1,4E0,9.7E1],"tree_param":{"num_deleted":"0","num_feature":"30","num_nodes":"55","size_leaf_vector":"1"}},{"base_weights":[-6.753643E-1,-1.1300805E2,1.11203445E2,-1.2924907E2,-3.6767212E1,7.262309E1,1.4285811E2,-1.4787083E2,-1.1014089E2,-5.3854885E1,-2.2877317E1,3.6100914E1,8.484733E1,1.1923202E1,1.6041882E2,-1.7472685E1,-1.4058067E1,-1.1512206E1,-9.6175585E0,-6.7426944E0,-4.3687882E0,-2.9682335E1,-9.172579E0,1.1291829E1,4.6663322E1,6.962362E1,9.514422E0,1.5255684E1,1.9730547E1,-4.8356324E-1,-3.0099234E1,-6.506894E0,-1.6973715E1,2.7230433E1,1.8097262E0,4.976295E1,3.0117899E1,7.001617E0,1.4399353E0,-2.3093803E0,-3.3195958E0,-1.9028592E-1,-9.1937727E-1,-2.0181396E0,-4.6765137E-2,3.1434977E0,-5.305237E-1,5.6863326E-1,-1.946875E0,5.042129E0,9.081238E-1,1.1295818E0,3.2752736E0],"categories":[],"categories_nodes":[],"categories_segments":[],"categories_sizes":[],"default_left":[0,0,0,0,0,0,0,0,0,0,0,0,0,0,0,0,0,0,0,0,0,0,0,0,0,0,0,0,0,0,0,0,0,0,0,0,0,0,0,0,0,0,0,0,0,0,0,0,0,0,0,0,0],"id":8,"left_children":[1,3,5,7,9,11,13,15,17,19,21,23,25,-1,27,-1,-1,-1,-1,-1,-1,29,31,33,35,37,-1,-1,-1,-1,39,41,43,45,47,49,51,-1,-1,-1,-1,-1,-1,-1,-1,-1,-1,-1,-1,-1,-1,-1,-1],"loss_changes":[1.858755E7,9.0906E5,8.9457E5,2.00057E5,2.986025E4,1.4694612E5,1.49319E5,3.5151E4,1.00755E4,5.0575E3,6.629051E3,2.2008836E4,3.2721625E4,0E0,3.66E4,0E0,0E0,0E0,0E0,0E0,0E0,3.6201562E2,4.302334E2,4.0312698E3,1.5783203E3,1.2680312E3,0E0,0E0,0E0,0E0,2.746875E2,2.422857E2,3.0823938E2,1.5347471E3,1.5954949E3,8.5446094E2,2.2514746E2,0E0,0E0,0E0,0E0,0E0,0E0,0E0,0E0,0E0,0E0,0E0,0E0,0E0,0E0,0E0,0E0],"parents":[2147483647,0,0,1,1,2,2,3,3,4,4,5,5,6,6,7,7,8,8,9,9,10,10,11,11,12,12,14,14,21,21,22,22,23,23,24,24,25,25,30,30,31,31,32,32,33,33,34,34,35,35,36,36],"right_children":[2,4,6,8,10,12,14,16,18,20,22,24,26,-1,28,-1,-1,-1,-1,-1,-1,30,32,34,36,38,-1,-1,-1,-1,40,42,44,46,48,50,52,-1,-1,-1,-1,-1,-1,-1,-1,-1,-1,-1,-1,-1,-1,-1,-1],"split_conditions":[-1.1594772E-2,-6.638384E-1,8.7828815E-1,-1.0567734E0,-3.1315815E-1,5.077445E-1,1.1379578E0,-1.3254719E0,-8.769191E-1,-8.728776E-1,-1.9779742E-1,2.5890946E-1,6.959055E-1,1.1923202E1,1.4904437E0,-1.7472685E1,-1.4058067E1,-1.1512206E1,-9.6175585E0,-6.7426944E0,-4.3687882E0,-3.5198336E0,1.3923622E0,2.6080104E-2,3.0153482E0,6.1728954E0,9.514422E0,1.5255684E1,1.9730547E1,-4.8356324E-1,-2.7641544E-1,2.1867436E-1,-1.03809394E-1,1.002986E0,1.08860955E-1,2.4858112E0,5.1900163E-2,7.001617E0,1.4399353E0,-2.3093803E0,-3.3195958E0,-1.9028592E-1,-9.1937727E-1,-2.0181396E0,-4.6765137E-2,3.1434977E0,-5.305237E-1,5.6863326E-1,-1.946875E0,5.042129E0,9.081238E-1,1.1295818E0,3.2752736E0],"split_indices":[1,1,1,1,1,1,1,1,1,13,0,1,1,0,1,0,0,0,0,0,0,12,4,24,26,19,0,0,0,0,19,10,0,14,18,3,16,0,0,0,0,0,0,0,0,0,0,0,0,0,0,0,0],"split_type":[0,0,0,0,0,0,0,0,0,0,0,0,0,0,0,0,0,0,0,0,0,0,0,0,0,0,0,0,0,0,0,0,0,0,0,0,0,0,0,0,0,0,0,0,0,0,0,0,0,0,0,0,0],"sum_hessian":[1.477E3,7.37E2,7.4E2,6.07E2,1.3E2,3.35E2,4.05E2,3.04E2,3.03E2,5.7E1,7.3E1,8.5E1,2.5E2,1.76E2,2.29E2,6E1,2.44E2,2.18E2,8.5E1,2.2E1,3.5E1,4.8E1,2.5E1,2.6E1,5.9E1,1.04E2,1.46E2,1.93E2,3.6E1,1E0,4.7E1,2E1,5E0,9E0,1.7E1,4.8E1,1.1E1,1.03E2,1E0,1.7E1,3E1,8E0,1.2E1,4E0,1E0,8E0,1E0,1.5E1,2E0,4.7E1,1E0,2E0,9E0],"tree_param":{"num_deleted":"0","num_feature":"30","num_nodes":"53","size_leaf_vector":"1"}},{"base_weights":[-4.4764154E-2,-1.02381836E2,1.00489685E2,-1.17878456E2,-4.36763E1,7.413047E1,1.3937952E2,-1.4173284E1,-1.065025E2,-6.785988E1,-2.6903925E1,4.3187553E1,8.956028E1,1.265454E1,1.572553E2,-1.1534658E1,-9.59832E0,-7.3769426E0,-5.0603046E0,-3.0794794E1,-7.9268727E0,1.6948313E1,5.3328674E1,7.4658165E1,9.5165615E0,1.4635773E1,1.786175E1,-3.7479897E1,-2.5356613E1,-1.0375966E1,-1.7075399E0,-1.4694595E0,2.6867458E1,1.6934662E0,5.4215668E1,7.570801E1,3.4471862E0,-3.7998884E0,-1.0695679E0,4.8879394E-1,-2.6155078E0,-3.151343E-1,-1.359436E0,1.4144897E-2,-3.6036786E-1,-9.3382215E-1,4.1856202E-1,3.0739799E0,2.9067382E-1,3.5017412E0,5.588551E0,7.617636E0,1.8885682E0],"categories":[],"categories_nodes":[],"categories_segments":[],"categories_sizes":[],"default_left":[0,0,0,0,0,0,0,0,0,0,0,0,0,0,0,0,0,0,0,0,0,0,0,0,0,0,0,0,0,0,0,0,0,0,0,0,0,0,0,0,0,0,0,0,0,0,0,0,0,0,0,0,0],"id":9,"left_children":[1,3,5,7,9,11,13,-1,15,17,19,21,23,-1,25,-1,-1,-1,-1,27,29,31,33,35,-1,-1,-1,37,39,41,43,45,47,-1,49,51,-1,-1,-1,-1,-1,-1,-1,-1,-1,-1,-1,-1,-1,-1,-1,-1,-1],"loss_changes":[1.505193E7,6.54411E5,7.46195E5,1.403985E5,6.0233562E4,2.0716225E5,4.8238E4,0E0,2.5398E4,2.5897812E3,6.5489297E3,3.8744344E4,1.745325E4,0E0,1.7935E3,0E0,0E0,0E0,0E0,1.8125938E3,2.4122205E2,7.895087E3,2.536E3,9.7634375E2,0E0,0E0,0E0,3.8398438E1,1.2145605E3,2.3617981E2,2.154537E1,7.510619E2,2.5086016E3,0E0,1.3770625E3,7.43625E2,0E0,0E0,0E0,0E0,0E0,0E0,0E0,0E0,0E0,0E0,0E0,0E0,0E0,0E0,0E0,0E0,0E0],"parents":[2147483647,0,0,1,1,2,2,3,3,4,4,5,5,6,6,8,8,9,9,10,10,11,11,12,12,14,14,19,19,20,20,21,21,22,22,23,23,27,27,28,28,29,29,30,30,31,31,32,32,34,34,35,35],"right_children":[2,4,6,8,10,12,14,-1,16,18,20,22,24,-1,26,-1,-1,-1,-1,28,30,32,34,36,-1,-1,-1,38,40,42,44,46,48,-1,50,52,-1,-1,-1,-1,-1,-1,-1,-1,-1,-1,-1,-1,-1,-1,-1,-1,-1],"split_conditions":[-4.3014973E-2,-8.187734E-1,1.0296117E0,-1.1622305E0,-3.95862E-1,6.280089E-1,1.3149232E0,-1.4173284E1,-9.9790555E-1,-7.037469E-1,-1.760783E-1,3.217503E-1,7.7138674E-1,1.265454E1,1.4904437E0,-1.1534658E1,-9.59832E0,-7.3769426E0,-5.0603046E0,-3.1315815E-1,1.0157543E0,1.6794582E-1,2.0299423E-1,1.518105E0,9.5165615E0,1.4635773E1,1.786175E1,1.0404E0,-5.9500545E-1,4.414465E-1,1.0535948E0,6.195416E-1,1.002986E0,1.6934662E0,-3.6646086E-1,1.2357466E0,3.4471862E0,-3.7998884E0,-1.0695679E0,4.8879394E-1,-2.6155078E0,-3.151343E-1,-1.359436E0,1.4144897E-2,-3.6036786E-1,-9.3382215E-1,4.1856202E-1,3.0739799E0,2.9067382E-1,3.5017412E0,5.588551E0,7.617636E0,1.8885682E0],"split_indices":[1,1,1,1,1,1,1,0,1,7,0,1,1,0,1,0,0,0,0,1,20,26,6,28,0,0,0,8,0,4,28,4,14,0,0,0,0,0,0,0,0,0,0,0,0,0,0,0,0,0,0,0,0],"split_type":[0,0,0,0,0,0,0,0,0,0,0,0,0,0,0,0,0,0,0,0,0,0,0,0,0,0,0,0,0,0,0,0,0,0,0,0,0,0,0,0,0,0,0,0,0,0,0,0,0,0,0,0,0],"sum_hessian":[1.461E3,7.24E2,7.37E2,5.72E2,1.52E2,4.41E2,2.96E2,1.81E2,3.91E2,6.1E1,9.1E1,1.48E2,2.93E2,1.77E2,1.19E2,2.07E2,1.84E2,4.3E1,1.8E1,7.5E1,1.6E1,4.2E1,1.06E2,8.4E1,2.09E2,8.4E1,3.5E1,3.1E1,4.4E1,1.1E1,5E0,1.5E1,2.7E1,3E0,1.03E2,8.1E1,3E0,3E1,1E0,1E0,4.3E1,4E0,7E0,3E0,2E0,6E0,9E0,2.3E1,4E0,1E1,9.3E1,8E1,1E0],"tree_param":{"num_deleted":"0","num_feature":"30","num_nodes":"53","size_leaf_vector":"1"}},{"base_weights":[-3.5056794E0,-9.2683815E1,9.057591E1,-1.0607135E2,-3.8062366E1,6.729917E1,1.2781088E2,-1.2978635E2,-9.618238E1,-6.1837326E1,-2.505869E1,4.054012E1,8.1047676E1,1.1977467E1,1.525695E1,-1.5938494E1,-1.2422243E1,-1.03802185E1,-8.636655E0,-1.2891906E0,-6.254426E1,-3.6439205E1,-1.7862917E1,1.6273941E1,4.827323E1,6.831129E1,8.773335E0,-6.632499E0,-4.47298E0,-3.8769214E0,-2.3146775E0,-2.0820627E1,-5.113037E0,1.012142E0,2.5134485E1,2.02582E0,4.937247E1,6.862613E1,1.7941407E0,9.04948E-2,-2.1744714E0,-8.379497E-1,-2.0240632E-1,-3.3064333E-1,8.0410767E-1,2.859742E0,-8.638509E-1,5.0335913E0,1.9265747E0,1.9130493E0,6.892383E0],"categories":[],"categories_nodes":[],"categories_segments":[],"categories_sizes":[],"default_left":[0,0,0,0,0,0,0,0,0,0,0,0,0,0,0,0,0,0,0,0,0,0,0,0,0,0,0,0,0,0,0,0,0,0,0,0,0,0,0,0,0,0,0,0,0,0,0,0,0,0,0],"id":10,"left_children":[1,3,5,7,9,11,13,15,17,19,21,23,25,-1,-1,-1,-1,-1,-1,-1,27,29,31,33,35,37,-1,-1,-1,-1,-1,39,41,43,45,-1,47,49,-1,-1,-1,-1,-1,-1,-1,-1,-1,-1,-1,-1,-1],"loss_changes":[1.2241044E7,5.43667E5,6.067615E5,1.284615E5,4.451553E4,1.58221E5,3.58445E4,8.85575E3,2.3047E4,9.929531E2,7.374461E3,2.755E4,1.8615625E4,0E0,0E0,0E0,0E0,0E0,0E0,0E0,4.6823438E2,2.485586E2,2.2315938E3,5.1132188E3,2.5104688E3,4.18E2,0E0,0E0,0E0,0E0,0E0,1.02349023E3,1.142095E2,4.8191205E2,3.0539248E3,0E0,2.1919062E3,1.9915625E2,0E0,0E0,0E0,0E0,0E0,0E0,0E0,0E0,0E0,0E0,0E0,0E0,0E0],"parents":[2147483647,0,0,1,1,2,2,3,3,4,4,5,5,6,6,7,7,8,8,9,9,10,10,11,11,12,12,20,20,21,21,22,22,23,23,24,24,25,25,31,31,32,32,33,33,34,34,36,36,37,37],"right_children":[2,4,6,8,10,12,14,16,18,20,22,24,26,-1,-1,-1,-1,-1,-1,-1,28,30,32,34,36,38,-1,-1,-1,-1,-1,40,42,44,46,-1,48,50,-1,-1,-1,-1,-1,-1,-1,-1,-1,-1,-1,-1,-1],"split_conditions":[-1.1594772E-2,-8.187734E-1,1.055976E0,-1.1737872E0,-8.728776E-1,6.280089E-1,1.4120736E0,-1.4318554E0,-9.9790555E-1,-8.003451E-1,-3.1315815E-1,3.217503E-1,7.858329E-1,1.1977467E1,1.525695E1,-1.5938494E1,-1.2422243E1,-1.03802185E1,-8.636655E0,-1.2891906E0,-5.86299E-1,-1.7801204E-1,-1.03809394E-1,3.1602997E-2,-9.6238874E-2,1.2573425E0,8.773335E0,-6.632499E0,-4.47298E0,-3.8769214E0,-2.3146775E0,-2.4949203E0,-8.305818E-2,1.1699026E-2,1.2660244E0,2.02582E0,3.0153482E0,-8.9412504E-1,1.7941407E0,9.04948E-2,-2.1744714E0,-8.379497E-1,-2.0240632E-1,-3.3064333E-1,8.0410767E-1,2.859742E0,-8.638509E-1,5.0335913E0,1.9265747E0,1.9130493E0,6.892383E0],"split_indices":[1,1,1,1,13,1,1,29,1,0,1,1,1,0,0,0,0,0,0,0,2,25,0,2,13,0,0,0,0,0,0,15,2,2,29,0,26,10,0,0,0,0,0,0,0,0,0,0,0,0,0],"split_type":[0,0,0,0,0,0,0,0,0,0,0,0,0,0,0,0,0,0,0,0,0,0,0,0,0,0,0,0,0,0,0,0,0,0,0,0,0,0,0,0,0,0,0,0,0,0,0,0,0,0,0],"sum_hessian":[1.457E3,7.48E2,7.09E2,6E2,1.48E2,4.38E2,2.71E2,1.73E2,4.27E2,5.1E1,9.7E1,1.5E2,2.88E2,2.09E2,6.2E1,2.3E1,1.5E2,2.35E2,1.92E2,1E0,5E1,3.6E1,6.1E1,3.7E1,1.13E2,1.03E2,1.85E2,3.9E1,1.1E1,2.9E1,7E0,4.9E1,1.2E1,1.4E1,2.3E1,5E0,1.08E2,1.02E2,1E0,2E0,4.7E1,5E0,7E0,9E0,5E0,2.1E1,2E0,1.04E2,4E0,1E0,1.01E2],"tree_param":{"num_deleted":"0","num_feature":"30","num_nodes":"51","size_leaf_vector":"1"}},{"base_weights":[2.713195E0,-8.236855E1,8.179347E1,-9.4323586E1,-2.8121227E1,5.6888187E1,1.1031673E2,-1.1490457E2,-8.4771194E1,-4.214788E1,-1.7273043E1,2.7908344E1,6.6614555E1,9.927128E1,1.2830847E2,-1.403176E1,-1.1053329E1,-9.253551E0,-7.516369E1,-4.9945846E0,-3.316544E1,-5.9971037E0,-2.1547071E1,4.0077453E0,3.3142105E1,5.559681E1,7.329283E1,8.86493E1,1.0569594E2,1.2944955E2,3.6092E0,-7.856588E0,-6.635948E0,-3.370681E1,-9.00354E-1,-1.2428975E0,-3.3742604E0,4.5983276E-1,-2.2127142E1,-8.2364094E-1,5.825785E0,3.628144E1,1.0759419E1,2.140454E0,5.5994946E1,6.815675E0,7.8969116E0,5.109737E1,9.02384E0,4.479959E0,1.0674056E1,1.2135592E1,1.5138226E2,-3.4241586E0,-9.633911E-1,-6.0161676E-2,-5.771986E-1,-2.459029E0,-1.2656664E0,2.3224488E-1,1.099925E0,4.428528E-1,3.6652043E0,-1.7380494E0,1.8125452E0,5.746387E0,4.097839E0,5.939285E0,4.8099977E-1,4.0176454E0,1.5374991E1],"categories":[],"categories_nodes":[],"categories_segments":[],"categories_sizes":[],"default_left":[0,0,0,0,0,0,0,0,0,0,0,0,0,0,0,0,0,0,0,0,0,0,0,0,0,0,0,0,0,0,0,0,0,0,0,0,0,0,0,0,0,0,0,0,0,0,0,0,0,0,0,0,0,0,0,0,0,0,0,0,0,0,0,0,0,0,0,0,0,0,0],"id":11,"left_children":[1,3,5,7,9,11,13,15,17,19,21,23,25,27,29,-1,-1,-1,31,-1,33,35,37,39,41,43,45,47,49,51,-1,-1,-1,53,-1,-1,55,-1,57,-1,59,61,63,-1,65,-1,-1,67,-1,-1,-1,-1,69,-1,-1,-1,-1,-1,-1,-1,-1,-1,-1,-1,-1,-1,-1,-1,-1,-1,-1],"loss_changes":[9.944419E6,4.590995E5,5.37875E5,1.04876E5,1.9053258E4,1.13989E5,5.8009E4,4.708E3,2.303225E4,2.2660312E3,3.4853086E3,1.3001633E4,1.8514E4,5.98475E3,9.218E3,0E0,0E0,0E0,3.27875E2,0E0,7.585547E1,3.2919672E2,9.207207E2,4.9319083E2,5.6525703E3,4.3503125E2,9.8625E1,8.193125E2,3.806E3,4.70575E3,0E0,0E0,0E0,3.0580078E1,0E0,0E0,1.0954411E2,0E0,9.251094E2,0E0,3.0069385E2,7.2303906E2,2.8023833E3,0E0,2.48125E2,0E0,0E0,2.0181738E3,0E0,0E0,0E0,0E0,1.985125E3,0E0,0E0,0E0,0E0,0E0,0E0,0E0,0E0,0E0,0E0,0E0,0E0,0E0,0E0,0E0,0E0,0E0,0E0],"parents":[2147483647,0,0,1,1,2,2,3,3,4,4,5,5,6,6,7,7,8,8,9,9,10,10,11,11,12,12,13,13,14,14,18,18,20,20,21,21,22,22,23,23,24,24,25,25,26,26,27,27,28,28,29,29,33,33,36,36,38,38,40,40,41,41,42,42,44,44,47,47,52,52],"right_children":[2,4,6,8,10,12,14,16,18,20,22,24,26,28,30,-1,-1,-1,32,-1,34,36,38,40,42,44,46,48,50,52,-1,-1,-1,54,-1,-1,56,-1,58,-1,60,62,64,-1,66,-1,-1,68,-1,-1,-1,-1,70,-1,-1,-1,-1,-1,-1,-1,-1,-1,-1,-1,-1,-1,-1,-1,-1,-1,-1],"split_conditions":[-1.1594772E-2,-7.68934E-1,9.559362E-1,-1.1564522E0,-3.2941008E-1,5.3988725E-1,1.3069779E0,-1.407454E0,-9.7262484E-1,-5.3031427E-1,-8.147806E-1,3.1602997E-2,7.410497E-1,1.0953414E0,2.882819E0,-1.403176E1,-1.1053329E1,-9.253551E0,-8.577778E-1,-4.9945846E0,1.82758E0,-1.7989233E-1,-2.0141163E0,-3.0998167E-1,1.3457541E0,-2.1647303E-1,8.613141E-1,-6.105639E-1,-2.5857108E0,1.5041678E0,3.6092E0,-7.856588E0,-6.635948E0,2.5467548E-1,-9.00354E-1,-1.2428975E0,1.075771E0,4.5983276E-1,1.5747858E0,-8.2364094E-1,5.0523937E-2,-6.6173863E-1,-1.0213112E0,2.140454E0,3.3096702E0,6.815675E0,7.8969116E0,5.848732E-1,9.02384E0,4.479959E0,1.0674056E1,1.2135592E1,-2.1918974E0,-3.4241586E0,-9.633911E-1,-6.0161676E-2,-5.771986E-1,-2.459029E0,-1.2656664E0,2.3224488E-1,1.099925E0,4.428528E-1,3.6652043E0,-1.7380494E0,1.8125452E0,5.746387E0,4.097839E0,5.939285E0,4.8099977E-1,4.0176454E0,1.5374991E1],"split_indices":[1,1,1,1,1,1,1,1,1,2,16,2,1,1,12,0,0,0,1,0,4,1,22,8,25,16,1,27,12,1,0,0,0,26,0,0,22,0,25,0,1,0,21,0,16,0,0,0,0,0,0,0,12,0,0,0,0,0,0,0,0,0,0,0,0,0,0,0,0,0,0],"split_type":[0,0,0,0,0,0,0,0,0,0,0,0,0,0,0,0,0,0,0,0,0,0,0,0,0,0,0,0,0,0,0,0,0,0,0,0,0,0,0,0,0,0,0,0,0,0,0,0,0,0,0,0,0,0,0,0,0,0,0,0,0,0,0,0,0,0,0,0,0,0,0],"sum_hessian":[1.476E3,7.11E2,7.65E2,5.82E2,1.29E2,4.1E2,3.55E2,1.81E2,4.01E2,5.5E1,7.4E1,1.04E2,3.06E2,2.24E2,1.31E2,2.2E1,1.59E2,2.17E2,1.84E2,2.7E1,2.8E1,2.1E1,5.3E1,1.9E1,8.5E1,1.19E2,1.87E2,9E1,1.34E2,1.29E2,2E0,1.27E2,5.7E1,2.7E1,1E0,5E0,1.6E1,1E0,5.2E1,2E0,1.7E1,7.4E1,1.1E1,2E0,1.17E2,1.05E2,8.2E1,5E0,8.5E1,3E0,1.31E2,9.9E1,3E1,2.6E1,1E0,8E0,8E0,4E1,1.2E1,1.1E1,6E0,1E0,7.3E1,2E0,9E0,1.04E2,1.3E1,4E0,1E0,1E0,2.9E1],"tree_param":{"num_deleted":"0","num_feature":"30","num_nodes":"71","size_leaf_vector":"1"}},{"base_weights":[-1.6582309E0,-7.421146E1,7.402112E1,-8.507321E1,-2.4468395E1,5.414984E1,1.0381245E2,-1.0374294E2,-7.571324E1,-3.5984272E1,-1.4622358E1,2.8886105E1,6.3936024E1,9.735365E1,1.2523173E1,-1.3114174E1,-9.951343E0,-8.314022E0,-6.8851037E0,-4.37647E0,-2.9544394E1,-1.810713E1,-2.5812988E0,1.2709811E1,3.624522E1,5.3678802E1,6.981509E1,8.727432E0,1.0263049E2,-3.089621E1,-1.4713526E0,-2.2583775E1,-1.3176135E1,-3.762049E0,8.7457275E-1,-7.1832275E-1,2.0795425E1,9.895996E0,3.709894E1,5.3895355E1,1.4171143E0,1.2057129E0,7.005065E1,1.0297316E1,2.7157655E0,-3.1327133E0,-8.5533446E-1,-2.4365072E0,-1.1694621E0,-1.8461164E0,-8.048692E-1,-1.219162E-1,-5.420154E-1,4.8880312E-1,-1.4029907E0,2.16167E-1,2.4241776E0,-1.05047606E-1,1.3894979E0,3.7881966E0,1.2555237E0,5.410514E0,1.4780213E0,7.0378876E0,2.5694091E0],"categories":[],"categories_nodes":[],"categories_segments":[],"categories_sizes":[],"default_left":[0,0,0,0,0,0,0,0,0,0,0,0,0,0,0,0,0,0,0,0,0,0,0,0,0,0,0,0,0,0,0,0,0,0,0,0,0,0,0,0,0,0,0,0,0,0,0,0,0,0,0,0,0,0,0,0,0,0,0,0,0,0,0,0,0],"id":12,"left_children":[1,3,5,7,9,11,13,15,17,19,21,23,25,27,-1,-1,-1,-1,-1,-1,29,31,33,35,37,39,41,-1,43,45,-1,47,49,51,-1,53,55,57,59,61,-1,-1,63,-1,-1,-1,-1,-1,-1,-1,-1,-1,-1,-1,-1,-1,-1,-1,-1,-1,-1,-1,-1,-1,-1],"loss_changes":[8.0769405E6,4.0368175E5,4.2061275E5,9.979E4,1.4894281E4,1.054535E5,2.751275E4,1.0474E4,1.53755E4,1.8135078E3,3.1002852E3,1.4181641E4,1.5066875E4,3.01025E3,0E0,0E0,0E0,0E0,0E0,0E0,2.8720508E2,9.827422E2,2.7364087E2,4.357926E3,1.5224609E3,2.458125E2,1.8085625E3,0E0,8.75875E2,4.977539E1,0E0,2.7756836E2,6.6437256E2,6.50703E1,0E0,1.2626499E3,1.5530586E3,1.8969531E2,1.0810547E3,1.60375E2,0E0,0E0,1.016125E3,0E0,0E0,0E0,0E0,0E0,0E0,0E0,0E0,0E0,0E0,0E0,0E0,0E0,0E0,0E0,0E0,0E0,0E0,0E0,0E0,0E0,0E0],"parents":[2147483647,0,0,1,1,2,2,3,3,4,4,5,5,6,6,7,7,8,8,9,9,10,10,11,11,12,12,13,13,20,20,21,21,22,22,23,23,24,24,25,25,26,26,28,28,29,29,31,31,32,32,33,33,35,35,36,36,37,37,38,38,39,39,42,42],"right_children":[2,4,6,8,10,12,14,16,18,20,22,24,26,28,-1,-1,-1,-1,-1,-1,30,32,34,36,38,40,42,-1,44,46,-1,48,50,52,-1,54,56,58,60,62,-1,-1,64,-1,-1,-1,-1,-1,-1,-1,-1,-1,-1,-1,-1,-1,-1,-1,-1,-1,-1,-1,-1,-1,-1],"split_conditions":[-1.1594772E-2,-6.638384E-1,1.0491141E0,-1.1495901E0,-3.1315815E-1,5.756416E-1,1.424714E0,-1.5648208E0,-9.9790555E-1,-8.728776E-1,-1.03809394E-1,3.217503E-1,7.7138674E-1,1.2054933E0,1.2523173E1,-1.3114174E1,-9.951343E0,-8.314022E0,-6.8851037E0,-4.37647E0,1.6794582E-1,-4.1633183E-1,1.1699026E-2,2.180816E-1,-4.4857013E-1,1.2357466E0,-1.2850304E0,8.727432E0,1.8486252E0,1.0404E0,-1.4713526E0,6.74779E-1,1.18223384E-1,3.6028096E-1,8.7457275E-1,1.0868508E0,-1.376906E0,-1.1867939E0,3.0153482E0,1.2277871E0,1.4171143E0,1.2057129E0,1.3920275E0,1.0297316E1,2.7157655E0,-3.1327133E0,-8.5533446E-1,-2.4365072E0,-1.1694621E0,-1.8461164E0,-8.048692E-1,-1.219162E-1,-5.420154E-1,4.8880312E-1,-1.4029907E0,2.16167E-1,2.4241776E0,-1.05047606E-1,1.3894979E0,3.7881966E0,1.2555237E0,5.410514E0,1.4780213E0,7.0378876E0,2.5694091E0],"split_indices":[1,1,1,1,1,1,1,29,1,13,0,1,1,1,0,0,0,0,0,0,26,10,2,26,16,0,10,0,3,8,0,11,26,10,0,25,11,4,26,13,0,0,25,0,0,0,0,0,0,0,0,0,0,0,0,0,0,0,0,0,0,0,0,0,0],"split_type":[0,0,0,0,0,0,0,0,0,0,0,0,0,0,0,0,0,0,0,0,0,0,0,0,0,0,0,0,0,0,0,0,0,0,0,0,0,0,0,0,0,0,0,0,0,0,0,0,0,0,0,0,0,0,0,0,0,0,0,0,0,0,0,0,0],"sum_hessian":[1.469E3,7.5E2,7.19E2,6.15E2,1.35E2,4.33E2,2.86E2,2.02E2,4.13E2,6.1E1,7.4E1,1.22E2,3.11E2,2.24E2,6.2E1,2.3E1,1.79E2,1.93E2,2.2E2,2.5E1,3.6E1,5.7E1,1.7E1,3.9E1,8.3E1,1.17E2,1.94E2,8.3E1,1.41E2,3.2E1,4E0,2.8E1,2.9E1,1.6E1,1E0,1.5E1,2.4E1,3E0,8E1,1.16E2,1E0,1E0,1.93E2,1.4E2,1E0,3.1E1,1E0,2.3E1,5E0,1.3E1,1.6E1,7E0,9E0,1.1E1,4E0,4E0,2E1,1E0,2E0,7.7E1,3E0,1.15E2,1E0,1.91E2,2E0],"tree_param":{"num_deleted":"0","num_feature":"30","num_nodes":"65","size_leaf_vector":"1"}},{"base_weights":[1.0657393E0,-6.7710594E1,6.612547E1,-7.718771E1,-2.465518E1,4.5952595E1,8.981829E1,-9.381579E1,-6.962186E1,-3.7425964E1,-1.5212996E1,1.8234583E1,5.3316387E1,8.404005E1,1.1462401E1,-1.1867096E1,-9.016814E0,-7.7451286E0,-6.3287395E1,-4.3552985E0,-2.9458939E1,-1.9301245E1,-6.9273005E0,1.6915283E0,2.4411798E1,4.1782433E1,5.894333E1,7.144091E0,8.8340004E1,-6.5554566E0,-5.4840546E0,-7.610901E-1,-3.0006521E1,-1.9878103E1,4.770813E-1,-1.3934055E1,-3.2437165E0,-3.3742676E0,1.1072307E1,1.9792963E1,3.3583588E1,4.202943E1,7.4296874E-1,5.390204E1,6.3666344E0,3.1017091E0,8.874401E1,-3.055673E0,-8.125672E-1,-2.3878984E0,-1.526656E0,-1.4678024E0,-3.99115E-1,-2.4799054E-2,-8.34382E-1,9.713542E-2,-1.1503133E0,1.3635406E0,-4.7162476E-1,2.1638713E0,-4.5356447E-1,5.361776E-1,3.6421468E0,2.7790163E0,4.2882147E0,2.5652833E0,5.4992537E0,2.1536376E0,8.896571E0],"categories":[],"categories_nodes":[],"categories_segments":[],"categories_sizes":[],"default_left":[0,0,0,0,0,0,0,0,0,0,0,0,0,0,0,0,0,0,0,0,0,0,0,0,0,0,0,0,0,0,0,0,0,0,0,0,0,0,0,0,0,0,0,0,0,0,0,0,0,0,0,0,0,0,0,0,0,0,0,0,0,0,0,0,0,0,0,0,0],"id":13,"left_children":[1,3,5,7,9,11,13,15,17,19,21,23,25,27,-1,-1,-1,-1,29,-1,31,33,35,37,39,41,43,-1,45,-1,-1,-1,47,49,-1,51,53,55,57,59,61,63,-1,65,-1,-1,67,-1,-1,-1,-1,-1,-1,-1,-1,-1,-1,-1,-1,-1,-1,-1,-1,-1,-1,-1,-1,-1,-1],"loss_changes":[6.6089425E6,2.910705E5,3.586385E5,6.744225E4,1.5227156E4,8.3121E4,4.024725E4,5.709625E3,1.5333E4,1.4017578E3,2.4745918E3,8.951428E3,1.863E4,9.18325E3,0E0,0E0,0E0,0E0,8.286875E2,0E0,9.4640625E1,8.0302734E2,6.51671E2,1.2253887E3,2.0465078E3,6.2109375E2,1.711125E3,0E0,2.0875E3,0E0,0E0,0E0,6.471875E1,5.5796094E2,0E0,7.992676E0,2.8822253E2,6.116982E2,4.2851672E2,2.1188496E3,1.4065195E3,1.3179688E2,0E0,2.0087812E3,0E0,0E0,1.168375E3,0E0,0E0,0E0,0E0,0E0,0E0,0E0,0E0,0E0,0E0,0E0,0E0,0E0,0E0,0E0,0E0,0E0,0E0,0E0,0E0,0E0,0E0],"parents":[2147483647,0,0,1,1,2,2,3,3,4,4,5,5,6,6,7,7,8,8,9,9,10,10,11,11,12,12,13,13,18,18,20,20,21,21,22,22,23,23,24,24,25,25,26,26,28,28,32,32,33,33,35,35,36,36,37,37,38,38,39,39,40,40,41,41,43,43,46,46],"right_children":[2,4,6,8,10,12,14,16,18,20,22,24,26,28,-1,-1,-1,-1,30,-1,32,34,36,38,40,42,44,-1,46,-1,-1,-1,48,50,-1,52,54,56,58,60,62,64,-1,66,-1,-1,68,-1,-1,-1,-1,-1,-1,-1,-1,-1,-1,-1,-1,-1,-1,-1,-1,-1,-1,-1,-1,-1,-1],"split_conditions":[-4.3014973E-2,-7.8085226E-1,9.6135354E-1,-1.1737872E0,-3.5924974E-1,4.8788103E-1,1.4120736E0,-1.7319133E0,-1.024631E0,-5.363509E-1,3.030643E-1,1.899292E-1,6.959055E-1,1.0780064E0,1.1462401E1,-1.1867096E1,-9.016814E0,-7.7451286E0,-8.577778E-1,-4.3552985E0,-5.0083184E-1,4.051084E0,-2.6048103E-1,1.5099262E-1,9.521038E-1,2.4143143E0,8.309771E-1,7.144091E0,-2.5857108E0,-6.5554566E0,-5.4840546E0,-7.610901E-1,1.1690603E0,-4.8673406E-1,4.770813E-1,1.997555E0,1.548785E0,1.0868508E0,7.189527E-1,1.2934937E0,-2.9006732E-1,-1.6114956E0,7.4296874E-1,-1.5687972E-1,6.3666344E0,3.1017091E0,9.557032E-1,-3.055673E0,-8.125672E-1,-2.3878984E0,-1.526656E0,-1.4678024E0,-3.99115E-1,-2.4799054E-2,-8.34382E-1,9.713542E-2,-1.1503133E0,1.3635406E0,-4.7162476E-1,2.1638713E0,-4.5356447E-1,5.361776E-1,3.6421468E0,2.7790163E0,4.2882147E0,2.5652833E0,5.4992537E0,2.1536376E0,8.896571E0],"split_indices":[1,1,1,1,6,1,1,28,1,1,24,1,1,1,0,0,0,0,1,0,16,10,23,26,16,25,1,0,12,0,0,0,21,4,0,4,22,25,5,29,19,8,0,16,0,0,6,0,0,0,0,0,0,0,0,0,0,0,0,0,0,0,0,0,0,0,0,0,0],"split_type":[0,0,0,0,0,0,0,0,0,0,0,0,0,0,0,0,0,0,0,0,0,0,0,0,0,0,0,0,0,0,0,0,0,0,0,0,0,0,0,0,0,0,0,0,0,0,0,0,0,0,0,0,0,0,0,0,0,0,0,0,0,0,0,0,0,0,0,0,0],"sum_hessian":[1.475E3,7.17E2,7.58E2,5.87E2,1.3E2,4.11E2,3.47E2,1.8E2,4.07E2,5.4E1,7.6E1,8.7E1,3.24E2,2.85E2,6.2E1,1.9E1,1.61E2,1.77E2,2.3E2,2.8E1,2.6E1,5E1,2.6E1,2.4E1,6.3E1,1.09E2,2.15E2,7.7E1,2.08E2,1.76E2,5.4E1,1E0,2.5E1,4.9E1,1E0,8E0,1.8E1,1.6E1,8E0,4.4E1,1.9E1,1.08E2,1E0,1.1E2,1.05E2,2E0,2.06E2,2.4E1,1E0,2.4E1,2.5E1,7E0,1E0,1.2E1,6E0,1.1E1,5E0,7E0,1E0,4.1E1,3E0,2E0,1.7E1,8E0,1E2,5E0,1.05E2,1E0,2.05E2],"tree_param":{"num_deleted":"0","num_feature":"30","num_nodes":"69","size_leaf_vector":"1"}},{"base_weights":[8.304575E-1,-6.080774E1,5.9206276E1,-6.9373055E1,-2.4101955E1,4.17545E1,8.16084E1,-8.42789E1,-6.303883E1,-3.8715275E1,-1.6533318E1,2.5515087E1,5.1293877E1,7.365788E1,9.312362E1,-1.0843219E1,-8.070527E0,-6.977436E0,-5.748831E1,-4.2777E0,-2.9270158E0,-2.0304502E1,-8.062716E0,1.0547289E1,3.1835686E1,4.650972E1,5.754225E1,7.395828E1,2.9278932E0,9.408159E1,2.0889853E1,-5.952373E0,-4.93371E0,-2.0778198E1,4.5322877E-1,-1.4593495E1,-3.513659E0,-7.365209E-1,1.7122936E1,2.1254967E1,3.3635666E1,4.6973366E1,2.3020215E0,5.7768955E0,1.6189088E0,5.4470684E1,7.503324E0,8.838328E0,1.0993991E1,2.2423707E-1,2.9092407E0,-2.4356701E0,-1.6662205E0,-9.091797E-1,-1.7224454E0,-3.4672853E-2,-1.231172E0,3.3551025E-1,-1.0160888E0,-3.3534852E-1,1.9436606E0,-1.9903565E-2,2.2457912E0,9.755524E-1,3.431572E0,4.727531E0,1.611796E0,5.904865E0,-2.5214234E-1],"categories":[],"categories_nodes":[],"categories_segments":[],"categories_sizes":[],"default_left":[0,0,0,0,0,0,0,0,0,0,0,0,0,0,0,0,0,0,0,0,0,0,0,0,0,0,0,0,0,0,0,0,0,0,0,0,0,0,0,0,0,0,0,0,0,0,0,0,0,0,0,0,0,0,0,0,0,0,0,0,0,0,0,0,0,0,0,0,0],"id":14,"left_children":[1,3,5,7,9,11,13,15,17,19,21,23,25,27,29,-1,-1,-1,31,-1,-1,33,35,37,39,41,43,45,-1,47,49,-1,-1,51,-1,53,55,57,59,61,63,65,-1,-1,-1,67,-1,-1,-1,-1,-1,-1,-1,-1,-1,-1,-1,-1,-1,-1,-1,-1,-1,-1,-1,-1,-1,-1,-1],"loss_changes":[5.296523E6,2.23436E5,2.9215575E5,4.944875E4,1.4512508E4,6.4839438E4,2.3353E4,5.9225E3,1.135425E4,5.12625E2,2.7751602E3,1.4801102E4,5.3350625E3,5.00875E2,7.099375E3,0E0,0E0,0E0,8.958125E2,0E0,0E0,8.353711E2,8.3999E2,3.64833E3,1.4181172E3,6.285E2,1.1475E2,6.0625E1,0E0,1.940375E3,3.93635E2,0E0,0E0,5.0736523E2,0E0,1.7095459E1,5.251252E2,7.6674915E2,1.5338262E3,4.9482227E2,1.1917656E3,6.6346875E2,0E0,0E0,0E0,3.8015977E3,0E0,0E0,0E0,0E0,0E0,0E0,0E0,0E0,0E0,0E0,0E0,0E0,0E0,0E0,0E0,0E0,0E0,0E0,0E0,0E0,0E0,0E0,0E0],"parents":[2147483647,0,0,1,1,2,2,3,3,4,4,5,5,6,6,7,7,8,8,9,9,10,10,11,11,12,12,13,13,14,14,18,18,21,21,22,22,23,23,24,24,25,25,26,26,27,27,29,29,30,30,33,33,35,35,36,36,37,37,38,38,39,39,40,40,41,41,45,45],"right_children":[2,4,6,8,10,12,14,16,18,20,22,24,26,28,30,-1,-1,-1,32,-1,-1,34,36,38,40,42,44,46,-1,48,50,-1,-1,52,-1,54,56,58,60,62,64,66,-1,-1,-1,68,-1,-1,-1,-1,-1,-1,-1,-1,-1,-1,-1,-1,-1,-1,-1,-1,-1,-1,-1,-1,-1,-1,-1],"split_conditions":[-4.3014973E-2,-7.945758E-1,9.768833E-1,-1.1737872E0,-3.95862E-1,6.092286E-1,1.3069779E0,-1.3393599E0,-1.024631E0,-5.616317E-1,-2.7226272E-1,3.217503E-1,8.309771E-1,2.0467212E0,2.882819E0,-1.0843219E1,-8.070527E0,-6.977436E0,-8.577778E-1,-4.2777E0,-2.9270158E0,4.051084E0,-2.4761523E-1,2.180816E-1,-2.9450053E-1,1.2573425E0,1.4659139E0,-1.4937713E0,2.9278932E0,1.5041678E0,1.7953944E0,-5.952373E0,-4.93371E0,1.4572066E-1,4.5322877E-1,4.021688E-1,1.5826403E-1,1.0868508E0,1.1699026E-2,-2.3889649E-1,1.4460756E-1,1.6545397E0,2.3020215E0,5.7768955E0,1.6189088E0,8.4905815E-1,7.503324E0,8.838328E0,1.0993991E1,2.2423707E-1,2.9092407E0,-2.4356701E0,-1.6662205E0,-9.091797E-1,-1.7224454E0,-3.4672853E-2,-1.231172E0,3.3551025E-1,-1.0160888E0,-3.3534852E-1,1.9436606E0,-1.9903565E-2,2.2457912E0,9.755524E-1,3.431572E0,4.727531E0,1.611796E0,5.904865E0,-2.5214234E-1],"split_indices":[1,1,1,1,1,1,1,25,1,1,0,1,1,17,12,0,0,0,1,0,0,10,23,26,0,0,22,26,0,1,0,0,0,26,0,14,27,25,2,27,2,25,0,0,0,3,0,0,0,0,0,0,0,0,0,0,0,0,0,0,0,0,0,0,0,0,0,0,0],"split_type":[0,0,0,0,0,0,0,0,0,0,0,0,0,0,0,0,0,0,0,0,0,0,0,0,0,0,0,0,0,0,0,0,0,0,0,0,0,0,0,0,0,0,0,0,0,0,0,0,0,0,0,0,0,0,0,0,0,0,0,0,0,0,0,0,0,0,0,0,0],"sum_hessian":[1.47E3,7.15E2,7.55E2,5.79E2,1.36E2,4.26E2,3.29E2,1.69E2,4.1E2,4.5E1,9.1E1,1.59E2,2.67E2,1.99E2,1.3E2,1.8E1,1.51E2,1.8E2,2.3E2,2.9E1,1.6E1,6.2E1,2.9E1,4.8E1,1.11E2,1.56E2,1.11E2,1.97E2,2E0,1.28E2,2E0,1.79E2,5.1E1,6.1E1,1E0,1.1E1,1.8E1,1.8E1,3E1,1.8E1,9.3E1,1.52E2,4E0,1.1E2,1E0,1.3E1,1.84E2,9.9E1,2.9E1,1E0,1E0,3E1,3.1E1,5E0,6E0,1.4E1,4E0,1.3E1,5E0,3E0,2.7E1,1E0,1.7E1,3E0,9E1,1.5E2,2E0,1.2E1,1E0],"tree_param":{"num_deleted":"0","num_feature":"30","num_nodes":"69","size_leaf_vector":"1"}},{"base_weights":[5.8498806E-1,-5.408733E1,5.4525608E1,-6.1455597E1,-1.6007343E1,3.586064E1,7.0501274E1,-7.655289E1,-5.5414288E1,-2.1570023E1,-6.46884E0,2.455213E1,4.465265E1,6.0505062E1,8.049483E1,-9.759556E0,-7.2701387E0,-6.0528328E1,-4.9187183E1,-2.4814669E1,-1.7060163E1,-1.3661194E1,-2.5479856E0,1.591524E1,3.1020594E1,3.8676205E1,4.8015823E1,5.4718372E1,6.835154E1,7.5950785E0,9.276243E1,-4.9312344E0,-6.183615E0,-5.1207626E1,-4.1469723E1,-6.397217E-1,-2.5107846E0,-1.8646132E1,-9.376755E-1,-1.5789001E1,8.2230633E-1,5.358185E0,-3.586439E0,-1.8068604E1,1.8321552E1,2.236761E1,3.5411217E1,3.9045174E1,5.6862795E-1,4.8547104E1,2.0471864E0,3.338728E1,5.715184E1,6.9069986E0,4.7193605E-1,9.504057E0,4.337323E0,-1.3042908E0,-5.136663E0,-4.2198586E0,-1.6470541E0,-2.3015964E0,-1.393026E0,-7.882032E-1,-1.8163586E0,4.4072267E-1,-3.173767E-1,4.284668E-2,6.858602E-1,-6.433167E-1,-6.903972E-2,1.2329712E-1,-2.320224E0,9.9442005E-1,2.3791735E0,2.550604E0,9.764069E-1,5.389404E-1,3.5859077E0,2.4881408E0,4.062352E0,1.9614664E0,4.8879714E0,3.4769254E0,7.0198363E-1,5.738157E0,1.6170594E0],"categories":[],"categories_nodes":[],"categories_segments":[],"categories_sizes":[],"default_left":[0,0,0,0,0,0,0,0,0,0,0,0,0,0,0,0,0,0,0,0,0,0,0,0,0,0,0,0,0,0,0,0,0,0,0,0,0,0,0,0,0,0,0,0,0,0,0,0,0,0,0,0,0,0,0,0,0,0,0,0,0,0,0,0,0,0,0,0,0,0,0,0,0,0,0,0,0,0,0,0,0,0,0,0,0,0,0],"id":15,"left_children":[1,3,5,7,9,11,13,15,17,19,21,23,25,27,29,-1,-1,31,33,35,37,39,41,43,45,47,49,51,53,-1,55,-1,-1,57,59,-1,-1,61,-1,63,65,67,69,71,73,75,77,79,-1,81,-1,83,85,-1,-1,-1,-1,-1,-1,-1,-1,-1,-1,-1,-1,-1,-1,-1,-1,-1,-1,-1,-1,-1,-1,-1,-1,-1,-1,-1,-1,-1,-1,-1,-1,-1,-1],"loss_changes":[4.3823015E6,2.06087E5,2.205145E5,5.2124E4,6.2806855E3,3.340397E4,3.52885E4,7.006625E3,1.119425E4,6.887578E2,1.2623994E3,8.109883E3,2.0423125E3,5.5679375E3,3.992125E3,0E0,0E0,4.711875E2,1.0885312E3,6.616211E1,2.516582E2,5.06073E2,2.7373267E2,5.891797E3,2.5132344E3,6.9089844E2,7.6215625E2,4.4765938E3,3.4685E3,0E0,1.391E3,0E0,0E0,2.9490625E2,1.7957812E2,0E0,0E0,2.5639355E2,0E0,1.19694824E2,5.696432E1,2.6647858E1,2.2639731E2,5.2404407E2,2.696252E3,1.01672754E3,5.597031E2,6.4352344E2,0E0,1.671875E2,0E0,3.0251172E2,9.828125E1,0E0,0E0,0E0,0E0,0E0,0E0,0E0,0E0,0E0,0E0,0E0,0E0,0E0,0E0,0E0,0E0,0E0,0E0,0E0,0E0,0E0,0E0,0E0,0E0,0E0,0E0,0E0,0E0,0E0,0E0,0E0,0E0,0E0,0E0],"parents":[2147483647,0,0,1,1,2,2,3,3,4,4,5,5,6,6,7,7,8,8,9,9,10,10,11,11,12,12,13,13,14,14,17,17,18,18,19,19,20,20,21,21,22,22,23,23,24,24,25,25,26,26,27,27,28,28,30,30,33,33,34,34,37,37,39,39,40,40,41,41,42,42,43,43,44,44,45,45,46,46,47,47,49,49,51,51,52,52],"right_children":[2,4,6,8,10,12,14,16,18,20,22,24,26,28,30,-1,-1,32,34,36,38,40,42,44,46,48,50,52,54,-1,56,-1,-1,58,60,-1,-1,62,-1,64,66,68,70,72,74,76,78,80,-1,82,-1,84,86,-1,-1,-1,-1,-1,-1,-1,-1,-1,-1,-1,-1,-1,-1,-1,-1,-1,-1,-1,-1,-1,-1,-1,-1,-1,-1,-1,-1,-1,-1,-1,-1,-1,-1],"split_conditions":[9.659256E-3,-7.037469E-1,9.0193456E-1,-6.8108076E-1,-2.4761523E-1,6.360902E-1,3.1700203E-1,-1.3397275E0,1.1172353E-1,-3.5924974E-1,-3.1891223E-2,4.941721E-1,-7.8089E-1,1.1172676E0,1.4393623E0,-9.759556E0,-7.2701387E0,-1.2506386E0,8.300272E-1,-9.408723E-1,1.0823946E0,8.831555E-1,-6.859161E-1,1.6794582E-1,-4.1951495E-1,8.835808E-1,1.4659139E0,-1.376906E0,1.2583557E0,7.5950785E0,1.6382741E0,-4.9312344E0,-6.183615E0,-5.183913E-1,-7.270898E-3,-6.397217E-1,-2.5107846E0,1.2194497E-1,-9.376755E-1,-2.2342658E-1,2.0106202E-1,-2.1276858E-1,-3.777499E-1,-3.5198336E0,-2.1727713E-2,-7.911802E-1,-1.919159E0,-1.1445951E0,5.6862795E-1,6.610098E-1,2.0471864E0,-2.99679E-1,2.860999E-1,6.9069986E0,4.7193605E-1,9.504057E0,4.337323E0,-1.3042908E0,-5.136663E0,-4.2198586E0,-1.6470541E0,-2.3015964E0,-1.393026E0,-7.882032E-1,-1.8163586E0,4.4072267E-1,-3.173767E-1,4.284668E-2,6.858602E-1,-6.433167E-1,-6.903972E-2,1.2329712E-1,-2.320224E0,9.9442005E-1,2.3791735E0,2.550604E0,9.764069E-1,5.389404E-1,3.5859077E0,2.4881408E0,4.062352E0,1.9614664E0,4.8879714E0,3.4769254E0,7.0198363E-1,5.738157E0,1.6170594E0],"split_indices":[7,7,6,28,23,6,28,22,28,6,24,6,28,6,6,0,0,26,22,24,4,11,12,26,20,6,22,11,14,0,3,0,0,25,26,0,0,26,0,23,3,3,13,12,11,20,12,11,0,6,0,4,28,0,0,0,0,0,0,0,0,0,0,0,0,0,0,0,0,0,0,0,0,0,0,0,0,0,0,0,0,0,0,0,0,0,0],"split_type":[0,0,0,0,0,0,0,0,0,0,0,0,0,0,0,0,0,0,0,0,0,0,0,0,0,0,0,0,0,0,0,0,0,0,0,0,0,0,0,0,0,0,0,0,0,0,0,0,0,0,0,0,0,0,0,0,0,0,0,0,0,0,0,0,0,0,0,0,0,0,0,0,0,0,0,0,0,0,0,0,0,0,0,0,0,0,0],"sum_hessian":[1.484E3,7.37E2,7.47E2,6.17E2,1.2E2,3.46E2,4.01E2,1.73E2,4.44E2,7.5E1,4.5E1,1.53E2,1.93E2,2.04E2,1.97E2,2.3E1,1.5E2,2.39E2,2.05E2,4.1E1,3.4E1,1.5E1,3E1,6.7E1,8.6E1,7.4E1,1.19E2,1.22E2,8.2E1,1.49E2,4.8E1,2.9E1,2.1E2,1.58E2,4.7E1,1E0,4E1,2.7E1,7E0,1.3E1,2E0,3E0,2.7E1,4E0,6.3E1,3.1E1,5.5E1,7.3E1,1E0,1.16E2,3E0,1.4E1,1.08E2,8.1E1,1E0,4.5E1,3E0,1E0,1.57E2,4.5E1,2E0,1.2E1,1.5E1,4E0,9E0,1E0,1E0,1E0,2E0,1.3E1,1.4E1,1E0,3E0,2.6E1,3.7E1,2.4E1,7E0,1E0,5.4E1,9E0,6.4E1,2E0,1.14E2,1.3E1,1E0,1.07E2,1E0],"tree_param":{"num_deleted":"0","num_feature":"30","num_nodes":"87","size_leaf_vector":"1"}},{"base_weights":[6.84431E-1,-4.899748E1,4.856002E1,-5.6654827E1,-1.8452644E1,3.451348E1,6.681803E1,-7.041754E1,-5.1506374E1,-3.0939886E1,-1.1756657E1,1.9143047E1,4.159853E1,5.8846428E1,7.8594536E1,-9.557415E0,-6.7398906E0,-5.579021E0,-4.6228344E1,-1.0562541E0,-3.1568888E1,-1.5194348E1,-5.605106E0,4.9038324E0,2.316469E1,3.8300682E1,4.810154E1,6.05099E1,4.718059E1,7.259893E0,9.121631E1,-4.6347313E1,-1.1633606E0,-3.1887617E0,-8.294312E-1,-1.5551456E1,3.1160888E-1,-9.032884E0,-7.5582886E-1,-1.0231842E1,6.8909345E0,1.5505235E1,2.6459923E1,3.874834E1,1.7666788E0,4.8559794E0,1.8167197E0,1.8503662E1,6.090453E0,4.9241642E1,-5.2644044E-1,9.3540855E1,3.3691204E0,-1.1883606E0,-4.6464915E0,-1.2807273E0,-1.9709262E0,-1.0825174E0,-1.1325195E-1,3.8972625E-1,-4.807929E-1,3.37854E-1,-1.5894817E0,1.2355652E-1,1.3321317E0,1.8642148E0,4.720242E-1,3.7828064E-1,2.7391062E0,3.8953674E0,1.2896241E0,2.3272095E0,4.4833985E-1,5.059085E0,6.406555E-1,3.7934368E0,9.576141E0],"categories":[],"categories_nodes":[],"categories_segments":[],"categories_sizes":[],"default_left":[0,0,0,0,0,0,0,0,0,0,0,0,0,0,0,0,0,0,0,0,0,0,0,0,0,0,0,0,0,0,0,0,0,0,0,0,0,0,0,0,0,0,0,0,0,0,0,0,0,0,0,0,0,0,0,0,0,0,0,0,0,0,0,0,0,0,0,0,0,0,0,0,0,0,0,0,0],"id":16,"left_children":[1,3,5,7,9,11,13,15,17,19,21,23,25,27,29,-1,-1,-1,31,-1,33,35,37,39,41,43,45,47,49,-1,51,53,-1,-1,-1,55,-1,57,59,61,63,65,67,69,-1,-1,-1,71,-1,73,-1,75,-1,-1,-1,-1,-1,-1,-1,-1,-1,-1,-1,-1,-1,-1,-1,-1,-1,-1,-1,-1,-1,-1,-1,-1,-1],"loss_changes":[3.470306E6,1.6642162E5,1.8824525E5,3.6903125E4,1.176034E4,4.5159688E4,2.5603625E4,5.1770625E3,6.91725E3,3.0742578E2,1.944958E3,7.6171836E3,4.3340625E3,9.48625E2,2.9885625E3,0E0,0E0,0E0,2.5928125E2,0E0,9.158984E1,4.4732812E2,5.9157324E2,1.002867E3,2.2399023E3,1.125875E3,3.9354688E2,1.658E3,3.3938906E3,0E0,1.7960938E3,2.300625E2,0E0,0E0,0E0,4.3216406E2,0E0,2.850951E2,3.2041443E2,3.6200223E2,1.0017942E3,1.0622773E3,1.4167031E3,5.1153125E2,0E0,0E0,0E0,9.6226074E1,0E0,1.2940938E3,0E0,6.89125E2,0E0,0E0,0E0,0E0,0E0,0E0,0E0,0E0,0E0,0E0,0E0,0E0,0E0,0E0,0E0,0E0,0E0,0E0,0E0,0E0,0E0,0E0,0E0,0E0,0E0],"parents":[2147483647,0,0,1,1,2,2,3,3,4,4,5,5,6,6,7,7,8,8,9,9,10,10,11,11,12,12,13,13,14,14,18,18,20,20,21,21,22,22,23,23,24,24,25,25,26,26,27,27,28,28,30,30,31,31,35,35,37,37,38,38,39,39,40,40,41,41,42,42,43,43,47,47,49,49,51,51],"right_children":[2,4,6,8,10,12,14,16,18,20,22,24,26,28,30,-1,-1,-1,32,-1,34,36,38,40,42,44,46,48,50,-1,52,54,-1,-1,-1,56,-1,58,60,62,64,66,68,70,-1,-1,-1,72,-1,74,-1,76,-1,-1,-1,-1,-1,-1,-1,-1,-1,-1,-1,-1,-1,-1,-1,-1,-1,-1,-1,-1,-1,-1,-1,-1,-1],"split_conditions":[-1.1594772E-2,-7.945758E-1,9.768833E-1,-1.2196541E0,-3.799716E-1,5.843089E-1,1.2968655E0,-1.8594732E0,-1.0033228E0,-7.278686E-1,-2.7226272E-1,-9.6238874E-2,8.613141E-1,1.0073209E0,1.4904437E0,-9.557415E0,-6.7398906E0,-5.579021E0,1.7799711E0,-1.0562541E0,-4.9063748E-1,1.4720982E0,1.3724242E-1,-1.0213112E0,-1.6411566E0,1.2269138E0,1.0776132E0,-2.5857108E0,1.319198E0,7.259893E0,2.5181127E0,-1.8723522E0,-1.1633606E0,-3.1887617E0,-8.294312E-1,-5.573012E-1,3.1160888E-1,-1.3431305E-1,-1.3198657E-1,3.1602997E-2,3.1602997E-2,2.0183621E-1,2.217109E-1,1.6830977E0,1.7666788E0,4.8559794E0,1.8167197E0,1.5408013E0,6.090453E0,4.469473E-1,-5.2644044E-1,-2.1918974E0,3.3691204E0,-1.1883606E0,-4.6464915E0,-1.2807273E0,-1.9709262E0,-1.0825174E0,-1.1325195E-1,3.8972625E-1,-4.807929E-1,3.37854E-1,-1.5894817E0,1.2355652E-1,1.3321317E0,1.8642148E0,4.720242E-1,3.7828064E-1,2.7391062E0,3.8953674E0,1.2896241E0,2.3272095E0,4.4833985E-1,5.059085E0,6.406555E-1,3.7934368E0,9.576141E0],"split_indices":[1,1,1,1,1,1,1,28,1,22,0,13,1,3,1,0,0,0,15,0,13,14,3,21,28,13,6,12,0,0,12,3,0,0,0,13,0,0,5,2,2,12,1,25,0,0,0,0,0,21,0,12,0,0,0,0,0,0,0,0,0,0,0,0,0,0,0,0,0,0,0,0,0,0,0,0,0],"split_type":[0,0,0,0,0,0,0,0,0,0,0,0,0,0,0,0,0,0,0,0,0,0,0,0,0,0,0,0,0,0,0,0,0,0,0,0,0,0,0,0,0,0,0,0,0,0,0,0,0,0,0,0,0,0,0,0,0,0,0,0,0,0,0,0,0,0,0,0,0,0,0,0,0,0,0,0,0],"sum_hessian":[1.457E3,7.15E2,7.42E2,5.71E2,1.44E2,4.21E2,3.21E2,1.52E2,4.19E2,4.9E1,9.5E1,1.34E2,2.87E2,1.95E2,1.26E2,1.3E1,1.39E2,2.26E2,1.93E2,2E0,4.7E1,6E1,3.5E1,3E1,1.04E2,1.95E2,9.2E1,1.67E2,2.8E1,9E1,3.6E1,1.92E2,1E0,4.6E1,1E0,5.9E1,1E0,2E1,1.5E1,3E0,2.7E1,3.3E1,7.1E1,1.9E2,5E0,9E1,2E0,2E0,1.65E2,2.7E1,1E0,3.4E1,2E0,1E0,1.91E2,3.8E1,2.1E1,1.6E1,4E0,7E0,8E0,1E0,2E0,1.5E1,1.2E1,2.5E1,8E0,3E0,6.8E1,1.88E2,2E0,1E0,1E0,2.6E1,1E0,2E0,3.2E1],"tree_param":{"num_deleted":"0","num_feature":"30","num_nodes":"77","size_leaf_vector":"1"}},{"base_weights":[4.3084365E-1,-4.5159767E1,4.318655E1,-5.0458572E1,-1.7351528E1,2.589686E1,5.4504555E1,-6.2721874E1,-4.5157707E1,-2.5306742E1,-1.2771323E1,3.8210082E0,2.9168377E1,4.4655487E1,6.2300404E1,-8.126884E0,-5.942415E0,-4.999681E0,-4.0721897E1,-7.187704E-1,-2.6051622E1,-1.4930671E1,-6.8905916E0,-3.8340425E0,1.1667761E1,2.2827454E1,3.4530987E1,2.8811607E1,4.630717E1,5.9085403E1,7.615572E1,-4.1692337E1,-2.873882E1,-2.640654E0,-6.28241E-1,-4.589526E0,-1.5666172E1,4.3633118E-1,-8.897172E0,-1.9506983E0,1.0011777E0,1.3317678E1,-9.840332E-1,1.3765101E1,2.4774145E1,2.0487953E1,3.5687458E1,5.841105E-1,3.08166E1,4.384661E1,5.5204845E1,5.951219E1,9.942017E0,7.8401628E0,3.4096284E0,-4.354103E0,-3.7040672E0,2.8688964E-1,-3.0553377E0,-7.6911926E-1,3.9085695E-1,-1.6090056E0,-3.6619875E-1,-1.4002289E0,-4.7523293E-1,-7.765381E-1,2.0344238E-1,1.5407784E0,1.6278382E-1,1.6584338E0,4.5491943E-1,1.9408001E0,2.8811753E0,6.3711673E-1,2.6054173E0,1.611969E0,3.635184E0,3.1992123E0,4.2408448E-1,5.155722E0,4.0442057E0,2.963452E0,5.7475057E0,5.7297926E0,7.4735103E0,-5.297241E-1,2.0210266E0],"categories":[],"categories_nodes":[],"categories_segments":[],"categories_sizes":[],"default_left":[0,0,0,0,0,0,0,0,0,0,0,0,0,0,0,0,0,0,0,0,0,0,0,0,0,0,0,0,0,0,0,0,0,0,0,0,0,0,0,0,0,0,0,0,0,0,0,0,0,0,0,0,0,0,0,0,0,0,0,0,0,0,0,0,0,0,0,0,0,0,0,0,0,0,0,0,0,0,0,0,0,0,0,0,0,0,0],"id":17,"left_children":[1,3,5,7,9,11,13,15,17,19,21,23,25,27,29,-1,-1,-1,31,-1,33,35,37,39,41,43,45,47,49,51,53,55,57,-1,-1,59,61,-1,63,-1,65,67,-1,69,71,73,75,-1,77,79,81,83,85,-1,-1,-1,-1,-1,-1,-1,-1,-1,-1,-1,-1,-1,-1,-1,-1,-1,-1,-1,-1,-1,-1,-1,-1,-1,-1,-1,-1,-1,-1,-1,-1,-1,-1],"loss_changes":[2.8556652E6,1.03596E5,1.4652625E5,3.584625E4,3.867E3,2.1627219E4,3.2230375E4,5.9965E3,6.9579375E3,3.6610547E2,8.495088E2,2.4474263E3,8.1207656E3,4.0304688E3,6.725625E3,0E0,0E0,0E0,1.4066875E3,0E0,1.0774219E2,3.3881934E2,5.3562195E2,1.6109542E3,8.40782E2,1.8288984E3,1.5425E3,8.332246E2,1.6077812E3,3.7918125E3,1.4830938E3,1.50125E2,1.2347344E3,0E0,0E0,1.6185284E2,1.9549707E2,0E0,3.3549475E2,0E0,1.697843E2,4.391455E2,0E0,5.4811865E2,1.607457E3,8.555073E2,1.0780781E3,0E0,4.8913086E2,1.8263438E3,3.865547E2,2.6953125E3,5.765001E2,0E0,0E0,0E0,0E0,0E0,0E0,0E0,0E0,0E0,0E0,0E0,0E0,0E0,0E0,0E0,0E0,0E0,0E0,0E0,0E0,0E0,0E0,0E0,0E0,0E0,0E0,0E0,0E0,0E0,0E0,0E0,0E0,0E0,0E0],"parents":[2147483647,0,0,1,1,2,2,3,3,4,4,5,5,6,6,7,7,8,8,9,9,10,10,11,11,12,12,13,13,14,14,18,18,20,20,21,21,22,22,23,23,24,24,25,25,26,26,27,27,28,28,29,29,30,30,31,31,32,32,35,35,36,36,38,38,40,40,41,41,43,43,44,44,45,45,46,46,48,48,49,49,50,50,51,51,52,52],"right_children":[2,4,6,8,10,12,14,16,18,20,22,24,26,28,30,-1,-1,-1,32,-1,34,36,38,40,42,44,46,48,50,52,54,56,58,-1,-1,60,62,-1,64,-1,66,68,-1,70,72,74,76,-1,78,80,82,84,86,-1,-1,-1,-1,-1,-1,-1,-1,-1,-1,-1,-1,-1,-1,-1,-1,-1,-1,-1,-1,-1,-1,-1,-1,-1,-1,-1,-1,-1,-1,-1,-1,-1,-1],"split_conditions":[-8.305818E-2,-8.1484467E-1,8.365335E-1,-6.3766813E-1,-4.162314E-1,-9.6238874E-2,1.1233165E0,-1.5586773E0,-1.0018909E0,-9.408723E-1,-2.4497515E-1,1.6794582E-1,6.360902E-1,-1.376906E0,1.4393623E0,-8.126884E0,-5.942415E0,-4.999681E0,1.3316684E0,-7.187704E-1,1.5412625E0,-2.9318544E-1,-1.3198657E-1,-8.619629E-1,1.5747858E0,-3.6646086E-1,-1.3978586E-1,8.6527884E-1,8.691943E-1,2.882819E0,1.6382741E0,2.1515024E-1,1.0246788E0,-2.640654E0,-6.28241E-1,-3.2674542E-1,1.1684629E0,4.3633118E-1,-2.5772572E-1,-1.9506983E0,-9.534656E-1,3.01485E0,-9.840332E-1,2.0183621E-1,-1.1250516E-1,-2.1570836E-1,-1.9570154E0,5.841105E-1,2.7299954E-2,-9.991118E-1,8.215742E-1,1.2704868E0,1.7953944E0,7.8401628E0,3.4096284E0,-4.354103E0,-3.7040672E0,2.8688964E-1,-3.0553377E0,-7.6911926E-1,3.9085695E-1,-1.6090056E0,-3.6619875E-1,-1.4002289E0,-4.7523293E-1,-7.765381E-1,2.0344238E-1,1.5407784E0,1.6278382E-1,1.6584338E0,4.5491943E-1,1.9408001E0,2.8811753E0,6.3711673E-1,2.6054173E0,1.611969E0,3.635184E0,3.1992123E0,4.2408448E-1,5.155722E0,4.0442057E0,2.963452E0,5.7475057E0,5.7297926E0,7.4735103E0,-5.297241E-1,2.0210266E0],"split_indices":[2,2,6,28,0,13,6,0,23,24,0,26,6,11,6,0,0,0,24,0,11,19,5,5,25,0,16,6,15,12,3,12,15,0,0,2,11,0,19,0,27,16,0,12,5,27,22,0,15,29,2,5,0,0,0,0,0,0,0,0,0,0,0,0,0,0,0,0,0,0,0,0,0,0,0,0,0,0,0,0,0,0,0,0,0,0,0],"split_type":[0,0,0,0,0,0,0,0,0,0,0,0,0,0,0,0,0,0,0,0,0,0,0,0,0,0,0,0,0,0,0,0,0,0,0,0,0,0,0,0,0,0,0,0,0,0,0,0,0,0,0,0,0,0,0,0,0,0,0,0,0,0,0,0,0,0,0,0,0,0,0,0,0,0,0,0,0,0,0,0,0,0,0,0,0,0,0],"sum_hessian":[1.463E3,7.08E2,7.55E2,5.94E2,1.14E2,3E2,4.55E2,1.76E2,4.18E2,4E1,7.4E1,3.9E1,2.61E2,2.04E2,2.51E2,2.3E1,1.53E2,1.95E2,2.23E2,2E0,3.8E1,5.3E1,2.1E1,2E1,1.9E1,1.22E2,1.39E2,2.1E1,1.83E2,2.08E2,4.3E1,2.04E2,1.9E1,3.7E1,1E0,4E0,4.9E1,3E0,1.8E1,4E0,1.6E1,1.8E1,1E0,2.3E1,9.9E1,1.2E1,1.27E2,2E0,1.9E1,1.48E2,3.5E1,2.06E2,2E0,4E1,3E0,1.4E2,6.4E1,1E0,1.8E1,3E0,1E0,4.7E1,2E0,7E0,1.1E1,1E0,1.5E1,1.5E1,3E0,1.7E1,6E0,4.5E1,5.4E1,4E0,8E0,5E0,1.22E2,1.8E1,1E0,4.1E1,1.07E2,4E0,3.1E1,1.84E2,2.2E1,1E0,1E0],"tree_param":{"num_deleted":"0","num_feature":"30","num_nodes":"87","size_leaf_vector":"1"}},{"base_weights":[-1.9211984E-1,-3.9663166E1,3.9385147E1,-4.5556248E1,-1.0535078E1,2.7108927E1,5.09798E1,-5.383478E1,-3.9718464E1,-1.7520882E1,-6.211908E0,2.055944E1,3.5239277E1,4.460555E1,5.866648E1,-6.324131E0,-4.983968E0,-4.2200153E1,-3.4793472E1,-1.8465158E1,-1.0491348E1,-1.872338E0,-8.778203E0,6.8921933E0,2.242977E1,3.5934196E1,1.9510172E1,4.1355515E1,5.363669E1,5.333529E1,6.687446E1,-4.5741684E1,-3.934376E1,-3.633455E1,-2.5137718E1,-1.8736725E1,-3.8012695E-1,-1.1481881E0,-1.7788087E-1,-2.6256776E0,6.034058E-1,5.7701415E-1,-9.192866E0,-8.299296E0,1.0904419E1,1.2410004E1,2.4444653E1,3.63432E1,1.6559032E0,1.43219E-1,2.1590898E0,4.1676888E1,-5.0323486E-1,4.275757E1,5.9978073E1,5.40356E1,2.1618317E1,5.2267654E1,7.3966675E1,-4.6098084E0,-1.8733155E0,-3.9701855E0,-1.7243073E0,-8.0044556E-1,-3.6522748E0,-9.7907716E-1,-2.6237884E0,-1.9010485E0,-4.0300295E-1,-1.7285937E-1,-6.585962E-1,-7.1405643E-1,-1.3813581E0,3.0142415E-1,-1.4709625E0,2.117802E0,8.708355E-1,9.011411E-1,1.8985767E0,1.354231E0,2.5945444E0,2.7322242E0,3.7149112E0,4.2057695E0,7.728882E-1,1.735205E0,4.4350853E0,6.1219735E0,1.1364136E0,9.348938E-1,5.4375386E0,6.0382694E-1,2.479891E0,5.3252935E0,1.4803101E0,7.486773E0,1.941272E0],"categories":[],"categories_nodes":[],"categories_segments":[],"categories_sizes":[],"default_left":[0,0,0,0,0,0,0,0,0,0,0,0,0,0,0,0,0,0,0,0,0,0,0,0,0,0,0,0,0,0,0,0,0,0,0,0,0,0,0,0,0,0,0,0,0,0,0,0,0,0,0,0,0,0,0,0,0,0,0,0,0,0,0,0,0,0,0,0,0,0,0,0,0,0,0,0,0,0,0,0,0,0,0,0,0,0,0,0,0,0,0,0,0,0,0,0,0],"id":18,"left_children":[1,3,5,7,9,11,13,15,17,19,21,23,25,27,29,-1,-1,31,33,35,37,39,41,43,45,47,49,51,53,55,57,59,61,63,65,67,-1,-1,-1,69,-1,-1,71,73,75,77,79,81,-1,-1,-1,83,-1,85,87,89,91,93,95,-1,-1,-1,-1,-1,-1,-1,-1,-1,-1,-1,-1,-1,-1,-1,-1,-1,-1,-1,-1,-1,-1,-1,-1,-1,-1,-1,-1,-1,-1,-1,-1,-1,-1,-1,-1,-1,-1],"loss_changes":[2.330737E6,1.2774575E5,1.04660125E5,2.7873625E4,3.726664E3,1.8658375E4,1.60999375E4,6.3934375E3,3.0295E3,1.248916E2,8.7449365E2,5.060117E3,1.0587344E3,4.03375E3,3.872125E3,0E0,0E0,6.2821875E2,1.0061875E3,9.2046875E1,4.8616333E1,2.0048575E2,3.54677E2,1.6752428E3,3.310414E3,6.106406E2,3.0761548E2,2.6099062E3,1.0918906E3,1.2307188E3,2.660375E3,1.08671875E2,4.2340625E2,2.8879688E2,9.7677734E1,8.443164E1,0E0,0E0,0E0,9.164406E1,0E0,0E0,3.6603516E2,4.7947937E2,2.8936548E2,5.440581E2,2.0702344E3,6.825E1,0E0,0E0,0E0,1.7433438E3,0E0,1.6142188E2,1.1755078E3,1.0859688E3,4.8472534E1,9.760156E1,5.12875E2,0E0,0E0,0E0,0E0,0E0,0E0,0E0,0E0,0E0,0E0,0E0,0E0,0E0,0E0,0E0,0E0,0E0,0E0,0E0,0E0,0E0,0E0,0E0,0E0,0E0,0E0,0E0,0E0,0E0,0E0,0E0,0E0,0E0,0E0,0E0,0E0,0E0,0E0],"parents":[2147483647,0,0,1,1,2,2,3,3,4,4,5,5,6,6,7,7,8,8,9,9,10,10,11,11,12,12,13,13,14,14,17,17,18,18,19,19,20,20,21,21,22,22,23,23,24,24,25,25,26,26,27,27,28,28,29,29,30,30,31,31,32,32,33,33,34,34,35,35,39,39,42,42,43,43,44,44,45,45,46,46,47,47,51,51,53,53,54,54,55,55,56,56,57,57,58,58],"right_children":[2,4,6,8,10,12,14,16,18,20,22,24,26,28,30,-1,-1,32,34,36,38,40,42,44,46,48,50,52,54,56,58,60,62,64,66,68,-1,-1,-1,70,-1,-1,72,74,76,78,80,82,-1,-1,-1,84,-1,86,88,90,92,94,96,-1,-1,-1,-1,-1,-1,-1,-1,-1,-1,-1,-1,-1,-1,-1,-1,-1,-1,-1,-1,-1,-1,-1,-1,-1,-1,-1,-1,-1,-1,-1,-1,-1,-1,-1,-1,-1,-1],"split_conditions":[1.1699026E-2,-5.86299E-1,9.116543E-1,-1.0960349E0,-3.3564273E-1,7.394396E-1,1.2555666E0,-1.3041815E0,-7.6887774E-1,-9.061996E-3,-6.564821E-1,-9.6238874E-2,1.0763443E0,8.809933E-1,1.7048886E-2,-6.324131E0,-4.983968E0,-2.4939328E-1,1.1333252E0,1.0496684E0,4.633513E-1,-4.5481093E-2,-2.1637485E0,1.6794582E-1,-2.9450053E-1,1.2245263E0,1.0953196E0,1.9040041E0,-2.853438E-1,1.6880014E0,1.1619915E0,-8.326721E-1,-8.578E-1,-1.8779848E0,1.1615995E0,1.1691198E0,-3.8012695E-1,-1.1481881E0,-1.7788087E-1,6.676761E-1,6.034058E-1,5.7701415E-1,8.5445374E-2,-1.1537565E-1,-2.7779965E0,2.5602904E-1,-9.770287E-1,-1.5687972E-1,1.6559032E0,1.43219E-1,2.1590898E0,9.7319996E-1,-5.0323486E-1,-1.1817099E-1,8.1715196E-1,-2.7771308E0,1.380722E0,1.3923622E0,2.5181127E0,-4.6098084E0,-1.8733155E0,-3.9701855E0,-1.7243073E0,-8.0044556E-1,-3.6522748E0,-9.7907716E-1,-2.6237884E0,-1.9010485E0,-4.0300295E-1,-1.7285937E-1,-6.585962E-1,-7.1405643E-1,-1.3813581E0,3.0142415E-1,-1.4709625E0,2.117802E0,8.708355E-1,9.011411E-1,1.8985767E0,1.354231E0,2.5945444E0,2.7322242E0,3.7149112E0,4.2057695E0,7.728882E-1,1.735205E0,4.4350853E0,6.1219735E0,1.1364136E0,9.348938E-1,5.4375386E0,6.0382694E-1,2.479891E0,5.3252935E0,1.4803101E0,7.486773E0,1.941272E0],"split_indices":[2,2,6,6,0,6,6,6,0,16,16,13,3,20,9,0,0,9,9,8,3,19,9,26,0,13,3,12,26,0,0,6,7,12,9,14,0,0,0,21,0,0,16,19,14,9,12,16,0,0,0,15,0,8,3,12,2,4,12,0,0,0,0,0,0,0,0,0,0,0,0,0,0,0,0,0,0,0,0,0,0,0,0,0,0,0,0,0,0,0,0,0,0,0,0,0,0],"split_type":[0,0,0,0,0,0,0,0,0,0,0,0,0,0,0,0,0,0,0,0,0,0,0,0,0,0,0,0,0,0,0,0,0,0,0,0,0,0,0,0,0,0,0,0,0,0,0,0,0,0,0,0,0,0,0,0,0,0,0,0,0,0,0,0,0,0,0,0,0,0,0,0,0,0,0,0,0,0,0,0,0,0,0,0,0,0,0,0,0,0,0,0,0,0,0,0,0],"sum_hessian":[1.49E3,7.46E2,7.44E2,6.2E2,1.26E2,3.63E2,3.81E2,2.53E2,3.67E2,4.7E1,7.9E1,2.03E2,1.6E2,2.12E2,1.69E2,7.1E1,1.82E2,2.39E2,1.28E2,4E1,7E0,3E1,4.9E1,2.5E1,1.78E2,1.52E2,8E0,1.6E2,5.2E1,1.07E2,6.2E1,1E2,1.39E2,1.08E2,2E1,3.9E1,1E0,6E0,1E0,2.8E1,2E0,1E0,4.8E1,5E0,2E1,3.1E1,1.47E2,1.48E2,4E0,1E0,7E0,1.59E2,1E0,2.2E1,3E1,1.04E2,3E0,2.3E1,3.9E1,9.8E1,2E0,1.36E2,3E0,1E0,1.07E2,2E0,1.8E1,3.8E1,1E0,2.4E1,4E0,3.5E1,1.3E1,2E0,3E0,2E0,1.8E1,2.2E1,9E0,1.9E1,1.28E2,1.5E1,1.33E2,1.57E2,2E0,2E0,2E1,2.9E1,1E0,1E0,1.03E2,1E0,2E0,2.2E1,1E0,3.8E1,1E0],"tree_param":{"num_deleted":"0","num_feature":"30","num_nodes":"97","size_leaf_vector":"1"}},{"base_weights":[5.044725E-1,-3.623823E1,3.5460075E1,-4.1433575E1,-1.2624008E1,2.5708414E1,5.0359432E1,-4.8645416E1,-3.596135E1,-1.6250238E1,-6.912266E0,1.736742E1,3.1681494E1,4.740417E1,6.838352E1,-6.088128E0,-4.6131024E0,-3.932634E0,-3.250572E1,1.5592041E0,-1.6964361E1,-1.5043928E1,-5.554098E0,8.047426E0,2.1158667E1,2.9312098E1,3.530899E1,4.349524E1,5.150127E1,1.6538413E0,7.067699E1,-3.508608E1,-2.871675E1,3.1572673E-1,-1.6174927E-1,-2.2243042E0,-1.4448471E1,-1.6786988E0,-2.2927856E-1,-1.1644926E0,-8.762528E0,5.246325E-1,1.1419568E1,-3.1278482E-1,2.1476725E1,2.9568106E1,5.37557E-1,3.621311E1,1.0707251E1,2.6428482E1,4.419478E1,5.169446E0,1.4062928E0,7.245664E1,2.5762126E0,-7.286255E-1,-3.5295403E0,-2.9849973E0,-2.0185394E0,-1.5464345E0,-7.537964E-1,-2.6093206E-1,5.628357E-1,-1.1929092E0,-3.8102314E-1,2.825447E-1,-8.809784E-1,1.3622922E0,-6.728491E-1,5.1080324E-2,-9.7998045E-2,2.167552E0,-2.680359E-1,8.037068E-1,2.9781673E0,1.2758881E0,3.6825922E0,1.4949464E0,2.8959554E-1,2.9916017E0,1.0078736E-1,4.4380913E0,9.8125E-1,1.7435426E0,7.3530526E0],"categories":[],"categories_nodes":[],"categories_segments":[],"categories_sizes":[],"default_left":[0,0,0,0,0,0,0,0,0,0,0,0,0,0,0,0,0,0,0,0,0,0,0,0,0,0,0,0,0,0,0,0,0,0,0,0,0,0,0,0,0,0,0,0,0,0,0,0,0,0,0,0,0,0,0,0,0,0,0,0,0,0,0,0,0,0,0,0,0,0,0,0,0,0,0,0,0,0,0,0,0,0,0,0,0],"id":19,"left_children":[1,3,5,7,9,11,13,15,17,19,21,23,25,27,29,-1,-1,-1,31,33,35,37,39,41,43,45,47,49,51,-1,53,55,57,-1,-1,-1,59,-1,-1,61,63,65,67,69,71,73,-1,75,77,79,81,-1,-1,83,-1,-1,-1,-1,-1,-1,-1,-1,-1,-1,-1,-1,-1,-1,-1,-1,-1,-1,-1,-1,-1,-1,-1,-1,-1,-1,-1,-1,-1,-1,-1],"loss_changes":[1.9072801E6,8.830019E4,1.09273625E5,2.165325E4,2.62167E3,2.2467281E4,1.2738125E4,4.97525E3,2.6869062E3,1.0439023E3,5.017854E2,6.7199336E3,1.2684688E3,1.9399375E3,3.5873281E3,0E0,0E0,0E0,6.93625E2,2.5413103E1,7.0122656E2,1.1709302E2,6.5173193E2,1.4653484E3,9.491406E2,8.705469E2,1.8587969E3,5.034375E2,1.55375E2,0E0,1.1708125E3,3.1891406E2,1.3223047E2,0E0,0E0,0E0,2.6954102E2,0E0,0E0,2.2079068E2,3.7795508E2,4.3295E2,1.691125E3,2.1490602E0,7.1121094E2,5.2396875E2,0E0,9.243125E2,1.2239282E2,6.7909033E2,4.1565625E2,0E0,0E0,8.450625E2,0E0,0E0,0E0,0E0,0E0,0E0,0E0,0E0,0E0,0E0,0E0,0E0,0E0,0E0,0E0,0E0,0E0,0E0,0E0,0E0,0E0,0E0,0E0,0E0,0E0,0E0,0E0,0E0,0E0,0E0,0E0],"parents":[2147483647,0,0,1,1,2,2,3,3,4,4,5,5,6,6,7,7,8,8,9,9,10,10,11,11,12,12,13,13,14,14,18,18,19,19,20,20,21,21,22,22,23,23,24,24,25,25,26,26,27,27,28,28,30,30,31,31,32,32,36,36,39,39,40,40,41,41,42,42,43,43,44,44,45,45,47,47,48,48,49,49,50,50,53,53],"right_children":[2,4,6,8,10,12,14,16,18,20,22,24,26,28,30,-1,-1,-1,32,34,36,38,40,42,44,46,48,50,52,-1,54,56,58,-1,-1,-1,60,-1,-1,62,64,66,68,70,72,74,-1,76,78,80,82,-1,-1,84,-1,-1,-1,-1,-1,-1,-1,-1,-1,-1,-1,-1,-1,-1,-1,-1,-1,-1,-1,-1,-1,-1,-1,-1,-1,-1,-1,-1,-1,-1,-1],"split_conditions":[-1.1594772E-2,-8.0089384E-1,1.0296117E0,-1.0921667E0,-3.0918232E-1,6.8687665E-1,1.4904437E0,-1.554632E0,-9.643181E-1,-2.3173447E0,-5.293277E-1,3.7231183E-1,8.829833E-1,1.2625558E0,-6.228558E-1,-6.088128E0,-4.6131024E0,-3.932634E0,1.6031122E-1,-3.4415814E-1,-8.918412E-1,2.9329467E-1,4.2945704E-1,3.1602997E-2,2.8214788E-1,2.091476E0,1.245569E0,-2.1225712E0,2.5181127E0,1.6538413E0,1.0999699E0,-1.8723522E0,1.1995238E0,3.1572673E-1,-1.6174927E-1,-2.2243042E0,1.2893561E0,-1.6786988E0,-2.2927856E-1,9.792785E-1,-5.3027165E-1,5.132428E-1,1.2934937E0,1.953974E-1,6.1728954E0,-2.2732804E0,5.37557E-1,-9.494789E-1,7.503446E-1,1.461436E0,2.0467212E0,5.169446E0,1.4062928E0,1.1104987E0,2.5762126E0,-7.286255E-1,-3.5295403E0,-2.9849973E0,-2.0185394E0,-1.5464345E0,-7.537964E-1,-2.6093206E-1,5.628357E-1,-1.1929092E0,-3.8102314E-1,2.825447E-1,-8.809784E-1,1.3622922E0,-6.728491E-1,5.1080324E-2,-9.7998045E-2,2.167552E0,-2.680359E-1,8.037068E-1,2.9781673E0,1.2758881E0,3.6825922E0,1.4949464E0,2.8959554E-1,2.9916017E0,1.0078736E-1,4.4380913E0,9.8125E-1,1.7435426E0,7.3530526E0],"split_indices":[1,2,1,1,0,1,1,28,1,21,20,1,1,1,26,0,0,0,12,0,13,12,20,2,6,12,22,12,12,0,13,3,24,0,0,0,28,0,0,8,13,21,29,0,19,4,0,27,2,0,17,0,0,0,0,0,0,0,0,0,0,0,0,0,0,0,0,0,0,0,0,0,0,0,0,0,0,0,0,0,0,0,0,0,0],"split_type":[0,0,0,0,0,0,0,0,0,0,0,0,0,0,0,0,0,0,0,0,0,0,0,0,0,0,0,0,0,0,0,0,0,0,0,0,0,0,0,0,0,0,0,0,0,0,0,0,0,0,0,0,0,0,0,0,0,0,0,0,0,0,0,0,0,0,0,0,0,0,0,0,0,0,0,0,0,0,0,0,0,0,0,0,0],"sum_hessian":[1.483E3,7.23E2,7.6E2,5.92E2,1.31E2,4.61E2,2.99E2,2.52E2,3.4E2,7.9E1,5.2E1,1.94E2,2.67E2,2.6E2,3.9E1,3.9E1,2.13E2,1.67E2,1.73E2,3E0,7.6E1,6E0,4.6E1,5.7E1,1.37E2,1.67E2,1E2,1.39E2,1.21E2,2E0,3.7E1,9.8E1,7.5E1,2E0,1E0,2.2E1,5.4E1,5E0,1E0,2E1,2.6E1,1.8E1,3.9E1,2E0,1.35E2,1.65E2,2E0,9.6E1,4E0,7E0,1.32E2,1.2E2,1E0,3.5E1,2E0,1E0,9.7E1,6.4E1,1.1E1,4.6E1,8E0,1.7E1,3E0,1.5E1,1.1E1,1.5E1,3E0,3.5E1,4E0,1E0,1E0,1.34E2,1E0,2E0,1.63E2,3E0,9.3E1,2E0,2E0,6E0,1E0,1.31E2,1E0,1E0,3.4E1],"tree_param":{"num_deleted":"0","num_feature":"30","num_nodes":"85","size_leaf_vector":"1"}},{"base_weights":[-2.6568648E-1,-3.231966E1,3.1788643E1,-3.673623E1,-9.356472E0,2.4489931E1,4.5803448E1,-4.5166145E1,-3.262327E1,-1.2947792E1,-4.273008E0,1.3919142E1,2.9512108E1,3.820825E1,4.9376293E1,-6.30475E0,-4.329904E0,-3.5815464E1,-2.9055763E1,-9.483692E0,-1.5395376E1,6.79637E-2,-9.340306E0,-1.0470261E1,1.5095739E1,2.7258085E1,3.621593E1,4.328502E0,3.1580448E1,4.49645E1,6.25905E1,-3.6282967E1,-2.5580387E1,-3.1314745E1,-2.4947247E1,-1.0134969E1,1.9030762E-1,-1.6426664E1,-6.813639E0,-1.3162231E0,5.593384E0,-1.0818761E1,7.5665283E-1,-1.3316615E1,4.7271118E-1,9.811186E0,1.874463E1,2.7455511E1,-1.1345215E0,2.5351126E1,3.8917763E1,3.947792E1,2.550583E1,1.6044617E1,4.551696E1,1.656366E0,6.3345966E1,-1.9958009E0,-3.650523E0,-5.687378E-1,-2.676419E0,-3.1527069E0,-1.1888183E0,-7.7795106E-1,-2.553023E0,-1.0843816E0,-1.4074707E-2,-6.9573976E-2,9.8120116E-2,-1.6730074E0,-3.0553588E-1,-1.741211E-1,-8.914551E-1,-1.9170532E-2,-5.55105E-1,1.2072754E-1,6.22915E-1,-3.2163087E-1,-1.1907152E0,-1.832072E-1,4.2614135E-1,2.8236085E-1,-1.6477255E0,1.378334E-1,1.2313474E0,1.0798444E0,2.1470544E0,2.689535E0,4.603288E0,2.9870336E0,6.723267E-1,1.8564454E-1,3.9485586E0,4.0866866E0,9.3218994E-1,2.9528964E0,2.7028808E-1,1.9229654E0,3.244751E-1,4.5746055E0,8.211182E-1,6.554452E0,3.528689E0],"categories":[],"categories_nodes":[],"categories_segments":[],"categories_sizes":[],"default_left":[0,0,0,0,0,0,0,0,0,0,0,0,0,0,0,0,0,0,0,0,0,0,0,0,0,0,0,0,0,0,0,0,0,0,0,0,0,0,0,0,0,0,0,0,0,0,0,0,0,0,0,0,0,0,0,0,0,0,0,0,0,0,0,0,0,0,0,0,0,0,0,0,0,0,0,0,0,0,0,0,0,0,0,0,0,0,0,0,0,0,0,0,0,0,0,0,0,0,0,0,0,0,0],"id":20,"left_children":[1,3,5,7,9,11,13,15,17,19,21,23,25,27,29,-1,-1,31,33,35,37,39,41,43,45,47,49,-1,51,53,55,57,59,61,63,65,67,69,71,73,75,77,79,81,-1,83,85,87,-1,89,91,93,95,97,99,-1,101,-1,-1,-1,-1,-1,-1,-1,-1,-1,-1,-1,-1,-1,-1,-1,-1,-1,-1,-1,-1,-1,-1,-1,-1,-1,-1,-1,-1,-1,-1,-1,-1,-1,-1,-1,-1,-1,-1,-1,-1,-1,-1,-1,-1,-1,-1],"loss_changes":[1.537093E6,7.551731E4,7.539119E4,2.0265875E4,2.1719492E3,2.5814844E4,5.03325E3,4.0475312E3,3.7993125E3,4.5598145E2,1.1444788E3,4.7781953E3,4.05975E3,1.52675E3,7.0964062E3,0E0,0E0,1.245625E2,1.1306875E3,2.0354321E2,2.4208301E2,2.2916034E2,3.6645557E2,4.090061E2,2.7856406E3,2.2472969E3,1.3911484E3,0E0,9.6001953E2,1.3626875E3,3.41625E2,2.615625E1,1.5392383E2,1.5728125E2,5.820469E2,2.1100464E2,2.7849681E0,9.087988E1,4.8418243E1,1.1322714E2,9.2109375E0,1.3546631E2,4.409866E1,4.0361926E2,0E0,1.3546211E3,1.7176094E3,1.3947031E3,0E0,1.3986553E3,1.2524766E3,2.8920117E2,2.3054082E3,1.0067676E2,7.1828125E2,0E0,9.3015625E1,0E0,0E0,0E0,0E0,0E0,0E0,0E0,0E0,0E0,0E0,0E0,0E0,0E0,0E0,0E0,0E0,0E0,0E0,0E0,0E0,0E0,0E0,0E0,0E0,0E0,0E0,0E0,0E0,0E0,0E0,0E0,0E0,0E0,0E0,0E0,0E0,0E0,0E0,0E0,0E0,0E0,0E0,0E0,0E0,0E0,0E0],"parents":[2147483647,0,0,1,1,2,2,3,3,4,4,5,5,6,6,7,7,8,8,9,9,10,10,11,11,12,12,13,13,14,14,17,17,18,18,19,19,20,20,21,21,22,22,23,23,24,24,25,25,26,26,28,28,29,29,30,30,31,31,32,32,33,33,34,34,35,35,36,36,37,37,38,38,39,39,40,40,41,41,42,42,43,43,45,45,46,46,47,47,49,49,50,50,51,51,52,52,53,53,54,54,56,56],"right_children":[2,4,6,8,10,12,14,16,18,20,22,24,26,28,30,-1,-1,32,34,36,38,40,42,44,46,48,50,-1,52,54,56,58,60,62,64,66,68,70,72,74,76,78,80,82,-1,84,86,88,-1,90,92,94,96,98,100,-1,102,-1,-1,-1,-1,-1,-1,-1,-1,-1,-1,-1,-1,-1,-1,-1,-1,-1,-1,-1,-1,-1,-1,-1,-1,-1,-1,-1,-1,-1,-1,-1,-1,-1,-1,-1,-1,-1,-1,-1,-1,-1,-1,-1,-1,-1,-1],"split_conditions":[1.1699026E-2,-5.86299E-1,1.1172676E0,-5.458169E-1,-2.4275552E-1,6.4555144E-1,-6.228558E-1,-1.4273323E0,-9.837411E-1,-1.6026679E-1,1.4572066E-1,-2.719888E0,-1.5169789E-1,-1.6099681E-1,1.0746605E0,-6.30475E0,-4.329904E0,1.2368207E0,9.277963E-2,-2.4850702E-1,-4.9063748E-1,1.18223384E-1,6.3348836E-1,-8.619629E-1,5.1020365E-2,1.1092023E0,-2.3064376E-1,4.328502E0,1.1720802E0,6.3523597E-1,-2.3172867E0,-1.2636591E0,4.213855E-1,1.2820225E0,-6.6246396E-1,1.0491099E-1,-1.9779742E-1,9.7673786E-1,-1.7166412E-1,6.676761E-1,1.0208813E-1,-2.5507304E-1,-3.3564273E-1,-1.3122802E0,4.7271118E-1,3.8828912E-1,-2.7279913E-1,1.2354996E0,-1.1345215E0,9.840502E-1,-1.0553192E0,2.0467212E0,7.593133E-1,5.1716256E-1,2.0467212E0,1.656366E0,2.6215858E0,-1.9958009E0,-3.650523E0,-5.687378E-1,-2.676419E0,-3.1527069E0,-1.1888183E0,-7.7795106E-1,-2.553023E0,-1.0843816E0,-1.4074707E-2,-6.9573976E-2,9.8120116E-2,-1.6730074E0,-3.0553588E-1,-1.741211E-1,-8.914551E-1,-1.9170532E-2,-5.55105E-1,1.2072754E-1,6.22915E-1,-3.2163087E-1,-1.1907152E0,-1.832072E-1,4.2614135E-1,2.8236085E-1,-1.6477255E0,1.378334E-1,1.2313474E0,1.0798444E0,2.1470544E0,2.689535E0,4.603288E0,2.9870336E0,6.723267E-1,1.8564454E-1,3.9485586E0,4.0866866E0,9.3218994E-1,2.9528964E0,2.7028808E-1,1.9229654E0,3.244751E-1,4.5746055E0,8.211182E-1,6.554452E0,3.528689E0],"split_indices":[2,2,6,28,2,6,26,6,6,3,26,9,28,15,28,0,0,9,9,6,13,26,11,5,9,6,9,0,2,0,14,9,5,24,5,19,0,14,14,21,3,6,0,17,0,6,19,13,0,13,27,17,20,0,17,0,5,0,0,0,0,0,0,0,0,0,0,0,0,0,0,0,0,0,0,0,0,0,0,0,0,0,0,0,0,0,0,0,0,0,0,0,0,0,0,0,0,0,0,0,0,0,0],"split_type":[0,0,0,0,0,0,0,0,0,0,0,0,0,0,0,0,0,0,0,0,0,0,0,0,0,0,0,0,0,0,0,0,0,0,0,0,0,0,0,0,0,0,0,0,0,0,0,0,0,0,0,0,0,0,0,0,0,0,0,0,0,0,0,0,0,0,0,0,0,0,0,0,0,0,0,0,0,0,0,0,0,0,0,0,0,0,0,0,0,0,0,0,0,0,0,0,0,0,0,0,0,0,0],"sum_hessian":[1.494E3,7.47E2,7.47E2,6.26E2,1.21E2,4.93E2,2.54E2,2.02E2,4.24E2,7E1,5.1E1,1.6E2,3.33E2,8.5E1,1.69E2,1.6E1,1.86E2,2.19E2,2.05E2,3.1E1,3.9E1,2.8E1,2.3E1,7E0,1.53E2,2.53E2,8E1,4.5E1,4E1,1.3E2,3.9E1,2.07E2,1.2E1,1.28E2,7.7E1,2.9E1,2E0,3.4E1,5E0,2.3E1,5E0,2E1,3E0,6E0,1E0,6.4E1,8.9E1,2.52E2,1E0,1.8E1,6.2E1,1.5E1,2.5E1,3E0,1.27E2,1E0,3.8E1,4E0,2.03E2,1E0,1.1E1,1.26E2,2E0,3E0,7.4E1,2.7E1,2E0,1E0,1E0,3.3E1,1E0,2E0,3E0,1.9E1,4E0,1E0,4E0,3E0,1.7E1,2E0,1E0,1E0,5E0,1.5E1,4.9E1,2.4E1,6.5E1,2.47E2,5E0,1.4E1,4E0,1E0,6.1E1,1.4E1,1E0,2.1E1,4E0,2E0,1E0,1.26E2,1E0,3.4E1,4E0],"tree_param":{"num_deleted":"0","num_feature":"30","num_nodes":"103","size_leaf_vector":"1"}},{"base_weights":[-4.2134863E-1,-2.9132122E1,2.856306E1,-3.4137226E1,-1.4174831E1,2.108916E1,4.0520725E1,-4.4733814E1,-3.1423418E1,-2.15306E1,-8.878211E0,1.2984193E1,2.6494398E1,3.85731E1,5.5045906E1,-6.3743224E0,-4.1561713E0,-3.3905243E1,-2.8172585E1,-2.223496E1,-1.2588074E0,-1.02322235E1,-1.7834023E0,2.8477192E0,1.4940339E1,-5.722534E-1,2.6634398E1,3.6225254E1,4.4903893E1,1.4361491E0,5.7356503E1,-1.7868856E1,-3.4161674E1,-5.53125E-1,-2.8259E1,-3.2122192E-1,-2.2460825E1,-1.1762584E1,-6.0556912E0,-2.7739115E0,4.4239503E-1,4.978267E0,-9.226782E0,8.98814E0,1.7165173E1,2.6899332E1,7.16001E-1,6.1344606E-1,3.667761E1,4.542394E1,6.0704345E-1,3.4310772E0,6.0728085E1,1.0509094E0,-2.5646265E0,-9.923889E-1,-3.4220827E0,-2.9432788E0,-2.5068743E0,-1.4161514E0,-2.3158185E0,-1.0723901E0,-1.9133596E0,2.0742188E-1,-7.997681E-1,-8.829061E-1,-1.3779542E-1,1.0655314E-1,1.1523365E0,-1.2705038E0,-2.672933E-1,-9.0003663E-1,9.615788E-1,1.8302323E0,6.258494E-1,2.4449317E0,2.940762E0,3.0259788E0,3.857018E0,2.5283675E0,4.710039E0,2.5905519E0,6.271625E0],"categories":[],"categories_nodes":[],"categories_segments":[],"categories_sizes":[],"default_left":[0,0,0,0,0,0,0,0,0,0,0,0,0,0,0,0,0,0,0,0,0,0,0,0,0,0,0,0,0,0,0,0,0,0,0,0,0,0,0,0,0,0,0,0,0,0,0,0,0,0,0,0,0,0,0,0,0,0,0,0,0,0,0,0,0,0,0,0,0,0,0,0,0,0,0,0,0,0,0,0,0,0,0],"id":21,"left_children":[1,3,5,7,9,11,13,15,17,19,21,23,25,27,29,-1,-1,31,33,35,-1,37,39,41,43,-1,45,47,49,-1,51,53,55,-1,57,-1,59,61,63,65,-1,67,69,71,73,75,-1,-1,77,79,-1,-1,81,-1,-1,-1,-1,-1,-1,-1,-1,-1,-1,-1,-1,-1,-1,-1,-1,-1,-1,-1,-1,-1,-1,-1,-1,-1,-1,-1,-1,-1,-1],"loss_changes":[1.2307718E6,5.5139188E4,6.4922062E4,1.458325E4,7.133461E3,1.9589203E4,5.8543438E3,4.044E3,2.643125E3,2.1141016E2,1.0480684E3,3.6058828E3,1.3792188E3,2.1190312E3,2.0904375E3,0E0,0E0,4.0940625E2,2.3304688E2,2.3290625E2,0E0,5.231885E2,1.29092E2,8.434177E2,1.8850859E3,0E0,1.2056094E3,2.347625E3,1.0167578E3,0E0,1.6969531E2,1.5937604E3,8.78125E0,0E0,3.59375E0,0E0,7.717578E1,3.077754E2,4.4287036E2,1.3153038E2,0E0,6.791707E2,8.002011E1,5.8332544E2,1.2621328E3,9.218125E2,0E0,0E0,1.0920625E3,9.3628125E2,0E0,0E0,3.6898438E1,0E0,0E0,0E0,0E0,0E0,0E0,0E0,0E0,0E0,0E0,0E0,0E0,0E0,0E0,0E0,0E0,0E0,0E0,0E0,0E0,0E0,0E0,0E0,0E0,0E0,0E0,0E0,0E0,0E0,0E0],"parents":[2147483647,0,0,1,1,2,2,3,3,4,4,5,5,6,6,7,7,8,8,9,9,10,10,11,11,12,12,13,13,14,14,17,17,18,18,19,19,21,21,22,22,23,23,24,24,26,26,27,27,28,28,30,30,31,31,32,32,34,34,36,36,37,37,38,38,39,39,41,41,42,42,43,43,44,44,45,45,48,48,49,49,52,52],"right_children":[2,4,6,8,10,12,14,16,18,20,22,24,26,28,30,-1,-1,32,34,36,-1,38,40,42,44,-1,46,48,50,-1,52,54,56,-1,58,-1,60,62,64,66,-1,68,70,72,74,76,-1,-1,78,80,-1,-1,82,-1,-1,-1,-1,-1,-1,-1,-1,-1,-1,-1,-1,-1,-1,-1,-1,-1,-1,-1,-1,-1,-1,-1,-1,-1,-1,-1,-1,-1,-1],"split_conditions":[-1.1594772E-2,-8.5127723E-1,1.055976E0,-1.2485464E0,-5.363509E-1,6.764031E-1,1.5041678E0,-1.8594732E0,-1.024631E0,9.9938446E-1,-1.1416209E-1,-9.6238874E-2,-1.2850304E0,6.873478E-1,-6.228558E-1,-6.3743224E0,-4.1561713E0,-1.3178836E0,-1.0172197E0,-6.28492E-1,-1.2588074E0,1.3091522E0,3.1047014E-3,1.2934937E0,-1.5737581E0,-5.722534E-1,1.4659139E0,-1.3636516E0,1.3520092E0,1.4361491E0,-9.46678E-1,-1.1098633E0,-1.4092348E0,-5.53125E-1,3.1249696E-1,-3.2122192E-1,-3.9025077E-1,3.5902053E-1,4.896915E-1,-8.277239E-1,4.4239503E-1,4.908152E-2,2.5890946E-1,-4.4857013E-1,1.3975254E0,-4.5415494E-1,7.16001E-1,6.1344606E-1,-8.355969E-1,-1.7213745E0,6.0704345E-1,3.4310772E0,-2.927167E-1,1.0509094E0,-2.5646265E0,-9.923889E-1,-3.4220827E0,-2.9432788E0,-2.5068743E0,-1.4161514E0,-2.3158185E0,-1.0723901E0,-1.9133596E0,2.0742188E-1,-7.997681E-1,-8.829061E-1,-1.3779542E-1,1.0655314E-1,1.1523365E0,-1.2705038E0,-2.672933E-1,-9.0003663E-1,9.615788E-1,1.8302323E0,6.258494E-1,2.4449317E0,2.940762E0,3.0259788E0,3.857018E0,2.5283675E0,4.710039E0,2.5905519E0,6.271625E0],"split_indices":[1,1,1,1,1,1,1,28,1,5,1,13,10,10,26,0,0,13,29,5,0,28,16,29,28,0,22,29,18,0,5,1,10,0,9,0,20,19,29,14,0,6,1,16,29,28,0,0,26,21,0,0,19,0,0,0,0,0,0,0,0,0,0,0,0,0,0,0,0,0,0,0,0,0,0,0,0,0,0,0,0,0,0],"split_type":[0,0,0,0,0,0,0,0,0,0,0,0,0,0,0,0,0,0,0,0,0,0,0,0,0,0,0,0,0,0,0,0,0,0,0,0,0,0,0,0,0,0,0,0,0,0,0,0,0,0,0,0,0,0,0,0,0,0,0,0,0,0,0,0,0,0,0,0,0,0,0,0,0,0,0,0,0,0,0,0,0,0,0],"sum_hessian":[1.477E3,7.42E2,7.35E2,5.55E2,1.87E2,4.54E2,2.81E2,1.1E2,4.45E2,7.7E1,1.1E2,1.83E2,2.71E2,2.51E2,3E1,1.3E1,9.7E1,2.47E2,1.98E2,7E1,7E0,9.2E1,1.8E1,3E1,1.53E2,1E0,2.7E2,1.88E2,6.3E1,2E0,2.8E1,5E0,2.42E2,1E0,1.97E2,1E0,6.9E1,6.6E1,2.6E1,1.6E1,2E0,2.6E1,4E0,4.3E1,1.1E2,2.66E2,4E0,3E0,1.85E2,6.2E1,1E0,5E0,2.3E1,1E0,4E0,1E0,2.41E2,1.38E2,5.9E1,7E0,6.2E1,6E1,6E0,5E0,2.1E1,2E0,1.4E1,1.7E1,9E0,2E0,2E0,1E0,4.2E1,9.9E1,1.1E1,1.4E2,1.26E2,4.6E1,1.39E2,6E0,5.6E1,2E0,2.1E1],"tree_param":{"num_deleted":"0","num_feature":"30","num_nodes":"83","size_leaf_vector":"1"}},{"base_weights":[5.3024E-2,-2.6902037E1,2.6035038E1,-3.1310003E1,-1.2541266E1,1.8377548E1,3.722053E1,-4.067005E1,-2.8665302E1,-1.8762466E1,-7.7156534E0,1.0459634E1,2.2517614E1,3.4822536E1,5.3027023E1,-5.7263684E0,-3.8449743E0,-3.100353E0,-2.5913504E1,-2.0182491E1,-1.3919275E1,-9.323391E0,-1.3766451E0,5.872208E0,1.4912962E1,1.7750807E1,2.3885435E1,3.330997E1,4.1697075E1,1.5238322E0,5.470311E1,-5.2546996E-1,-2.5989014E1,-9.777344E0,-2.1027458E1,-1.6467285E-1,-1.4478528E1,-6.017522E0,-1.0769225E1,-2.40625E0,2.3993409E0,2.1419752E0,4.7423444E0,1.6629866E1,8.266072E0,1.8383858E1,-2.3042805E0,2.0506E1,2.6397902E1,3.4089333E1,2.1096382E1,1.7342529E0,4.24439E0,5.6226757E1,1.9200724E0,-1.5585275E0,-2.6225564E0,-1.4994507E0,8.154236E-1,-2.231357E0,-1.1486176E0,-3.051636E-1,-1.4943821E0,-8.6726296E-1,-9.020874E-2,4.4509888E-1,-1.1147517E0,2.1206325E-2,-4.7572023E-1,3.4002686E-1,-8.021851E-2,3.2391024E-1,1.523919E0,1.7487166E0,4.1534426E-3,-9.373128E-1,1.1056794E0,1.9255705E0,6.3107914E-1,7.9394534E-2,-4.2503664E-1,-3.7727866E-1,2.1039984E0,4.501587E-1,2.671734E0,2.2897832E0,3.5029066E0,2.3453743E0,-7.1320194E-1,2.7868683E0,5.80721E0],"categories":[],"categories_nodes":[],"categories_segments":[],"categories_sizes":[],"default_left":[0,0,0,0,0,0,0,0,0,0,0,0,0,0,0,0,0,0,0,0,0,0,0,0,0,0,0,0,0,0,0,0,0,0,0,0,0,0,0,0,0,0,0,0,0,0,0,0,0,0,0,0,0,0,0,0,0,0,0,0,0,0,0,0,0,0,0,0,0,0,0,0,0,0,0,0,0,0,0,0,0,0,0,0,0,0,0,0,0,0,0],"id":22,"left_children":[1,3,5,7,9,11,13,15,17,19,21,23,25,27,29,-1,-1,-1,31,33,35,37,39,41,43,45,47,49,51,-1,53,-1,55,57,59,-1,61,63,65,67,69,-1,71,73,75,77,79,81,83,85,87,-1,-1,89,-1,-1,-1,-1,-1,-1,-1,-1,-1,-1,-1,-1,-1,-1,-1,-1,-1,-1,-1,-1,-1,-1,-1,-1,-1,-1,-1,-1,-1,-1,-1,-1,-1,-1,-1,-1,-1],"loss_changes":[1.02880944E6,4.5247906E4,6.338428E4,1.24739375E4,4.9888457E3,1.4384656E4,9.638344E3,2.1825469E3,1.9826562E3,2.280039E2,9.8592773E2,3.0789727E3,1.4798906E3,1.377E3,1.5732188E3,0E0,0E0,0E0,1.8321875E2,2.779668E2,1.13427E2,3.0801562E2,8.741666E1,1.2686157E3,7.526758E2,9.1838086E2,1.3606094E3,1.4035312E3,6.4203125E1,0E0,8.677578E2,0E0,9.3328125E1,6.835806E2,3.5725977E2,0E0,5.5416992E1,3.453092E2,3.547749E2,1.0565283E2,1.8750126E1,0E0,1.1183066E3,8.667656E2,9.897062E2,5.8371484E2,2.1462795E1,1.3758203E3,7.540469E2,1.3854531E3,1.2319849E3,0E0,0E0,1.6084375E2,0E0,0E0,0E0,0E0,0E0,0E0,0E0,0E0,0E0,0E0,0E0,0E0,0E0,0E0,0E0,0E0,0E0,0E0,0E0,0E0,0E0,0E0,0E0,0E0,0E0,0E0,0E0,0E0,0E0,0E0,0E0,0E0,0E0,0E0,0E0,0E0,0E0],"parents":[2147483647,0,0,1,1,2,2,3,3,4,4,5,5,6,6,7,7,8,8,9,9,10,10,11,11,12,12,13,13,14,14,18,18,19,19,20,20,21,21,22,22,23,23,24,24,25,25,26,26,27,27,28,28,30,30,32,32,33,33,34,34,36,36,37,37,38,38,39,39,40,40,42,42,43,43,44,44,45,45,46,46,47,47,48,48,49,49,50,50,53,53],"right_children":[2,4,6,8,10,12,14,16,18,20,22,24,26,28,30,-1,-1,-1,32,34,36,38,40,42,44,46,48,50,52,-1,54,-1,56,58,60,-1,62,64,66,68,70,-1,72,74,76,78,80,82,84,86,88,-1,-1,90,-1,-1,-1,-1,-1,-1,-1,-1,-1,-1,-1,-1,-1,-1,-1,-1,-1,-1,-1,-1,-1,-1,-1,-1,-1,-1,-1,-1,-1,-1,-1,-1,-1,-1,-1,-1,-1],"split_conditions":[-1.1594772E-2,-8.368311E-1,1.0296117E0,-1.2485464E0,-5.3031427E-1,6.092286E-1,1.4904437E0,-1.6560092E0,-1.024631E0,-9.3104815E-1,-1.760783E-1,4.941721E-1,7.4750495E-1,1.0491099E-1,1.0746605E0,-5.7263684E0,-3.8449743E0,-3.100353E0,-1.0172197E0,-8.003451E-1,-4.345833E-1,-2.7945495E-1,1.2067301E0,-1.723754E0,1.475352E-1,7.959502E-1,-2.1582471E-1,-4.5481093E-2,-1.5503207E0,1.5238322E0,2.5181127E0,-5.2546996E-1,-1.3314555E0,-8.1996554E-1,2.1786156E0,-1.6467285E-1,-6.28492E-1,-2.7818918E-1,-9.534656E-1,8.367811E-1,-4.023722E-2,2.1419752E0,2.091476E0,2.3490076E0,-1.7760456E0,1.518105E0,6.798649E-2,-8.9412504E-1,-1.6927922E0,-1.4436355E0,2.882819E0,1.7342529E0,4.24439E0,-3.114139E-1,1.9200724E0,-1.5585275E0,-2.6225564E0,-1.4994507E0,8.154236E-1,-2.231357E0,-1.1486176E0,-3.051636E-1,-1.4943821E0,-8.6726296E-1,-9.020874E-2,4.4509888E-1,-1.1147517E0,2.1206325E-2,-4.7572023E-1,3.4002686E-1,-8.021851E-2,3.2391024E-1,1.523919E0,1.7487166E0,4.1534426E-3,-9.373128E-1,1.1056794E0,1.9255705E0,6.3107914E-1,7.9394534E-2,-4.2503664E-1,-3.7727866E-1,2.1039984E0,4.501587E-1,2.671734E0,2.2897832E0,3.5029066E0,2.3453743E0,-7.1320194E-1,2.7868683E0,5.80721E0],"split_indices":[1,1,1,1,2,1,1,0,1,13,0,6,6,19,28,0,0,0,29,0,20,19,5,29,24,2,9,19,4,0,12,0,20,0,15,0,5,2,27,17,0,0,12,26,12,28,0,10,21,26,12,0,0,20,0,0,0,0,0,0,0,0,0,0,0,0,0,0,0,0,0,0,0,0,0,0,0,0,0,0,0,0,0,0,0,0,0,0,0,0,0],"split_type":[0,0,0,0,0,0,0,0,0,0,0,0,0,0,0,0,0,0,0,0,0,0,0,0,0,0,0,0,0,0,0,0,0,0,0,0,0,0,0,0,0,0,0,0,0,0,0,0,0,0,0,0,0,0,0,0,0,0,0,0,0,0,0,0,0,0,0,0,0,0,0,0,0,0,0,0,0,0,0,0,0,0,0,0,0,0,0,0,0,0,0],"sum_hessian":[1.467E3,7.2E2,7.47E2,5.5E2,1.7E2,4.45E2,3.02E2,1.18E2,4.32E2,7.3E1,9.7E1,1.54E2,2.91E2,2.65E2,3.7E1,1.1E1,1.07E2,2.28E2,2.04E2,5.4E1,1.9E1,7.7E1,2E1,7.7E1,7.7E1,6.8E1,2.23E2,2.22E2,4.3E1,2E0,3.5E1,1E0,2.03E2,5E0,4.9E1,1E0,1.8E1,2.5E1,5.2E1,1.6E1,4E0,4E0,7.3E1,6E1,1.7E1,6.6E1,2E0,9.9E1,1.24E2,2.07E2,1.5E1,2E0,4.1E1,3.3E1,2E0,6E0,1.97E2,4E0,1E0,4.2E1,7E0,1E0,1.7E1,1.6E1,9E0,1E0,5.1E1,8E0,8E0,3E0,1E0,6.5E1,8E0,5.7E1,3E0,2E0,1.5E1,6.1E1,5E0,1E0,1E0,2E0,9.7E1,2E0,1.22E2,1.8E1,1.89E2,1.4E1,1E0,3E0,3E1],"tree_param":{"num_deleted":"0","num_feature":"30","num_nodes":"91","size_leaf_vector":"1"}},{"base_weights":[-1.2414756E-1,-2.3638914E1,2.3644316E1,-2.795824E1,-1.1702258E1,1.7387606E1,3.42675E1,-3.733152E1,-2.6043182E1,-1.71971E1,-6.6154003E0,1.0645277E1,2.0713987E1,3.1899103E1,4.813705E1,-4.8786464E0,-3.442875E1,-2.8060448E1,-2.3182882E1,-1.9448929E1,-1.3558313E1,-8.584395E0,-2.5483432E0,4.4598765E0,1.2793049E1,2.1595018E1,1.467973E1,2.9924473E1,4.1764008E1,1.3469441E1,4.9688877E1,-1.3199097E0,-3.482416E0,-7.8775024E-1,-2.810706E0,-4.9919435E-1,-2.3250568E1,-5.690918E-1,-2.0107876E1,7.746521E-1,-1.430322E1,-1.1392708E1,-5.9880185E0,2.8211892E0,-4.7220554E0,5.835972E0,-1.00720215E1,1.1836045E1,3.1671314E1,2.2773941E1,1.7069572E1,1.6460815E1,-6.801056E0,9.471362E0,3.0291687E1,2.4114868E1,4.4402073E1,1.8422364E0,1.7817993E-1,1.7166544E0,5.1097057E1,-2.4309938E0,-2.0585954E0,-7.923788E-1,-2.0424116E0,-9.5309985E-1,-1.7208633E0,-1.2447636E0,-2.9955813E-1,1.23598635E-1,-6.848933E-1,-6.4263046E-2,7.106299E-1,4.572754E-1,-5.276758E-1,7.457703E-1,-4.3264976E-1,-1.2073934E0,-2.0331421E-1,2.1499102E0,1.0677912E0,7.4082035E-1,3.588504E0,-5.247742E-1,2.2931616E0,2.1742816E-1,1.868434E0,7.5493014E-1,2.1505754E0,-1.39241535E-2,-1.339325E0,1.7583984E0,3.047211E-1,3.0650108E0,1.0398315E0,3.003008E0,6.217896E-1,4.647407E0,1.8797547E0,5.261056E0,1.7920694E0],"categories":[],"categories_nodes":[],"categories_segments":[],"categories_sizes":[],"default_left":[0,0,0,0,0,0,0,0,0,0,0,0,0,0,0,0,0,0,0,0,0,0,0,0,0,0,0,0,0,0,0,0,0,0,0,0,0,0,0,0,0,0,0,0,0,0,0,0,0,0,0,0,0,0,0,0,0,0,0,0,0,0,0,0,0,0,0,0,0,0,0,0,0,0,0,0,0,0,0,0,0,0,0,0,0,0,0,0,0,0,0,0,0,0,0,0,0,0,0,0,0],"id":23,"left_children":[1,3,5,7,9,11,13,15,17,19,21,23,25,27,29,-1,31,33,35,37,39,41,43,45,47,49,51,53,55,57,59,-1,-1,-1,-1,-1,61,-1,63,-1,65,67,69,71,73,75,77,79,81,83,85,87,89,91,93,95,97,-1,-1,-1,99,-1,-1,-1,-1,-1,-1,-1,-1,-1,-1,-1,-1,-1,-1,-1,-1,-1,-1,-1,-1,-1,-1,-1,-1,-1,-1,-1,-1,-1,-1,-1,-1,-1,-1,-1,-1,-1,-1,-1,-1],"loss_changes":[8.338935E5,3.834153E4,4.8722062E4,8.9005E3,5.5044805E3,1.0298031E4,7.465E3,1.3461875E3,2.0036562E3,5.229238E2,8.2697363E2,2.0286641E3,1.3470156E3,3.366875E3,1.3750469E3,0E0,1.7832031E2,2.7890625E1,1.25265625E2,4.0231836E2,7.45604E2,4.4947314E2,4.3350723E2,8.986657E2,1.7208555E3,1.0570859E3,1.7570928E3,1.22275E3,6.519492E2,1.4083899E2,7.715469E2,0E0,0E0,0E0,0E0,0E0,5E1,0E0,4.623047E1,0E0,3.7673047E2,2.5503809E2,2.5101587E2,1.6783804E2,1.5818146E2,6.750166E2,3.9824493E1,1.0238408E3,2.4534717E2,1.0570234E3,1.4025215E3,1.6359668E3,1.73799E2,2.0700146E2,1.0859219E3,5.5432715E2,7.7103125E2,0E0,0E0,0E0,7.6440625E2,0E0,0E0,0E0,0E0,0E0,0E0,0E0,0E0,0E0,0E0,0E0,0E0,0E0,0E0,0E0,0E0,0E0,0E0,0E0,0E0,0E0,0E0,0E0,0E0,0E0,0E0,0E0,0E0,0E0,0E0,0E0,0E0,0E0,0E0,0E0,0E0,0E0,0E0,0E0,0E0],"parents":[2147483647,0,0,1,1,2,2,3,3,4,4,5,5,6,6,7,7,8,8,9,9,10,10,11,11,12,12,13,13,14,14,16,16,17,17,18,18,19,19,20,20,21,21,22,22,23,23,24,24,25,25,26,26,27,27,28,28,29,29,30,30,36,36,38,38,40,40,41,41,42,42,43,43,44,44,45,45,46,46,47,47,48,48,49,49,50,50,51,51,52,52,53,53,54,54,55,55,56,56,60,60],"right_children":[2,4,6,8,10,12,14,16,18,20,22,24,26,28,30,-1,32,34,36,38,40,42,44,46,48,50,52,54,56,58,60,-1,-1,-1,-1,-1,62,-1,64,-1,66,68,70,72,74,76,78,80,82,84,86,88,90,92,94,96,98,-1,-1,-1,100,-1,-1,-1,-1,-1,-1,-1,-1,-1,-1,-1,-1,-1,-1,-1,-1,-1,-1,-1,-1,-1,-1,-1,-1,-1,-1,-1,-1,-1,-1,-1,-1,-1,-1,-1,-1,-1,-1,-1,-1],"split_conditions":[-1.1594772E-2,-8.577778E-1,1.055976E0,-1.2897176E0,-5.5365556E-1,6.280089E-1,1.4904437E0,-1.8743756E0,-1.024631E0,-1.862092E-1,-2.7226272E-1,3.217503E-1,9.800696E-1,1.0698477E0,-2.1918974E0,-4.8786464E0,-1.0218474E0,-1.4092348E0,-1.0172197E0,-1.0462501E0,-9.84042E-1,-3.6990267E-1,-1.3198657E-1,1.2660244E0,1.2017466E0,9.2584866E-1,1.091938E0,-1.3636516E0,-1.2862998E0,1.4910553E0,-2.3173447E0,-1.3199097E0,-3.482416E0,-7.8775024E-1,-2.810706E0,-4.9919435E-1,2.1515024E-1,-5.690918E-1,-4.4755012E-1,7.746521E-1,-1.8879263E-2,7.1421903E-1,-6.420481E-1,-8.553647E-1,-9.620947E-1,1.5769181E0,1.953974E-1,-6.5996945E-1,-1.6577469E0,-1.2850304E0,-6.458105E-1,9.0193456E-1,1.1308278E0,1.0642823E0,1.4699455E0,8.1715196E-1,1.4499947E0,1.8422364E0,1.7817993E-1,1.7166544E0,2.303558E0,-2.4309938E0,-2.0585954E0,-7.923788E-1,-2.0424116E0,-9.5309985E-1,-1.7208633E0,-1.2447636E0,-2.9955813E-1,1.23598635E-1,-6.848933E-1,-6.4263046E-2,7.106299E-1,4.572754E-1,-5.276758E-1,7.457703E-1,-4.3264976E-1,-1.2073934E0,-2.0331421E-1,2.1499102E0,1.0677912E0,7.4082035E-1,3.588504E0,-5.247742E-1,2.2931616E0,2.1742816E-1,1.868434E0,7.5493014E-1,2.1505754E0,-1.39241535E-2,-1.339325E0,1.7583984E0,3.047211E-1,3.0650108E0,1.0398315E0,3.003008E0,6.217896E-1,4.647407E0,1.8797547E0,5.261056E0,1.7920694E0],"split_indices":[1,1,1,1,7,1,1,29,1,26,0,1,3,10,12,0,13,10,29,7,16,24,5,29,8,5,29,29,11,0,21,0,0,0,0,0,12,0,5,0,10,12,8,16,16,5,0,10,3,10,10,6,0,1,13,3,1,0,0,0,12,0,0,0,0,0,0,0,0,0,0,0,0,0,0,0,0,0,0,0,0,0,0,0,0,0,0,0,0,0,0,0,0,0,0,0,0,0,0,0,0],"split_type":[0,0,0,0,0,0,0,0,0,0,0,0,0,0,0,0,0,0,0,0,0,0,0,0,0,0,0,0,0,0,0,0,0,0,0,0,0,0,0,0,0,0,0,0,0,0,0,0,0,0,0,0,0,0,0,0,0,0,0,0,0,0,0,0,0,0,0,0,0,0,0,0,0,0,0,0,0,0,0,0,0,0,0,0,0,0,0,0,0,0,0,0,0,0,0,0,0,0,0,0,0],"sum_hessian":[1.49E3,7.49E2,7.41E2,5.49E2,2E2,4.68E2,2.73E2,9E1,4.59E2,9.5E1,1.05E2,1.56E2,3.12E2,2.36E2,3.7E1,1.5E1,7.5E1,2.64E2,1.95E2,5.6E1,3.9E1,7E1,3.5E1,4.1E1,1.15E2,2.7E2,4.2E1,2E2,3.6E1,2E0,3.5E1,2E0,7.3E1,1E0,2.63E2,1E0,1.94E2,3E0,5.3E1,1E0,3.8E1,3.2E1,3.8E1,1E1,2.5E1,3.8E1,3E0,1.11E2,4E0,2.11E2,5.9E1,3.9E1,3E0,4E0,1.96E2,6E0,3E1,1E0,1E0,2E0,3.3E1,1.33E2,6.1E1,2E0,5.1E1,1.6E1,2.2E1,2.8E1,4E0,4E0,3.4E1,6E0,4E0,1E0,2.4E1,3.3E1,5E0,2E0,1E0,1E1,1.01E2,1E0,3E0,1E0,2.1E2,6E0,5.3E1,1.5E1,2.4E1,2E0,1E0,1E0,3E0,1.92E2,4E0,4E0,2E0,2.7E1,3E0,3.1E1,2E0],"tree_param":{"num_deleted":"0","num_feature":"30","num_nodes":"101","size_leaf_vector":"1"}},{"base_weights":[3.3424732E-1,-2.1583357E1,2.1444983E1,-2.4416162E1,-6.14779E0,1.3957075E1,2.7754017E1,-3.2692005E1,-2.2381128E1,-8.797602E0,-2.3991127E0,8.509443E0,1.709841E1,2.4031477E1,3.285987E1,-4.491029E0,-3.0380437E0,-2.371193E1,-1.744727E1,-9.534066E0,-2.1744232E0,-7.1724854E0,-4.7615898E-1,-7.3310685E-1,9.906404E0,1.757802E1,5.220825E0,3.0241505E1,2.2726463E1,3.0449186E1,4.023836E1,-2.4957531E1,-2.169646E1,-1.7805056E1,-6.3727784E-1,-5.6363297E0,-1.0708059E1,2.428131E0,-5.4215825E-1,-1.0831909E0,-1.0435072E1,-4.177704E0,1.319629E0,1.1011556E0,-7.428314E0,1.1404446E1,3.548653E0,-4.9853516E-1,1.7708584E1,4.6242675E-1,8.31602E0,1.0380096E1,3.1608286E1,2.298851E1,-2.493449E0,2.8436726E1,3.840424E1,1.5305665E0,4.1890926E1,-1.4089373E0,-2.5180762E0,-3.065918E-1,-2.1796234E0,-1.9022026E0,-1.3328909E0,-7.907786E-1,9.424316E-2,-7.640765E-1,-1.2856265E0,2.9465333E-1,4.3646242E-2,1.4216797E-1,-6.803772E-1,-1.641805E-1,-1.2712891E0,-5.100654E-1,-1.0566407E-1,6.773834E-1,2.6797209E-2,-1.5501302E-1,4.3526435E-1,-1.1683675E0,2.6688844E-1,-4.0619874E-1,1.2162236E0,-5.513379E-1,5.746627E-1,-4.343811E-1,1.7834281E0,-1.4815268E-1,2.2522381E-1,9.8979247E-1,2.0324707E-2,1.4469279E0,-9.437256E-2,2.2249146E-1,3.2384243E0,1.3472515E0,2.3846204E0,-1.0249757E0,6.5095824E-1,2.8850055E0,-8.3079225E-1,3.9454174E0,7.1278685E-1,4.8150764E0,3.2956047E0],"categories":[],"categories_nodes":[],"categories_segments":[],"categories_sizes":[],"default_left":[0,0,0,0,0,0,0,0,0,0,0,0,0,0,0,0,0,0,0,0,0,0,0,0,0,0,0,0,0,0,0,0,0,0,0,0,0,0,0,0,0,0,0,0,0,0,0,0,0,0,0,0,0,0,0,0,0,0,0,0,0,0,0,0,0,0,0,0,0,0,0,0,0,0,0,0,0,0,0,0,0,0,0,0,0,0,0,0,0,0,0,0,0,0,0,0,0,0,0,0,0,0,0,0,0,0,0],"id":24,"left_children":[1,3,5,7,9,11,13,15,17,19,21,23,25,27,29,-1,-1,31,33,35,37,39,41,43,45,47,49,51,53,55,57,59,61,63,-1,65,67,69,-1,71,73,75,77,79,81,83,85,-1,87,89,91,93,95,97,99,101,103,-1,105,-1,-1,-1,-1,-1,-1,-1,-1,-1,-1,-1,-1,-1,-1,-1,-1,-1,-1,-1,-1,-1,-1,-1,-1,-1,-1,-1,-1,-1,-1,-1,-1,-1,-1,-1,-1,-1,-1,-1,-1,-1,-1,-1,-1,-1,-1,-1,-1],"loss_changes":[6.9126906E5,3.1901031E4,3.5563438E4,9.693281E3,1.1212217E3,5.843992E3,7.0410938E3,2.0248125E3,2.8692812E3,3.0607715E2,4.4635446E2,1.6857529E3,1.1671797E3,1.2739219E3,1.8163906E3,0E0,0E0,4.4010938E2,3.223828E2,2.1420117E2,1.327261E2,2.6683276E2,2.4481184E2,2.2923354E2,1.0357637E3,7.128281E2,1.4343613E2,7.3060156E2,1.4055078E3,1.0371406E3,9.657461E2,2.1535938E2,2.2500781E2,3.238789E2,0E0,2.4654645E2,1.9828076E2,2.8438892E0,0E0,9.5648674E1,1.5939307E2,2.9177444E1,1.4158362E2,1.3605652E2,2.0305125E2,1.1159492E3,4.897998E2,0E0,6.6233594E2,2.07333E1,7.499008E1,1.988758E2,7.487578E2,1.3274141E3,2.7621246E2,1.9103125E3,5.0689062E2,0E0,4.2665625E2,0E0,0E0,0E0,0E0,0E0,0E0,0E0,0E0,0E0,0E0,0E0,0E0,0E0,0E0,0E0,0E0,0E0,0E0,0E0,0E0,0E0,0E0,0E0,0E0,0E0,0E0,0E0,0E0,0E0,0E0,0E0,0E0,0E0,0E0,0E0,0E0,0E0,0E0,0E0,0E0,0E0,0E0,0E0,0E0,0E0,0E0,0E0,0E0],"parents":[2147483647,0,0,1,1,2,2,3,3,4,4,5,5,6,6,7,7,8,8,9,9,10,10,11,11,12,12,13,13,14,14,17,17,18,18,19,19,20,20,21,21,22,22,23,23,24,24,25,25,26,26,27,27,28,28,29,29,30,30,31,31,32,32,33,33,35,35,36,36,37,37,39,39,40,40,41,41,42,42,43,43,44,44,45,45,46,46,48,48,49,49,50,50,51,51,52,52,53,53,54,54,55,55,56,56,58,58],"right_children":[2,4,6,8,10,12,14,16,18,20,22,24,26,28,30,-1,-1,32,34,36,38,40,42,44,46,48,50,52,54,56,58,60,62,64,-1,66,68,70,-1,72,74,76,78,80,82,84,86,-1,88,90,92,94,96,98,100,